tree
version=v4
num_class=1
num_tree_per_iteration=1
label_index=0
max_feature_idx=8
objective=binary sigmoid:1
feature_names=Column_0 Column_1 Column_2 Column_3 Column_4 Column_5 Column_6 Column_7 Column_8
feature_infos=[-1:1] [-1:1] [0:15.026278495788574] [-8.5566978454589844:7.8358535766601562] [3.8246984331635758e-05:0.0052674761973321438] [6.2230925559997559:94.223381042480469] [0:1] [0:1] [0.0099999997764825821:1]
tree_sizes=896 902 911 896 907 907 909 904 905 905 904 908 903 905 913 915 910 911 915 921 918 912 913 917 917 922 912 925 912 924 916 913 915 913 924 915 920 917 914 924 928 924 916 922 919 916 918 916 920 915

Tree=0
num_leaves=7
num_cat=0
split_feature=3 2 0 1 3 6
split_gain=834.027 1106.03 411.9 1912.75 371.165 328.93
threshold=0.1893180459737778 0.12024153396487237 0.37256073951721197 -0.50938662886619557 -1.1054341197013853 1.0000000180025095e-35
decision_type=2 2 2 2 2 2
left_child=1 4 -2 -4 -1 -3
right_child=2 5 3 -5 -6 -7
leaf_value=-0.47605706680344162 -0.41664036586451941 -0.46041700580203032 -0.39249959282361413 -0.41663465376572417 -0.43766009181171162 -0.41930493210311703
leaf_weight=990.68566274642944 72222.125522211194 487.53012189269066 11029.69681276381 32116.359079912305 1722.3809135407209 135914.62880802155
leaf_count=3831 248703 1831 36085 110594 6189 470613
internal_value=-0.417474 -0.420081 -0.41433 -0.410464 -0.451689 -0.419452
internal_weight=254483 139115 115368 43146.1 2713.07 136402
internal_count=877846 482464 395382 146679 10020 472444
is_linear=0
shrinkage=1


Tree=1
num_leaves=7
num_cat=0
split_feature=3 2 0 1 3 0
split_gain=741.672 992.019 365.512 1689.95 338.527 296.08
threshold=0.1893180459737778 0.12024153396487237 0.37256073951721197 -0.50938662886619557 -1.1054341197013853 0.69930991530418407
decision_type=2 2 2 2 2 2
left_child=1 4 -2 -4 -1 -3
right_child=2 5 3 -5 -6 -7
leaf_value=-0.034327029736455544 0.022289174627568395 0.020957776003516979 0.04488362672636366 0.022294566669928139 0.0024332566972465873 0.015531150449785145
leaf_weight=982.7252502143383 72582.38255417347 103815.66708001494 11138.246679872274 32276.599773928523 1723.3346801698208 33187.332615584135
leaf_count=3831 248703 357011 36085 110594 6189 115433
internal_value=0.0215053 0.0190512 0.0244608 0.0280908 -0.0109243 0.0196434
internal_weight=255706 139709 115997 43414.8 2706.06 137003
internal_count=877846 482464 395382 146679 10020 472444
is_linear=0
shrinkage=0.05


Tree=2
num_leaves=7
num_cat=0
split_feature=3 6 0 0 1 1
split_gain=662.728 693.372 404.661 309.279 1503.84 80.3366
threshold=0.024564894847571853 1.0000000180025095e-35 0.69930991530418407 0.39271505177021032 -0.52803644537925709 -0.68355163931846608
decision_type=2 2 2 2 2 2
left_child=1 -1 -3 5 -5 -2
right_child=3 2 -4 4 -6 -7
leaf_value=-0.028058138974079883 0.018618754096827696 0.019695041328867062 0.013136053240355725 0.041271673769584599 0.020914942848306254 0.022022987592752105
leaf_weight=819.07299140095711 25096.897730603814 94976.098147705197 31266.389669463038 12115.950850516558 36132.708198070526 56396.817644655704
leaf_count=3139 86043 325337 108868 39111 123322 192026
internal_value=0.0203402 0.0177731 0.0180707 0.022854 0.0260276 0.0209749
internal_weight=256804 127062 126242 129742 48248.7 81493.7
internal_count=877846 437344 434205 440502 162433 278069
is_linear=0
shrinkage=0.05


Tree=3
num_leaves=7
num_cat=0
split_feature=2 6 4 1 1 5
split_gain=520.45 207.732 184.507 133.52 129.304 54.283
threshold=0.091545868664979949 1.0000000180025095e-35 0.00028214929625391966 -0.2693240344524383 -0.72982063889503468 41.469196319580085
decision_type=2 2 2 2 2 2
left_child=3 5 -3 4 -1 -2
right_child=1 2 -4 -5 -6 -7
leaf_value=0.033549254681146778 0.013929092659421063 0.021591583338061191 0.018669200846210751 0.031402943723953212 -0.0086432915775596 -0.014051018124170908
leaf_weight=195.48860986530781 247.27135951817036 77992.87938028574 176115.41471931338 270.54329653084278 2395.9689705967903 573.79814609885216
leaf_count=647 861 264183 600350 907 8778 2120
internal_value=0.0192471 0.0194851 0.0195662 -0.00195543 -0.00544875 -0.0056179
internal_weight=257791 254929 254108 2862 2591.46 821.07
internal_count=877846 867514 864533 10332 9425 2981
is_linear=0
shrinkage=0.05


Tree=4
num_leaves=7
num_cat=0
split_feature=3 2 3 0 1 0
split_gain=593.674 781.571 326.745 321.606 1512.24 242.984
threshold=0.32934379577636724 0.12024153396487237 -1.1054341197013853 0.45201864838600164 -0.50938662886619557 0.69930991530418407
decision_type=2 2 2 2 2 2
left_child=1 2 -1 -2 -5 -3
right_child=3 5 -4 4 -6 -7
leaf_value=-0.033063425014401203 0.019100408662480875 0.017860062468235037 0.0024690259121449981 0.043498763556607173 0.019319165901002567 0.013160967700967233
leaf_weight=975.44811648130417 69832.629411906004 113146.80016823113 1917.1985308676958 8405.0439714491367 28042.712198242545 36368.093267530203
leaf_count=3831 236273 384414 6832 26484 94853 125159
internal_value=0.0182196 0.0162191 -0.00952039 0.0210882 0.0248961 0.0167171
internal_weight=258688 152408 2892.65 106280 36447.8 149515
internal_count=877846 520236 10663 357610 121337 509573
is_linear=0
shrinkage=0.05


Tree=5
num_leaves=7
num_cat=0
split_feature=3 2 3 4 1 1
split_gain=544.112 760.654 330.659 242.878 650.356 121.863
threshold=0.13895351439714435 0.194383479654789 -1.4928808212280271 0.00029144865402486181 -0.50938662886619557 -0.24825246632099149
decision_type=2 2 2 2 2 2
left_child=1 2 -1 4 -2 -3
right_child=3 5 -4 -5 -6 -7
leaf_value=-0.032283263905759932 0.034250405135851737 0.013953777119385459 0.0016085994204297176 0.018109338533562377 0.019315606010042584 0.01702864762494288
leaf_weight=907.82536573708057 9555.0470535010099 54764.164293393493 3457.207236751914 81497.815270662308 30772.585815787315 78434.530524775386
leaf_count=3551 30719 186864 12315 274617 103491 265986
internal_value=0.0172468 0.0150915 -0.0054459 0.0196804 0.022855 0.0157645
internal_weight=259389 137564 4365.03 121825 40327.6 133199
internal_count=877543 468716 15866 408827 134210 452850
is_linear=0
shrinkage=0.05


Tree=6
num_leaves=7
num_cat=0
split_feature=2 6 0 4 0 5
split_gain=371.122 167.085 162.618 134.751 124.45 36.4436
threshold=0.12024153396487237 1.0000000180025095e-35 0.6835516393184663 0.00028214929625391966 0.96863394975662243 59.242088317871101
decision_type=2 2 2 2 2 2
left_child=2 5 -1 -3 -4 -2
right_child=1 3 4 -5 -6 -7
leaf_value=0.028366240635212276 -0.00089004437655448214 0.018368263224566972 -0.0057868936099858288 0.015875370808651375 0.028828674478107299 -0.026747642108706355
leaf_weight=473.34256595373154 552.45239239931107 78160.867321997881 3103.5090826302767 177356.17342051864 282.35813419520855 179.91225090622902
leaf_count=1568 1965 262149 11327 598916 939 679
internal_value=0.0163379 0.0165696 0.000947796 0.016638 -0.00289253 -0.00727002
internal_weight=260109 256249 3859.21 255517 3385.87 732.365
internal_count=877543 863709 13834 861065 12266 2644
is_linear=0
shrinkage=0.05


Tree=7
num_leaves=7
num_cat=0
split_feature=3 2 3 0 1 0
split_gain=485.326 613.022 321.744 282.209 1321.99 176.096
threshold=0.1893180459737778 0.194383479654789 -1.0863305926322935 0.45201864838600164 -0.52803644537925709 0.71473535895347606
decision_type=2 2 2 2 2 2
left_child=1 2 -1 -2 -5 -3
right_child=3 5 -4 4 -6 -7
leaf_value=-0.02437153325959196 0.016066369698032448 0.01508536559343002 0.0044096811727394308 0.037629621918032312 0.016299968806573705 0.010842987863658716
leaf_weight=1415.3305372446775 77321.889634564519 106039.90276929736 3087.7138185948133 9428.3486542850733 31657.516132324934 31812.662637963891
leaf_count=5474 259402 357488 10864 29501 106157 108657
internal_value=0.0154809 0.0135134 -0.00463981 0.0178463 0.0211955 0.0141064
internal_weight=260763 142356 4503.04 118408 41085.9 137853
internal_count=877543 482483 16338 395060 135658 466145
is_linear=0
shrinkage=0.05


Tree=8
num_leaves=7
num_cat=0
split_feature=6 2 1 1 5 2
split_gain=323.754 182.504 145.41 127.976 62.848 27.5792
threshold=1.0000000180025095e-35 0.12024153396487237 -0.86046862602233876 -0.72982063889503468 40.403232574462898 0.030331321991980079
decision_type=2 2 2 2 2 2
left_child=4 3 -3 -2 -1 -6
right_child=1 2 -4 -5 5 -7
leaf_value=0.0071803432980244502 0.031039919092858793 0.012334297478696649 0.01548952232626589 -0.00032056303419841092 -0.039323802335364769 -0.013950500819176058
leaf_weight=361.93496677279472 364.63772581517696 44117.729860663414 212629.76978228986 2949.7453697472811 123.47217711806297 790.90678556263447
leaf_count=1271 1186 148689 712376 10609 493 2919
internal_value=0.0146736 0.0147969 0.0149474 0.00313794 -0.0104408 -0.017416
internal_weight=261338 260062 256747 3314.38 1276.31 914.379
internal_count=877543 872860 861065 11795 4683 3412
is_linear=0
shrinkage=0.05


Tree=9
num_leaves=7
num_cat=0
split_feature=2 1 1 1 1 5
split_gain=274.607 133.67 123.985 604.961 115.346 47.3013
threshold=0.12024153396487237 -0.72982063889503468 -0.86046862602233876 -0.71473535895347584 -0.2693240344524383 54.511764526367195
decision_type=2 2 2 2 2 2
left_child=1 -1 5 -4 -3 -2
right_child=2 4 3 -5 -6 -7
leaf_value=0.029365372246605632 0.013039307047818914 -0.0057761446458804294 0.022831615542779109 0.013747002333499512 0.021737435392177176 0.0097014031773505274
leaf_weight=366.17515009641647 26419.262876302004 3056.9036743193865 20243.82383903861 193575.95028340816 434.14990656077862 17773.775644570589
leaf_count=1186 88657 11192 66153 648867 1456 60032
internal_value=0.0139108 0.000668282 0.0141088 0.0146072 -0.00234929 0.0116971
internal_weight=261870 3857.23 258013 213820 3491.05 44193
internal_count=877543 13834 863709 715020 12648 148689
is_linear=0
shrinkage=0.05


Tree=10
num_leaves=7
num_cat=0
split_feature=3 6 0 1 0 3
split_gain=400.231 423.761 293.411 1066.74 260.159 60.648
threshold=0.43462136387825018 1.0000000180025095e-35 0.43245348334312445 -0.50938662886619557 0.69930991530418407 0.012626076117157938
decision_type=2 2 2 2 2 2
left_child=1 5 -2 -4 -3 -1
right_child=2 4 3 -5 -6 -7
leaf_value=-0.02682247150010152 0.013659006558621095 0.01297165447315456 0.035525187755657217 0.014573809145900941 0.0083499516424619287 0.0042149287520601934
leaf_weight=807.3433825224638 64965.469293311238 121349.79330231249 7878.5321643948555 26548.861278072 40659.310713350773 195.14034636318684
leaf_count=3141 216676 406196 24420 88358 138371 674
internal_value=0.0131362 0.0116112 0.0156371 0.0193693 0.0118118 -0.0207826
internal_weight=262404 163012 99392.9 34427.4 162009 1002.48
internal_count=877836 548382 329454 112778 544567 3815
is_linear=0
shrinkage=0.05


Tree=11
num_leaves=7
num_cat=0
split_feature=3 2 3 0 1 0
split_gain=365.213 387.866 348.861 218.991 653.522 115.78
threshold=0.81461924314498912 0.12024153396487237 -0.38686411082744593 0.37256073951721197 -0.50938662886619557 0.69930991530418407
decision_type=2 2 2 2 2 2
left_child=1 2 -1 -2 -5 -3
right_child=3 5 -4 4 -6 -7
leaf_value=-0.020422241035873326 0.013452884408771272 0.012327560382155144 0.011759892496035894 0.034106864593088017 0.014910626308945664 0.0094404499571009246
leaf_weight=1810.1470980793238 46226.033158898354 141766.13749249279 1572.9795107245445 5721.4359030723572 19706.285900145769 46017.750972285867
leaf_count=6963 153784 473405 5376 17708 65314 155286
internal_value=0.0124591 0.0113178 -0.00546015 0.0155036 0.0192311 0.0116201
internal_weight=262821 191167 3383.13 71653.8 25427.7 187784
internal_count=877836 641030 12339 236806 83022 628691
is_linear=0
shrinkage=0.05


Tree=12
num_leaves=7
num_cat=0
split_feature=3 2 3 0 1 0
split_gain=330.383 429.562 339.049 252.131 956.833 120.416
threshold=0.42089298367500311 0.17192232608795169 -1.1054341197013853 0.45201864838600164 -0.50938662886619557 0.69930991530418407
decision_type=2 2 2 2 2 2
left_child=1 2 -1 -2 -5 -3
right_child=3 5 -4 4 -6 -7
leaf_value=-0.027329450734488 0.012272214323481412 0.011625971156654154 0.0036360881351933725 0.033082838112805102 0.013057087307476307 0.0083895423859655319
leaf_weight=1224.393280595541 66511.807227492332 120229.58227971196 3172.1782009899616 7690.9944304674864 26579.008874699473 37787.110702186823
leaf_count=4848 221092 401210 11078 23717 88178 127713
internal_value=0.0118188 0.0104232 -0.0049917 0.0140678 0.0175522 0.0108521
internal_weight=263195 162413 4396.57 100782 34270 158017
internal_count=877836 544849 15926 332987 111895 528923
is_linear=0
shrinkage=0.05


Tree=13
num_leaves=7
num_cat=0
split_feature=3 2 3 0 7 0
split_gain=306.656 310.476 306.805 177.354 481.264 90.1272
threshold=0.91008779406547557 0.12024153396487237 -0.38686411082744593 0.37256073951721197 1.0000000180025095e-35 0.69930991530418407
decision_type=2 2 2 2 2 2
left_child=1 2 -1 -2 -5 -3
right_child=3 5 -4 4 -6 -7
leaf_value=-0.018956991546317949 0.012261199511103226 0.011108390087281084 0.01089532577772051 0.01386788832441798 0.031297939543132106 0.008605085817177234
leaf_weight=1793.834084674716 42497.917184874415 146879.32175798714 1652.7879329323769 17980.499284520745 5079.5583166778088 47640.525008305907
leaf_count=6963 140928 489008 5623 59357 15668 160289
internal_value=0.0112134 0.0102318 -0.00464265 0.0141775 0.0177085 0.0104953
internal_weight=263524 197966 3446.62 65558 23060.1 194520
internal_count=877836 661883 12586 215953 75025 649297
is_linear=0
shrinkage=0.05


Tree=14
num_leaves=7
num_cat=0
split_feature=3 2 1 0 1 1
split_gain=279.475 512.324 219.545 201.774 902.719 104.814
threshold=0.024564894847571853 0.194383479654789 -0.72982063889503468 0.45201864838600164 -0.52803644537925709 -0.24825246632099149
decision_type=2 2 2 2 2 2
left_child=1 2 -1 -2 -5 -3
right_child=3 5 -4 4 -6 -7
leaf_value=0.020553414841415478 0.010822531689383833 0.0078267814158416247 -0.013257734622987516 0.027443915543431747 0.011045705524632934 0.010753350213363235
leaf_weight=556.42639604210854 86591.527302443981 51848.299841344357 3463.9259093254805 10972.601836502552 35697.764798045158 74693.967290177941
leaf_count=1843 287328 173995 12944 34267 118458 249001
internal_value=0.0106403 0.00899603 -0.00857424 0.0122512 0.0149016 0.00955432
internal_weight=263825 130563 4020.35 133262 46670.4 126542
internal_count=877836 437783 14787 440053 152725 422996
is_linear=0
shrinkage=0.05


Tree=15
num_leaves=7
num_cat=0
split_feature=3 6 4 1 1 3
split_gain=265.232 327.456 193.743 452.593 172.982 68.1952
threshold=-0.037511389702558511 1.0000000180025095e-35 0.0002747779071796686 -0.50938662886619557 -0.2693240344524383 1.5885910391807558
decision_type=2 2 2 2 2 2
left_child=1 -1 3 -2 -3 -4
right_child=2 4 5 -5 -6 -7
leaf_value=-0.02397485651746897 0.024049855612925886 0.0064351714629174777 0.0096796582052531763 0.011625342110915348 0.010218275946929461 0.012794059669818539
leaf_weight=772.48413242399693 9547.3826440423727 51389.421575278044 74304.410565197468 31569.364957541227 73367.607550621033 23041.307559743524
leaf_count=3034 30220 173220 246502 104317 244345 75840
internal_value=0.0101236 0.008459 0.0116327 0.0145109 0.00866002 0.0104169
internal_weight=263992 125530 138462 41116.7 124757 97345.7
internal_count=877478 420599 456879 134537 417565 322342
is_linear=0
shrinkage=0.05


Tree=16
num_leaves=7
num_cat=0
split_feature=6 4 1 2 5 5
split_gain=220.327 117.529 491.732 111.029 76.8231 17.1648
threshold=1.0000000180025095e-35 0.0002951235073851422 -0.71473535895347584 0.091545868664979949 39.695861816406257 34.668222427368171
decision_type=2 2 2 2 2 2
left_child=4 2 -2 -3 5 -1
right_child=1 3 -4 -5 -6 -7
leaf_value=0.00038905658222853734 0.019120070769927312 -0.0067877604492199862 0.009438860773306447 0.0090572324737823572 -0.018524353483106184 0.023735625802394866
leaf_weight=201.26599708199501 16022.016622856259 1111.9963932484388 72339.984477207065 173499.52975426614 934.53313310444355 128.34681648015976
leaf_count=715 51648 4066 240465 576614 3532 438
internal_value=0.00960827 0.00970838 0.0111945 0.00895629 -0.0112092 0.00952419
internal_weight=264238 262974 88362 174612 1264.15 329.613
internal_count=877478 872793 292113 580680 4685 1153
is_linear=0
shrinkage=0.05


Tree=17
num_leaves=7
num_cat=0
split_feature=6 4 1 2 5 5
split_gain=198.746 107.416 488.636 109.903 69.6546 15.411
threshold=1.0000000180025095e-35 0.0002747779071796686 -0.71473535895347584 0.12024153396487237 39.695861816406257 34.668222427368171
decision_type=2 2 2 2 2 2
left_child=4 2 -2 -3 5 -1
right_child=1 3 -4 -5 -6 -7
leaf_value=0.00036967516332259593 0.019527141210439764 -0.0042268172355986369 0.0089722736594726998 0.0086796137698092919 -0.017669451549062281 0.022463661355532016
leaf_weight=201.27879126369953 13236.941090598702 1663.7815740704536 63905.881228864193 184396.05866497755 930.90415613353252 128.87601745128632
leaf_count=715 42459 6025 212219 612090 3532 438
internal_value=0.00911983 0.00921472 0.0107836 0.00856418 -0.0106762 0.00903586
internal_weight=264464 263203 77142.8 186060 1261.06 330.155
internal_count=877478 872793 254678 618115 4685 1153
is_linear=0
shrinkage=0.05


Tree=18
num_leaves=7
num_cat=0
split_feature=3 2 3 2 6 4
split_gain=238.764 206.838 272.384 107.112 104.907 85.4437
threshold=0.95970985293388378 0.12024153396487237 -1.0863305926322935 0.25280374288558966 1.0000000180025095e-35 0.00038898113416507846
decision_type=2 2 2 2 2 2
left_child=1 2 -1 -2 -3 -5
right_child=3 4 -4 5 -6 -7
leaf_value=-0.027113145501898979 0.025602683571674278 -0.011973929763844995 0.0042978674534200397 0.012889466641007711 0.0080981731411352131 0.0091574113648356086
leaf_weight=947.78577177226543 1291.1467070877552 652.27795816957951 2531.2994063198566 31177.008985430002 197849.41429930925 30216.796083346009
leaf_count=3903 4064 2394 8818 101722 656849 99728
internal_value=0.00865704 0.00782033 -0.00426457 0.0113529 0.00803216 0.0110528
internal_weight=264666 201981 3479.09 62685 198502 61393.8
internal_count=877478 671964 12721 205514 659243 201450
is_linear=0
shrinkage=0.05


Tree=19
num_leaves=7
num_cat=0
split_feature=3 2 3 4 1 6
split_gain=223.259 399.645 200.244 148.917 341.219 123.985
threshold=-0.14031689614057538 0.23465447127819064 -1.4928808212280271 0.00027296289044898009 -0.50938662886619557 1.0000000180025095e-35
decision_type=2 2 2 2 2 2
left_child=1 2 -1 4 -2 -3
right_child=3 5 -4 -5 -6 -7
leaf_value=-0.027594606512072146 0.019997767759434168 -0.027683314721885757 -0.0023322655280611122 0.0084884680713853879 0.0095231045689148867 0.0072497465217407691
leaf_weight=1015.852680966258 10154.03891505301 253.61777882277966 3432.8114270716906 104004.58041241765 33194.284989848733 112787.81273303926
leaf_count=4064 32189 984 12179 343471 109361 375230
internal_value=0.00821851 0.00659261 -0.00810583 0.00951484 0.0119771 0.00717113
internal_weight=264843 117490 4448.66 147353 43348.3 113041
internal_count=877478 392457 16243 485021 141550 376214
is_linear=0
shrinkage=0.05


Tree=20
num_leaves=7
num_cat=0
split_feature=3 2 3 4 1 6
split_gain=213.522 214.593 242.868 131.91 196.457 86.972
threshold=0.43462136387825018 0.194383479654789 -1.0863305926322935 0.00039966673648450529 -0.50938662886619557 1.0000000180025095e-35
decision_type=2 2 2 2 2 2
left_child=1 2 -1 4 -2 -3
right_child=3 5 -4 -5 -6 -7
leaf_value=-0.021352616726287039 0.016452391863110018 -0.015851594397684184 0.0032612127076707652 0.0076977043838343112 0.0095800541312754776 0.0071356839361315164
leaf_weight=1368.0764218717813 13972.273217976093 411.63760970532894 3739.1152131557465 45758.435609847307 40697.381450146437 159136.99566668272
leaf_count=5478 44619 1548 12933 151040 133707 528335
internal_value=0.00786167 0.00675333 -0.00333505 0.00967876 0.0113367 0.00707628
internal_weight=265084 164656 5107.19 100428 54669.7 159549
internal_count=877660 548294 18411 329366 178326 529883
is_linear=0
shrinkage=0.05


Tree=21
num_leaves=7
num_cat=0
split_feature=3 2 3 1 0 2
split_gain=196.171 127.899 158.251 102.003 86.5859 89.4967
threshold=1.2371462583541872 0.060426848009228713 -1.4928808212280271 -0.87137606739997853 0.010907442308962378 0.40424956381320959
decision_type=2 2 2 2 2 2
left_child=1 2 -1 -3 -2 -6
right_child=4 3 -4 -5 5 -7
leaf_value=-0.035374843672669916 0.0084054744764441511 0.0045157368180690277 0.0012567711547558861 0.0074266280654337827 0.022779368646296094 0.011681209983115426
leaf_weight=375.46880647540092 25434.366366162896 36138.760515451431 1359.3219957202673 180147.19263570011 2000.9678748846054 19765.195090934634
leaf_count=1641 83698 120289 4854 596584 6305 64289
internal_value=0.00746459 0.00683181 -0.00668739 0.00694028 0.0103872 0.0127025
internal_weight=265221 218021 1734.79 216286 47200.5 21766.2
internal_count=877660 723368 6495 716873 154292 70594
is_linear=0
shrinkage=0.05


Tree=22
num_leaves=7
num_cat=0
split_feature=3 6 2 2 1 1
split_gain=180.758 194.965 114.71 101.481 63.9771 52.4107
threshold=0.43462136387825018 1.0000000180025095e-35 0.194383479654789 0.35283331573009497 -0.84915164113044728 -0.52803644537925709
decision_type=2 2 2 2 2 2
left_child=1 -1 -3 5 -5 -2
right_child=3 2 -4 4 -6 -7
leaf_value=-0.016176772467329379 0.020237127752134224 -0.0016417316998165064 0.0064245529816297949 0.0055545013378322031 0.0089747963429187665 0.010398029106764786
leaf_weight=978.19172890484333 2761.9655087888241 4532.5346244722605 159315.36761432886 16561.518564924598 78541.991198047996 2661.5900893211365
leaf_count=3819 8683 16140 528335 54602 257378 8703
internal_value=0.00708773 0.0060685 0.00620141 0.00875879 0.00837924 0.0154114
internal_weight=265353 164826 163848 100527 95103.5 5423.56
internal_count=877660 548294 544475 329366 311980 17386
is_linear=0
shrinkage=0.05


Tree=23
num_leaves=7
num_cat=0
split_feature=3 2 3 0 1 1
split_gain=166.87 135.89 189.285 118.365 642.066 82.8839
threshold=0.81461924314498912 0.12024153396487237 -1.7663838863372801 0.52803644537925731 -0.50938662886619557 -0.87137606739997853
decision_type=2 2 2 2 2 2
left_child=1 2 -1 -2 -5 -3
right_child=3 5 -4 4 -6 -7
leaf_value=-0.033707905424582366 0.0074480686530873294 0.0038139479744007938 0.00073793992153138805 0.030527332153483772 0.0079185560177501123 0.0066087467942994946
leaf_weight=461.79392406344414 50520.534144207835 31892.823528379202 2885.0392089635134 3801.1466963291168 18047.012691378593 157858.77245801687
leaf_count=2028 165963 106180 10325 11555 59182 522427
internal_value=0.00673037 0.00596287 -0.00402352 0.00877814 0.0118533 0.00613903
internal_weight=265467 193098 3346.83 72368.7 21848.2 189752
internal_count=877660 640960 12353 236700 70737 628607
is_linear=0
shrinkage=0.05


Tree=24
num_leaves=7
num_cat=0
split_feature=6 1 1 8 2 0
split_gain=122.252 105.864 397.152 49.2569 20.1094 22.6224
threshold=1.0000000180025095e-35 -0.86046862602233876 -0.71473535895347584 0.40500000119209295 0.030331321991980079 0.81279832124710094
decision_type=2 2 2 2 2 2
left_child=4 3 -3 -2 -1 -6
right_child=1 2 -4 -5 5 -7
leaf_value=-0.025744918472797796 0.0020267664662763371 0.013515825311425596 0.0062323054301814292 0.0054836924350268679 -0.0010952443607996189 -0.015905298938256193
leaf_weight=159.32923173904419 15981.338507011533 20662.932941660285 198649.9857826978 29016.718705192208 673.76997634768486 416.86470945179462
leaf_count=666 53228 66713 656985 96029 2499 1540
internal_value=0.00639153 0.00646532 0.00691859 0.00425602 -0.00920327 -0.00676536
internal_weight=265561 264311 219313 44998.1 1249.96 1090.63
internal_count=877660 872955 723698 149257 4705 4039
is_linear=0
shrinkage=0.05


Tree=25
num_leaves=7
num_cat=0
split_feature=3 2 3 0 7 6
split_gain=167.102 291.478 141.867 121.09 695.676 99.7027
threshold=-0.15281362831592557 0.23465447127819064 -1.4928808212280271 0.47136868536472326 1.0000000180025095e-35 1.0000000180025095e-35
decision_type=2 2 2 2 2 2
left_child=1 2 -1 -2 -5 -3
right_child=3 5 -4 4 -6 -7
leaf_value=-0.024629791118959229 0.0061039344622000388 -0.027171961969139333 -0.0031553673174636375 0.0058120390650131804 0.019359266226706487 0.0051751459518249322
leaf_weight=997.34735921025276 97333.577237069607 237.75042247772217 3350.8815397471189 39032.691619768739 12514.541119068861 112254.70619305968
leaf_count=4075 320545 938 11891 128741 39451 372297
internal_value=0.00603098 0.00461553 -0.00808546 0.00714178 0.00910132 0.00510654
internal_weight=265721 116841 4348.23 148881 51547.2 112492
internal_count=877938 389201 15966 488737 168192 373235
is_linear=0
shrinkage=0.05


Tree=26
num_leaves=7
num_cat=0
split_feature=6 1 1 5 5 4
split_gain=105.18 78.421 311.366 56.4159 48.2105 22.5939
threshold=1.0000000180025095e-35 -0.86046862602233876 -0.71473535895347584 40.263051986694343 54.511764526367195 0.00034040751052089041
decision_type=2 2 2 2 2 2
left_child=3 4 -3 5 -2 -1
right_child=1 2 -4 -5 -6 -7
leaf_value=-0.0055550637972455828 0.0052391018648582531 0.012017791923020481 0.0055777400075400739 -0.015434283553524927 0.0019041780517126527 0.020257898922894538
leaf_weight=155.42562738060951 26898.54723341763 20725.622264787555 198779.31743557751 892.75751714408398 18151.343603104353 184.57972794771194
leaf_count=566 88902 66951 657036 3455 60390 638
internal_value=0.00572795 0.00579586 0.00618586 -0.00883801 0.00389548 0.00847641
internal_weight=265788 264555 219505 1232.76 45049.9 340.005
internal_count=877938 873279 723987 4659 149292 1204
is_linear=0
shrinkage=0.05


Tree=27
num_leaves=7
num_cat=0
split_feature=3 2 3 4 7 6
split_gain=150.904 261.076 131.39 115.394 222.173 86.2208
threshold=-0.15281362831592557 0.23465447127819064 -2.3195198774337764 0.00029144865402486181 1.0000000180025095e-35 1.0000000180025095e-35
decision_type=2 2 2 2 2 2
left_child=1 2 -1 4 -2 -3
right_child=3 5 -4 -5 -6 -7
leaf_value=-0.036547794218333006 0.0065206159181289899 -0.025614007649203931 -0.0052894081898942225 0.0055093587603520988 0.014215217368216453 0.0046227940531440364
leaf_weight=366.29995170235634 37228.141694948077 235.28433379530907 3975.5528700649738 99179.859457582235 12542.642195627093 112335.79102231562
leaf_count=1590 122214 938 14376 326509 40014 372297
internal_value=0.00543995 0.00409532 -0.00793433 0.00649533 0.00845996 0.00455937
internal_weight=265864 116913 4341.85 148951 49770.8 112571
internal_count=877938 389201 15966 488737 162228 373235
is_linear=0
shrinkage=0.05


Tree=28
num_leaves=7
num_cat=0
split_feature=6 1 1 5 5 4
split_gain=88.0961 74.4434 314.062 50.8722 43.2351 20.5771
threshold=1.0000000180025095e-35 -0.84915164113044728 -0.71473535895347584 40.263051986694343 54.511764526367195 0.00034040751052089041
decision_type=2 2 2 2 2 2
left_child=3 4 -3 5 -2 -1
right_child=1 2 -4 -5 -6 -7
leaf_value=-0.0051871390965145467 0.004669152629688633 0.01178357614723235 0.0050332381379041731 -0.014494432555265006 0.0015751340182228052 0.019459441801134476
leaf_weight=154.97386434674263 28023.771506160498 18864.943951904774 198891.48573754728 886.94109949469566 18911.818401500583 184.82170930504799
leaf_count=566 92543 60839 657036 3455 62861 638
internal_value=0.00516682 0.00522879 0.00561809 -0.00819661 0.00342254 0.0082364
internal_weight=265919 264692 217756 1226.74 46935.6 339.796
internal_count=877938 873279 717875 4659 155404 1204
is_linear=0
shrinkage=0.05


Tree=29
num_leaves=7
num_cat=0
split_feature=3 0 7 0 0 7
split_gain=137.226 193.048 467.511 193.345 111.227 699.108
threshold=-0.050551135092973702 0.69930991530418407 1.0000000180025095e-35 0.61734244227409374 0.56457334756851207 1.0000000180025095e-35
decision_type=2 2 2 2 2 2
left_child=1 3 -3 -1 -2 -6
right_child=4 2 -4 -5 5 -7
leaf_value=0.0043248040648641434 0.0050408659415779209 0.0031959183784681698 -0.012594145672251561 0.014858807879801606 0.004850127969398807 0.020545938603696079
leaf_weight=89453.826801225543 97235.801003724337 25629.840509727597 5736.0216433554888 4578.1865956634283 34408.749502271414 8936.4184519797564
leaf_count=295882 319592 85777 20679 14759 113275 27974
internal_value=0.00490734 0.00370479 0.000308006 0.00483783 0.00597998 0.00808651
internal_weight=265979 125398 31365.9 94032 140581 43345.2
internal_count=877938 417097 106456 310641 460841 141249
is_linear=0
shrinkage=0.05


Tree=30
num_leaves=7
num_cat=0
split_feature=3 2 0 1 1 6
split_gain=128.635 251.043 107.031 85.8932 259.972 45.0662
threshold=-0.9569692313671111 0.30186145007610327 0.69930991530418407 -0.86046862602233876 -0.71473535895347584 1.0000000180025095e-35
decision_type=2 2 2 2 2 2
left_child=1 2 -1 -2 -5 -3
right_child=3 5 -4 4 -6 -7
leaf_value=0.0037346546115450546 0.0029939769430307726 -0.034146877814781165 -0.019058698197094028 0.011652060250947109 0.0050486260570098002 0.0033217441381454913
leaf_weight=712.95501433312893 35849.192795932293 79.373712465167046 1851.5182091444731 16496.826897785068 154440.44312348962 56520.074820041656
leaf_count=2397 118563 327 7305 53012 508783 187388
internal_value=0.00463111 0.00257524 -0.0127229 0.0052193 0.00568598 0.0032686
internal_weight=265950 59163.9 2564.47 206786 170937 56599.4
internal_count=877775 197417 9702 680358 561795 187715
is_linear=0
shrinkage=0.05


Tree=31
num_leaves=7
num_cat=0
split_feature=1 1 4 1 5 4
split_gain=78.66 273.216 1110 152.26 39.2215 46.6833
threshold=-0.84915164113044728 -0.71473535895347584 0.00031560151546727871 -0.24825246632099149 77.760295867919936 0.00036586196802090859
decision_type=2 2 2 2 2 2
left_child=4 2 -2 -3 -1 -6
right_child=1 3 -4 -5 5 -7
leaf_value=0.0027400412664491426 0.027356981812712206 0.0017094872111942283 0.0018071198962727464 0.0050018170424279348 -0.019681688501151609 0.0035152331928729125
leaf_weight=46097.433548927307 6459.4312651753426 45431.204837813973 12430.098482042551 154704.18980714679 429.36157876253128 436.7380119562149
leaf_count=152584 19955 152063 40935 509307 1484 1447
internal_value=0.00439888 0.00479704 0.0105451 0.00425446 0.00254192 -0.00799388
internal_weight=265988 219025 18889.5 200135 46963.5 866.1
internal_count=877775 722260 60890 661370 155515 2931
is_linear=0
shrinkage=0.05


Tree=32
num_leaves=7
num_cat=0
split_feature=3 0 1 0 0 1
split_gain=118.014 102.742 385.993 332.89 91.0176 276.51
threshold=0.84593027830123912 0.69930991530418407 -0.2693240344524383 0.61734244227409374 0.39271505177021032 -0.50938662886619557
decision_type=2 2 2 2 2 2
left_child=1 3 -3 -1 -2 -6
right_child=4 2 -4 -5 5 -7
leaf_value=0.0036684833839499436 0.0046244547192149203 -0.004320436048989346 0.004850016632469617 0.014600937542732843 0.018580860745918481 0.0056182874068106334
leaf_weight=138254.33699055016 45943.940456837416 17790.293770581484 32318.225047141314 7331.5947941541672 5239.5469045937061 19146.668492943048
leaf_count=456391 150797 61267 106874 23463 16366 62617
internal_value=0.00417837 0.00354701 0.00159416 0.00421913 0.00593508 0.00840403
internal_weight=266025 195694 50108.5 145586 70330.2 24386.2
internal_count=877775 647995 168141 479854 229780 78983
is_linear=0
shrinkage=0.05


Tree=33
num_leaves=7
num_cat=0
split_feature=1 1 4 1 5 5
split_gain=71.8489 230.894 984.117 123.205 35.6504 54.4438
threshold=-0.84915164113044728 -0.71473535895347584 0.00031560151546727871 -0.24825246632099149 54.511764526367195 55.092645645141609
decision_type=2 2 2 2 2 2
left_child=4 2 -2 -3 -1 -6
right_child=1 3 -4 -5 5 -7
leaf_value=0.0033239204974235869 0.025488533804924024 0.0015617123086905252 0.0014138913764249 0.0045231698768838334 -0.012913127721003354 0.0010512539143135609
leaf_weight=28090.945501565933 6445.5980609357357 45431.068503916264 12429.447771564126 154767.49089619517 724.88368420302868 18158.985011339188
leaf_count=92758 19955 152063 40935 509307 2478 60279
internal_value=0.00396911 0.00434959 0.009636 0.00385114 0.00219459 0.000514556
internal_weight=266048 219074 18875 200199 46974.8 18883.9
internal_count=877775 722260 60890 661370 155515 62757
is_linear=0
shrinkage=0.05


Tree=34
num_leaves=7
num_cat=0
split_feature=3 6 4 1 3 1
split_gain=113.41 90.0791 78.0206 56.0759 55.5075 52.5882
threshold=-0.9569692313671111 1.0000000180025095e-35 0.00076853131758980464 -0.37256073951721186 0.68105044960975658 -0.88186877965927113
decision_type=2 2 2 2 2 2
left_child=1 -1 5 -3 -4 -2
right_child=2 3 4 -5 -6 -7
leaf_value=-0.0242196829503349 0.0026843281966159064 -9.4143616384221207e-05 -0.001584650237823838 0.0031309950678538798 0.0043850303332163016 0.004961778813948145
leaf_weight=328.75335896015167 30093.040385678411 20891.509707719088 9135.6838623285294 37978.671079784632 6785.1773448139429 160860.92028698325
leaf_count=1468 99441 70268 30500 125681 22263 528154
internal_value=0.00377031 0.00184056 0.00432251 0.00198649 0.000959633 0.00460288
internal_weight=266074 59198.9 206875 58870.2 15920.9 190954
internal_count=877775 197417 680358 195949 52763 627595
is_linear=0
shrinkage=0.05


Tree=35
num_leaves=7
num_cat=0
split_feature=3 2 3 4 2 5
split_gain=125.929 159.462 83.9592 67.8139 39.4149 30.5371
threshold=-1.8387607336044309 0.41325600445270544 1.5885910391807558 0.00072495118365623068 0.27100788056850439 70.98654937744142
decision_type=2 2 2 2 2 2
left_child=1 -1 3 -2 -4 -3
right_child=2 5 4 -5 -6 -7
leaf_value=-0.017843922817036541 0.0039012300273362022 0.0014311147594267904 0.0198469868621696 0.00083969117597448839 0.0061461980191093238 -0.0081468052028487812
leaf_weight=1183.6612522155046 192985.17085166276 19584.451740890741 533.20288033783436 19958.789887830615 31009.547315895557 868.13710175454617
leaf_count=4589 636123 65019 1675 66252 101107 2944
internal_value=0.00364737 -8.81191e-06 0.00397093 0.00361428 0.00637842 0.00102419
internal_weight=266123 21636.3 244487 212944 31542.8 20452.6
internal_count=877709 72552 805157 702375 102782 67963
is_linear=0
shrinkage=0.05


Tree=36
num_leaves=7
num_cat=0
split_feature=3 0 3 5 0 1
split_gain=113.617 83.551 76.8548 58.9341 58.7969 57.095
threshold=-1.8387607336044309 0.076279435306787505 1.2371462583541872 52.484292984008796 0.35222910344600683 -0.39271505177021021
decision_type=2 2 2 2 2 2
left_child=1 -1 3 -2 -4 -3
right_child=2 5 4 -5 -6 -7
leaf_value=0.0026209458659942585 0.0041314124891088716 -0.0095435131966382369 0.0042935247520779806 0.0023964074935708783 0.0079945567956662134 -0.00098356877974545591
leaf_weight=12605.641579762101 107008.0650126487 2843.0644330382347 30829.478456124663 90213.430093303323 16465.063214287162 6184.0429900586605
leaf_count=41702 352525 10161 100999 298361 53272 20689
internal_value=0.00346465 -8.52633e-06 0.00377192 0.0033378 0.00558214 -0.00368026
internal_weight=266149 21632.7 244516 197221 47294.5 9027.11
internal_count=877709 72552 805157 650886 154271 30850
is_linear=0
shrinkage=0.05


Tree=37
num_leaves=7
num_cat=0
split_feature=3 2 3 8 0 1
split_gain=102.513 139.605 70.8159 48.5922 43.6699 33.7469
threshold=-1.8387607336044309 0.41325600445270544 1.7065169215202334 0.43500000238418585 0.010907442308962378 -0.72982063889503468
decision_type=2 2 2 2 2 2
left_child=1 5 3 -2 -4 -1
right_child=2 -3 4 -5 -6 -7
leaf_value=0.00064423637814811695 0.0025048984758695002 0.00095581745839699395 0.0041952033906855219 0.0040015011009188299 0.0082228091747119751 -0.020862121109573219
leaf_weight=225.53322060406208 104529.18628570437 20453.622953131795 15151.979266762733 112745.64402741194 12114.095218792558 951.60181611776352
leaf_count=758 345083 67963 49616 371273 39185 3831
internal_value=0.00329112 -8.15781e-06 0.00358296 0.00328151 0.00598487 -0.0167446
internal_weight=266172 21630.8 244541 217275 27266.1 1177.14
internal_count=877709 72552 805157 716356 88801 4589
is_linear=0
shrinkage=0.05


Tree=38
num_leaves=7
num_cat=0
split_feature=4 0 5 0 0 1
split_gain=52.2108 80.0894 57.4655 54.8698 398.329 206.474
threshold=0.00076853131758980464 0.24825246632099154 31.674803733825687 0.69930991530418407 0.60003554821014415 -0.24825246632099149
decision_type=2 2 2 2 2 2
left_child=3 -2 -3 4 -1 -5
right_child=1 2 -4 5 -6 -7
leaf_value=0.0031820552996991297 0.0020978574468869969 0.0082643078818333115 -0.0090636870479185484 -0.00187641015587936 0.012973146524009197 0.004097153129184166
leaf_weight=168484.7486949861 18365.208400890231 572.65219587087631 2887.1672774404287 21793.573939487338 11069.392427518964 43018.006433427334
leaf_count=554333 60677 1875 9803 74068 35392 141561
internal_value=0.00312632 0.000783151 -0.00619408 0.0033356 0.00378574 0.00208848
internal_weight=266191 21825 3459.82 244366 179554 64811.6
internal_count=877709 72355 11678 805354 589725 215629
is_linear=0
shrinkage=0.05


Tree=39
num_leaves=7
num_cat=0
split_feature=3 0 4 1 1 1
split_gain=92.3348 73.1101 65.6043 297.575 68.191 48.3258
threshold=-1.8387607336044309 0.076279435306787505 0.00027846141892950987 -0.71473535895347584 -0.22706275433301923 -0.39271505177021021
decision_type=2 2 2 2 2 2
left_child=1 -1 3 -2 -4 -3
right_child=2 5 4 -5 -6 -7
leaf_value=0.0022970842236924856 0.011362537242026877 -0.0090021627036961493 0.0016327593063509473 0.0030329092814517151 0.0036401203872165489 -0.0011197382285889766
leaf_weight=12609.13464422524 12982.166843697429 2835.4150629192591 79250.694979101419 61580.21419891715 90763.653173401952 6184.5059796869755
leaf_count=41702 41620 10161 262366 202926 298245 20689
internal_value=0.00296984 -0.00016151 0.00324676 0.00448333 0.00270442 -0.0035983
internal_weight=266206 21629.1 244577 74562.4 170014 9019.92
internal_count=877709 72552 805157 244546 560611 30850
is_linear=0
shrinkage=0.05


Tree=40
num_leaves=7
num_cat=0
split_feature=3 1 7 4 1 8
split_gain=96.2294 103.347 185.044 87.4631 112.282 57.9402
threshold=0.42089298367500311 -0.2693240344524383 1.0000000180025095e-35 0.00045969839266035711 -0.37256073951721186 0.97500002384185802
decision_type=2 2 2 2 2 2
left_child=1 2 -1 4 -2 -3
right_child=3 5 -4 -5 -6 -7
leaf_value=-0.0072957846223716668 0.0080691493976469356 0.0027258120447305367 0.0013038732221521848 0.001874579331683459 0.0035827225573438065 0.0089638697131956529
leaf_weight=6951.7083070278168 20034.226440861821 91027.769287288189 62366.965204939246 35744.483627155423 45898.08272844553 3880.3363343030214
leaf_count=23968 64702 300280 207573 117613 150225 12636
internal_value=0.00265747 0.00190902 0.000441353 0.00386632 0.00494607 0.00298095
internal_weight=265904 164227 69318.7 101677 65932.3 94908.1
internal_count=876997 544457 231541 332540 214927 312916
is_linear=0
shrinkage=0.05


Tree=41
num_leaves=7
num_cat=0
split_feature=3 2 0 4 1 8
split_gain=87.7905 165.627 128.367 88.7387 184.244 58.8606
threshold=-0.14031689614057538 0.31507559120655065 0.69930991530418407 0.00027104628679808235 -0.50938662886619557 0.49500000476837164
decision_type=2 2 2 2 2 2
left_child=1 2 -1 4 -2 -3
right_child=3 5 -4 -5 -6 -7
leaf_value=0.0038331256671335443 0.011244830931598667 0.00088327510876798842 -0.011062250166598571 0.0025538669981023036 0.0034594128986587154 0.0031853878190012622
leaf_weight=2146.5024402737617 9875.1539779752493 59213.469436705112 4431.0762636959553 104992.64976337552 32969.378542125225 52281.932022064924
leaf_count=7097 31554 196294 16456 345038 108012 172546
internal_value=0.00252453 0.00150793 -0.00620151 0.00333644 0.00525408 0.00196279
internal_weight=265910 118073 6577.58 147837 42844.5 111495
internal_count=876997 392393 23553 484604 139566 368840
is_linear=0
shrinkage=0.05


Tree=42
num_leaves=7
num_cat=0
split_feature=3 6 0 5 0 7
split_gain=82.0768 68.0835 51.9215 50.4718 50.1115 318.343
threshold=1.1600596308708193 1.0000000180025095e-35 0.69930991530418407 40.263051986694343 0.58244305849075328 1.0000000180025095e-35
decision_type=2 2 2 2 2 2
left_child=1 3 -3 -1 -2 -6
right_child=4 2 -4 -5 5 -7
leaf_value=0.0065859591797021201 0.0032334185596997059 0.0024845299144830146 0.00068657812700598101 -0.017105544389010807 0.0038254373114165172 0.02615275657040754
leaf_weight=312.99042524397373 37192.119505688548 159903.91471394897 53619.770526215434 792.83400915563107 12251.454976692796 1834.7771336585283
leaf_count=1124 121727 526477 178847 3191 39979 5652
internal_value=0.00239832 0.00196893 0.00203304 -0.0104001 0.0041955 0.00673529
internal_weight=265908 214630 213524 1105.82 51278.4 14086.2
internal_count=876997 709639 705324 4315 167358 45631
is_linear=0
shrinkage=0.05


Tree=43
num_leaves=7
num_cat=0
split_feature=3 2 1 4 1 8
split_gain=76.9409 195.405 102.847 65.3222 136.918 50.7882
threshold=-0.5257405936717986 0.31507559120655065 -0.2693240344524383 0.0002951235073851422 -0.50938662886619557 0.39499999582767492
decision_type=2 2 2 2 2 2
left_child=1 2 -1 4 -2 -3
right_child=3 5 -4 -5 -6 -7
leaf_value=-0.013187372710901205 0.0082769319886700169 0.00024329218949565733 0.0050822602273598886 0.0021814840951616182 0.0028290084798719313 0.002725473286492773
leaf_weight=3468.0618954151869 15397.735584154725 37359.66671526432 989.61811816692352 116786.49267691374 45946.924542888999 45959.744874969125
leaf_count=13045 49733 123977 3316 384368 150824 151734
internal_value=0.00227842 0.00106679 -0.00913123 0.00287546 0.00419657 0.0016125
internal_weight=265908 87777.1 4457.68 178131 61344.7 83319.4
internal_count=876997 292072 16361 584925 200557 275711
is_linear=0
shrinkage=0.05


Tree=44
num_leaves=7
num_cat=0
split_feature=3 0 1 0 0 1
split_gain=72.6094 117.855 477.221 170.361 94.9323 398.108
threshold=0.42089298367500311 0.69930991530418407 -0.39271505177021021 0.63435554504394542 0.45201864838600164 -0.50938662886619557
decision_type=2 2 2 2 2 2
left_child=1 3 -3 -1 -2 -6
right_child=4 2 -4 -5 5 -7
leaf_value=0.0019170858007071759 0.0021208812933629856 -0.0095563003989073188 0.0024677198565087786 0.011430163502391563 0.015537735455066308 0.0025130831298321105
leaf_weight=117441.96381470561 67213.977959021926 11297.045631244779 30606.602202698588 4901.683868676424 7499.057875841856 26945.477032110095
leaf_count=387444 220632 39914 101394 15705 23638 88270
internal_value=0.00216451 0.00151448 -0.000774056 0.00229832 0.00321473 0.0053491
internal_weight=265906 164247 41903.6 122344 101659 34444.5
internal_count=876997 544457 141308 403149 332540 111908
is_linear=0
shrinkage=0.05


Tree=45
num_leaves=7
num_cat=0
split_feature=3 3 0 4 4 0
split_gain=81.6116 65.7517 64.5828 56.6515 32.009 27.2505
threshold=1.951497554779053 -1.998176574707031 -0.010907442308962435 0.0002747779071796686 0.0010992051102221014 0.22706275433301928
decision_type=2 2 2 2 2 2
left_child=1 2 -1 -3 5 -2
right_child=4 3 -4 -5 -6 -7
leaf_value=0.0016163179322748384 0.004116103839674823 0.0033152856072343933 -0.0044924211732797021 0.0015982614435757641 -0.0064176126275374435 0.0080012021407927184
leaf_weight=9874.6285712569952 12142.871963515878 68637.715305060148 7699.3853918462992 160088.95691139996 573.46532253921032 7187.4275248646736
leaf_count=32644 39646 225506 26404 528584 1916 23194
internal_value=0.00213597 0.00188708 -0.0010601 0.00211353 0.00521558 0.00556101
internal_weight=266204 246301 17574 228727 19903.8 19330.3
internal_count=877894 813138 59048 754090 64756 62840
is_linear=0
shrinkage=0.05


Tree=46
num_leaves=7
num_cat=0
split_feature=3 8 0 3 0 7
split_gain=74.4439 54.8071 57.9023 53.5485 44.101 94.1484
threshold=1.2570551633834841 0.43500000238418585 0.69930991530418407 -1.2727720737457273 0.22706275433301928 1.0000000180025095e-35
decision_type=2 2 2 2 2 2
left_child=1 3 -3 -1 -2 -6
right_child=4 2 -4 -5 5 -7
leaf_value=-0.0014847150930819132 0.0026216147756969862 0.0030827877747283648 0.00054086022934731685 0.0013734049200270319 0.0037659225365470925 0.012263525197311314
leaf_weight=20286.379683956504 28257.745354712009 83868.168177843094 30569.379102349281 85263.7856272012 13686.570155754685 4278.2407445311546
leaf_count=67991 92558 275450 102262 281392 44599 13642
internal_value=0.00202912 0.00164584 0.00240378 0.000824075 0.0038532 0.00579016
internal_weight=266210 219988 114438 105550 46222.6 17964.8
internal_count=877894 727095 377712 349383 150799 58241
is_linear=0
shrinkage=0.05


Tree=47
num_leaves=7
num_cat=0
split_feature=3 3 2 1 4 1
split_gain=69.5515 56.5818 135.876 57.9697 28.9056 26.0295
threshold=1.951497554779053 -1.998176574707031 0.25280374288558966 -0.86046862602233876 0.0010535980109125378 -0.75894212722778309
decision_type=2 2 2 2 2 2
left_child=1 2 -1 -3 -2 -6
right_child=4 3 -4 -5 5 -7
leaf_value=-0.025864903928694068 0.0051271990130923838 0.0001879307165124303 -0.00025761467303633351 0.0022763322689800243 -0.021075635052995274 0.00075668128554727911
leaf_weight=533.27569054067135 19228.473644882441 40344.840159416199 17039.052469536662 188393.24291211367 189.32843366265297 482.69756220281124
leaf_count=2377 62515 133500 56671 620590 652 1589
internal_value=0.00192767 0.00169794 -0.00103616 0.00190798 0.0047709 -0.00541627
internal_weight=266211 246310 17572.3 228738 19900.5 672.026
internal_count=877894 813138 59048 754090 64756 2241
is_linear=0
shrinkage=0.05


Tree=48
num_leaves=7
num_cat=0
split_feature=3 0 1 0 0 1
split_gain=63.0238 54.1886 258.841 231.305 53.2881 57.0622
threshold=0.92684948444366466 0.69930991530418407 -0.39271505177021021 0.60003554821014415 0.010907442308962378 -0.39271505177021021
decision_type=2 2 2 2 2 2
left_child=1 3 -3 -1 -2 -6
right_child=4 2 -4 -5 5 -7
leaf_value=0.0013792524081688963 0.0018399987816999518 -0.00588357444884935 0.0021310431657952616 0.0096650052753726109 0.0079041350412396138 0.0032436699962981302
leaf_weight=140665.43518675864 34562.008523568511 13732.393370822072 37807.636445239186 8958.4286064207554 9576.7380740046501 20909.84758464992
leaf_count=463865 113377 47762 125012 28783 30881 68214
internal_value=0.00183126 0.00139377 -4.45482e-06 0.00187541 0.00318415 0.00470787
internal_weight=266212 201164 51540 149624 65048.6 30486.6
internal_count=877894 665422 172774 492648 212472 99095
is_linear=0
shrinkage=0.05


Tree=49
num_leaves=7
num_cat=0
split_feature=3 8 1 5 4 1
split_gain=60.1032 56.1662 79.1687 36.4997 26.1201 21.6579
threshold=1.951497554779053 0.40500000119209295 -0.89194178581237782 40.064781188964851 0.0010992051102221014 -0.75894212722778309
decision_type=2 2 2 2 2 2
left_child=1 2 -1 -3 -2 -6
right_child=4 3 -4 -5 5 -7
leaf_value=-0.0029307149630613608 0.0046951296780395075 0.0036646677135499239 0.0011864809726421397 0.0017468374241869631 -0.020955528676363654 0.00022972156650938308
leaf_weight=13236.676906868815 19324.484370604157 32863.075696274638 98966.491186022758 101240.12071768939 171.33722107112408 402.08592784404755
leaf_count=44116 62840 108002 326899 334121 591 1325
internal_value=0.00173975 0.0015262 0.000700751 0.00221684 0.004383 -0.00612583
internal_weight=266204 246306 112203 134103 19897.9 573.423
internal_count=877894 813138 371015 442123 64756 1916
is_linear=0
shrinkage=0.05


end of trees

feature_importances:
Column_1=70
Column_3=62
Column_0=51
Column_2=35
Column_4=26
Column_6=21
Column_5=20
Column_7=8
Column_8=7

parameters:
[boosting: gbdt]
[objective: binary]
[metric: binary_logloss]
[tree_learner: serial]
[device_type: cpu]
[data_sample_strategy: bagging]
[data: ]
[valid: ]
[num_iterations: 50]
[learning_rate: 0.05]
[num_leaves: 7]
[num_threads: -1]
[seed: 42]
[deterministic: 0]
[force_col_wise: 0]
[force_row_wise: 0]
[histogram_pool_size: -1]
[max_depth: 3]
[min_data_in_leaf: 200]
[min_sum_hessian_in_leaf: 0.001]
[bagging_fraction: 0.8]
[pos_bagging_fraction: 1]
[neg_bagging_fraction: 1]
[bagging_freq: 5]
[bagging_seed: 400]
[bagging_by_query: 0]
[feature_fraction: 0.8]
[feature_fraction_bynode: 1]
[feature_fraction_seed: 30056]
[extra_trees: 0]
[extra_seed: 12879]
[early_stopping_round: 0]
[early_stopping_min_delta: 0]
[first_metric_only: 0]
[max_delta_step: 0]
[lambda_l1: 0]
[lambda_l2: 1]
[linear_lambda: 0]
[min_gain_to_split: 0]
[drop_rate: 0.1]
[max_drop: 50]
[skip_drop: 0.5]
[xgboost_dart_mode: 0]
[uniform_drop: 0]
[drop_seed: 17869]
[top_rate: 0.2]
[other_rate: 0.1]
[min_data_per_group: 100]
[max_cat_threshold: 32]
[cat_l2: 10]
[cat_smooth: 10]
[max_cat_to_onehot: 4]
[top_k: 20]
[monotone_constraints: ]
[monotone_constraints_method: basic]
[monotone_penalty: 0]
[feature_contri: ]
[forcedsplits_filename: ]
[refit_decay_rate: 0.9]
[cegb_tradeoff: 1]
[cegb_penalty_split: 0]
[cegb_penalty_feature_lazy: ]
[cegb_penalty_feature_coupled: ]
[path_smooth: 0]
[interaction_constraints: ]
[verbosity: -1]
[saved_feature_importance_type: 0]
[use_quantized_grad: 0]
[num_grad_quant_bins: 4]
[quant_train_renew_leaf: 0]
[stochastic_rounding: 1]
[linear_tree: 0]
[max_bin: 255]
[max_bin_by_feature: ]
[min_data_in_bin: 3]
[bin_construct_sample_cnt: 200000]
[data_random_seed: 175]
[is_enable_sparse: 1]
[enable_bundle: 1]
[use_missing: 1]
[zero_as_missing: 0]
[feature_pre_filter: 1]
[pre_partition: 0]
[two_round: 0]
[header: 0]
[label_column: ]
[weight_column: ]
[group_column: ]
[ignore_column: ]
[categorical_feature: ]
[forcedbins_filename: ]
[precise_float_parser: 0]
[parser_config_file: ]
[objective_seed: 16083]
[num_class: 1]
[is_unbalance: 1]
[scale_pos_weight: 1]
[sigmoid: 1]
[boost_from_average: 1]
[reg_sqrt: 0]
[alpha: 0.9]
[fair_c: 1]
[poisson_max_delta_step: 0.7]
[tweedie_variance_power: 1.5]
[lambdarank_truncation_level: 30]
[lambdarank_norm: 1]
[label_gain: ]
[lambdarank_position_bias_regularization: 0]
[eval_at: ]
[multi_error_top_k: 1]
[auc_mu_weights: ]
[num_machines: 1]
[local_listen_port: 12400]
[time_out: 120]
[machine_list_filename: ]
[machines: ]
[gpu_platform_id: -1]
[gpu_device_id: -1]
[gpu_use_dp: 0]
[num_gpu: 1]

end of parameters

pandas_categorical:null
