tree
version=v4
num_class=1
num_tree_per_iteration=1
label_index=0
max_feature_idx=72
objective=binary sigmoid:1
feature_names=Column_0 Column_1 Column_2 Column_3 Column_4 Column_5 Column_6 Column_7 Column_8 Column_9 Column_10 Column_11 Column_12 Column_13 Column_14 Column_15 Column_16 Column_17 Column_18 Column_19 Column_20 Column_21 Column_22 Column_23 Column_24 Column_25 Column_26 Column_27 Column_28 Column_29 Column_30 Column_31 Column_32 Column_33 Column_34 Column_35 Column_36 Column_37 Column_38 Column_39 Column_40 Column_41 Column_42 Column_43 Column_44 Column_45 Column_46 Column_47 Column_48 Column_49 Column_50 Column_51 Column_52 Column_53 Column_54 Column_55 Column_56 Column_57 Column_58 Column_59 Column_60 Column_61 Column_62 Column_63 Column_64 Column_65 Column_66 Column_67 Column_68 Column_69 Column_70 Column_71 Column_72
feature_infos=[-7.9161148071289062:1.3833475112915039] [-9.2098684310913086:3.1044254302978516] [-21.253433227539062:14.683938026428223] [-3.5610058307647705:1.0959146022796631] [-1:1] [6.9169130325317383:82.906929016113281] [-16.385173797607422:20.079492568969727] [7.4028763771057129:68.52642822265625] [0:100] [-1.8481462001800537:0.65496361255645752] [-1.107603907585144:0.53869283199310303] [-1.5401268005371094:0.44643929600715637] [7.0816706283949316e-05:0.0031903416384011507] [0.33000001311302185:0.95999997854232788] [0.0001893698499770835:0.039913102984428406] [0.10705245286226273:5.7134943008422852] [0.00022676166554447263:0.017614513635635376] [0.095300637185573578:13.608612060546875] [0:8.7898111343383789] none [0:1] [0.00089993351139128208:12.288965225219727] [-3.2579414844512939:6.5612854957580566] [-1:-0.25881904363632202] [-0.96592581272125244:0.85491186380386353] [-1:1] [7.9262642860412598:92.442214965820312] [0.0099999997764825821:1] [-1:1] [6.3715529441833496:94.223381042480469] [0.0099999997764825821:1] [0:1] [0:1] [0:99] [0:99] [0:1] [0:1] [-4.5701503753662109:24.414861679077148] [-13.969565391540527:13.613232612609863] none [0:1] [0:1] none [0:1] [0:1] [-1.9542288780212402:3.3254127502441406] [-7.8834810256958008:1.5490423440933228] [0:5.5327520370483398] [0:9.7545318603515625] none [0:1] none [0:1] none [0:1] none [0:1] [0.4100804328918457:4.0895833969116211] [0:1] [0:1] [0:99] [0:1] [0:1] [0:1] [-1:1] [-62.811786651611328:34.223232269287109] [0:1] none [-0.67000001668930054:0.94999998807907104] [0:1] none [0:1] none
tree_sizes=888 900 891 895 898 896 901 896 895 894 897 898 902 899 896 904 896 904 902 894 899 903 904 902 897 898 898 895 902 895 905 897 897 896 904 895 896 900 909 907 906 908 904 910 901 909 909 912 690 695

Tree=0
num_leaves=7
num_cat=0
split_feature=24 37 18 27 0 0
split_gain=508.163 127.678 64.4524 59.8022 24.9249 21.0931
threshold=0.50938662886619579 2.2546676397323613 1.3949177861213686 0.72500002384185802 -0.56529447436332692 -0.6459870934486388
decision_type=2 2 2 2 2 2
left_child=3 -2 -3 5 -5 -1
right_child=1 2 -4 4 -6 -7
leaf_value=-0.25025021317513491 -0.25123765329198161 -0.19138949934690058 -0.22141482923107822 -0.26548898650017955 -0.24539953914656909 -0.26006169454159395
leaf_weight=2539.3062155693769 205.24488469958305 359.09572610259056 368.57815554738045 1677.9409121870995 169.03301456570625 699.65748697519302
leaf_count=9132 739 1193 1276 6153 604 2548
internal_value=-0.250234 -0.216333 -0.206519 -0.256461 -0.263641 -0.252368
internal_weight=6018.86 932.919 727.674 5085.94 1846.97 3238.96
internal_count=21645 3208 2469 18437 6757 11680
is_linear=0
shrinkage=1


Tree=1
num_leaves=7
num_cat=0
split_feature=50 23 17 27 27 0
split_gain=297.492 158.69 114.507 42.9906 27.0923 23.456
threshold=1.0000000180025095e-35 -0.86046862602233876 2.640217781066895 0.72500002384185802 0.74500000476837169 -0.56529447436332692
decision_type=2 2 2 2 2 2
left_child=1 4 -3 -2 -1 -5
right_child=3 2 -4 5 -6 -7
leaf_value=0.023858979700861236 0.010304642182347648 0.016022655239189217 0.055550020183494753 -0.0020579177425213454 -0.0003339058703690254 0.017598316177513947
leaf_weight=194.93856206536293 3058.5009067058563 251.14124208688736 686.97660636901855 1385.3495565354824 282.58976808190346 169.43090119957924
leaf_count=690 11023 896 2312 5085 1035 604
internal_value=0.0130202 0.0330621 0.0449966 0.0068642 0.00957143 9.40387e-05
internal_weight=6028.93 1415.65 938.118 4613.28 477.528 1554.78
internal_count=21645 4933 3208 16712 1725 5689
is_linear=0
shrinkage=0.05


Tree=2
num_leaves=7
num_cat=0
split_feature=21 37 27 52 8 3
split_gain=303.921 107.575 60.2049 78.9338 44.7719 26.809
threshold=0.33412083983421331 2.1872197389602666 0.72500002384185802 1.0000000180025095e-35 66.30133438110353 -0.29060214757919306
decision_type=2 2 2 2 2 2
left_child=1 5 3 -2 -3 -1
right_child=2 4 -4 -5 -6 -7
leaf_value=-0.023084839032629947 0.033205978117837862 0.060050309432246478 0.0013629269845868027 0.009635790579889161 0.019234536346237389 0.023918387036786202
leaf_weight=56.891714543104172 401.3999031484127 456.31856356561184 1932.0533187240362 3047.6581901609898 80.169891908764839 62.73973560333252
leaf_count=213 1390 1514 7053 10972 282 221
internal_value=0.012352 0.0444539 0.00843032 0.0123877 0.0539982 0.00155955
internal_weight=6037.23 656.12 5381.11 3449.06 536.488 119.631
internal_count=21645 2230 19415 12362 1796 434
is_linear=0
shrinkage=0.05


Tree=3
num_leaves=7
num_cat=0
split_feature=24 18 37 27 15 29
split_gain=374.628 99.9747 48.0675 43.9972 35.0752 20.5702
threshold=0.4904943853616715 1.1666247248649599 2.2546676397323613 0.72500002384185802 0.9337807595729829 64.803764343261733
decision_type=2 2 2 2 2 2
left_child=3 4 -3 5 -2 -1
right_child=1 2 -4 -5 -6 -7
leaf_value=0.0084772740268003344 0.030693545514060262 0.0066660018172429465 0.037525225214585754 0.00019539674406149297 0.071047046323321442 0.021346353853202386
leaf_weight=2904.9802967756987 70.482101559638977 178.66966198384762 432.72395880520344 1846.9049855172634 262.99652835726738 347.40075497329235
leaf_count=10451 242 643 1474 6755 851 1229
internal_value=0.0117212 0.0406223 0.0285327 0.00635905 0.0626354 0.00985801
internal_weight=6044.16 944.872 611.394 5099.29 333.479 3252.38
internal_count=21645 3210 2117 18435 1093 11680
is_linear=0
shrinkage=0.05


Tree=4
num_leaves=7
num_cat=0
split_feature=24 18 11 29 68 16
split_gain=337.461 91.663 45.5342 33.8515 27.7383 25.6668
threshold=0.50938662886619579 1.6487349271774294 -0.15262205153703687 59.138011932373054 -0.31499999761581415 0.006077276775613428
decision_type=2 2 2 2 2 2
left_child=4 2 -2 -3 -1 -6
right_child=1 3 -4 -5 5 -7
leaf_value=-0.0059094088680096066 0.059350585230289632 0.012959494162324427 0.012917482585734217 0.042098209018268412 0.0075883919004071203 -0.026005943970185692
leaf_weight=442.86691522598267 427.53753986954689 310.66538119316101 60.95345376431942 146.81262186169624 4604.0066203325987 56.613984197378159
leaf_count=1632 1400 1096 215 497 16591 214
internal_value=0.0111263 0.0385397 0.0535949 0.022382 0.00603847 0.00717482
internal_weight=6049.46 945.969 488.491 457.478 5103.49 4660.62
internal_count=21645 3208 1615 1593 18437 16805
is_linear=0
shrinkage=0.05


Tree=5
num_leaves=7
num_cat=0
split_feature=24 18 37 11 48 48
split_gain=278.473 85.6692 33.342 32.2675 16.4411 23.4809
threshold=0.47136868536472326 1.6487349271774294 2.2546676397323613 -0.19606413692235944 0.68698981404304515 0.66478964686393749
decision_type=2 2 2 2 2 2
left_child=4 3 -3 -2 5 -1
right_child=1 2 -4 -5 -6 -7
leaf_value=0.0073172523406434811 0.056039584091040144 9.4205092604956672e-05 0.029025487315383104 0.021916250110670152 0.0016005905460219159 0.035281425956642673
leaf_weight=3590.3922333717346 403.80878275632858 143.89487048983574 322.45232184231281 85.737848430871964 1441.4534850716591 75.753239288926125
leaf_count=12934 1322 520 1104 298 5233 263
internal_value=0.010765 0.0355194 0.0201178 0.0501202 0.00612611 0.00790454
internal_weight=6063.49 955.894 466.347 489.547 5107.6 3666.15
internal_count=21674 3244 1624 1620 18430 13197
is_linear=0
shrinkage=0.05


Tree=6
num_leaves=7
num_cat=0
split_feature=24 18 10 23 27 29
split_gain=251.572 77.7356 42.2492 34.7877 28.7837 21.1127
threshold=0.47136868536472326 1.7100921869277956 -0.047435358166694634 -0.65106672048568714 0.72500002384185802 64.803764343261733
decision_type=2 2 2 2 2 2
left_child=4 2 -2 -3 5 -1
right_child=1 3 -4 -5 -6 -7
leaf_value=0.0072318623476979307 0.054617649935685644 -0.0014362586535359041 0.018847220615856856 0.028206911150997563 0.00081752901430200652 0.020190057426152257
leaf_weight=2916.8478853404522 400.1126983165741 146.50895692408085 105.70874436199665 303.44221375882626 1842.3944820910692 351.84521107375622
leaf_count=10470 1310 523 367 1044 6721 1239
internal_value=0.0102222 0.0337536 0.0471941 0.018573 0.00581611 0.00863244
internal_weight=6066.86 955.773 505.821 449.951 5111.09 3268.69
internal_count=21674 3244 1677 1567 18430 11709
is_linear=0
shrinkage=0.05


Tree=7
num_leaves=7
num_cat=0
split_feature=24 17 18 23 27 27
split_gain=227.448 71.5373 39.5603 28.8841 25.9396 20.5651
threshold=0.47136868536472326 2.640217781066895 1.405896067619324 -0.65106672048568714 0.72500002384185802 0.35500000417232519
decision_type=2 2 2 2 2 2
left_child=4 3 -3 -2 5 -1
right_child=1 2 -4 -5 -6 -7
leaf_value=0.0039570893424013187 -0.018335182439357691 0.051983856505889318 0.027940622231842502 0.019500756436972438 0.00077659489585315807 0.011905421808673669
leaf_weight=1528.5720741152763 67.245513752102852 360.18169406056404 334.42752525210381 193.31827068328857 1842.5829719156027 1742.9245607554913
leaf_count=5502 247 1182 1141 674 6721 6207
internal_value=0.00970837 0.0320922 0.0404648 0.0097034 0.00552221 0.00819399
internal_weight=6069.25 955.173 694.609 260.564 5114.08 3271.5
internal_count=21674 3244 2323 921 18430 11709
is_linear=0
shrinkage=0.05


Tree=8
num_leaves=7
num_cat=0
split_feature=24 18 24 27 27 15
split_gain=205.875 65.8219 30.1786 29.6119 23.3786 19.3884
threshold=0.47136868536472326 1.7100921869277956 0.75894212722778331 0.89499998092651378 0.72500002384185802 0.70659255981445324
decision_type=2 2 2 2 2 2
left_child=4 3 -3 -2 -1 -6
right_child=1 2 -4 -5 5 -7
leaf_value=0.0077782282877153115 0.049001635471173165 -0.0020454394141647 0.025554452644515807 0.018399291562908558 0.014549967966755575 -0.0011649436927200442
leaf_weight=3274.0664518028498 403.08813785016537 146.47158801555634 303.9696779102087 100.33083619177341 222.30440528690815 1620.4570828825235
leaf_count=11709 1331 523 1044 346 796 5925
internal_value=0.00922173 0.0305354 0.016595 0.0429512 0.00524331 0.000737712
internal_weight=6070.69 953.86 450.441 503.419 5116.83 1842.76
internal_count=21674 3244 1567 1677 18430 6721
is_linear=0
shrinkage=0.05


Tree=9
num_leaves=7
num_cat=0
split_feature=24 37 8 3 27 29
split_gain=186.431 64.7664 37.8232 29.0258 21.0706 18.8869
threshold=0.47136868536472326 2.298330664634705 37.306514739990241 -0.44539053738117212 0.72500002384185802 64.803764343261733
decision_type=2 2 2 2 2 2
left_child=4 3 -3 -2 5 -1
right_child=1 2 -4 -5 -6 -7
leaf_value=0.0060606121196666576 -0.024238611239541113 0.046860230890962327 0.023846341397042056 0.016292145848421726 0.00070105247287831308 0.018296082115239084
leaf_weight=2923.4429709464312 59.018727779388428 392.37306478619576 334.33085779845715 166.58742198348045 1842.911822989583 352.98341944813728
leaf_count=10470 218 1300 1144 582 6721 1239
internal_value=0.00876037 0.0290625 0.0363197 0.0056291 0.00497879 0.00738397
internal_weight=6071.65 952.31 726.704 225.606 5119.34 3276.43
internal_count=21674 3244 2444 800 18430 11709
is_linear=0
shrinkage=0.05


Tree=10
num_leaves=7
num_cat=0
split_feature=21 8 37 50 37 29
split_gain=142.141 64.5098 33.6266 29.142 35.9444 20.729
threshold=0.33412083983421331 60.356679916381843 2.7117489576339726 1.0000000180025095e-35 4.0599403381347665 58.633605957031257
decision_type=2 2 2 2 2 2
left_child=1 2 -1 4 -2 -5
right_child=3 -3 -4 5 -6 -7
leaf_value=0.01646618004700294 0.027220099027087403 0.0024253339084549961 0.046638261791740507 0.0016582932918885653 0.0055212625941585495 0.0094012467633286037
leaf_weight=125.93904459476471 309.06689910590649 161.57422487437725 361.29503908753395 3510.3021268248558 498.1563076376915 1146.0297237634659
leaf_count=438 1061 573 1201 12685 1785 4094
internal_value=0.00771811 0.0298262 0.0388892 0.00508775 0.0138526 0.00356562
internal_weight=6112.36 648.808 487.234 5463.56 807.223 4656.33
internal_count=21837 2212 1639 19625 2846 16779
is_linear=0
shrinkage=0.05


Tree=11
num_leaves=7
num_cat=0
split_feature=24 17 10 23 29 15
split_gain=158.764 59.0689 39.0797 28.8229 17.0243 25.342
threshold=0.52803644537925731 2.6092245578765874 -0.054263794794678681 -0.65106672048568714 34.552824020385749 1.1278123855590823
decision_type=2 2 2 2 2 2
left_child=4 3 -3 -2 5 -1
right_child=1 2 -4 -5 -6 -7
leaf_value=-0.013490128918801692 -0.022739074253113299 0.038847712273589595 0.005961199746361695 0.015538559475595244 0.0049306587106943828 0.0071818926620515469
leaf_weight=323.52674998342991 66.103696197271347 583.11772511899471 107.33609041571617 183.39376619458199 4576.7807259559631 272.08360312879086
leaf_count=1194 244 1959 376 638 16448 978
internal_value=0.0073334 0.0262254 0.0337513 0.00534671 0.00389586 -0.00405063
internal_weight=6112.34 939.951 690.454 249.497 5172.39 595.61
internal_count=21837 3217 2335 882 18620 2172
is_linear=0
shrinkage=0.05


Tree=12
num_leaves=7
num_cat=0
split_feature=24 18 10 24 0 27
split_gain=143.989 58.4696 33.99 30.4853 15.5595 19.2909
threshold=0.52803644537925731 1.3949177861213686 -0.054263794794678681 0.75894212722778331 -0.26710042357444758 0.70499998331069957
decision_type=2 2 2 2 2 2
left_child=4 2 -2 -3 5 -1
right_child=1 3 -4 -5 -6 -7
leaf_value=0.0067114259505632219 0.046857623209679136 -0.0029072381481331025 0.011019781016696401 0.022462739451077494 -0.01013669902531584 0.00032058572174056236
leaf_weight=3055.2830321937799 317.71734367311001 176.13517397642136 84.421542927622795 358.99725869297981 194.59789964556694 1924.3986246883869
leaf_count=10902 1063 628 294 1232 711 7007
internal_value=0.00696825 0.0249898 0.0393801 0.0141225 0.00369962 0.00424225
internal_weight=6111.55 937.271 402.139 535.132 5174.28 4979.68
internal_count=21837 3217 1357 1860 18620 17909
is_linear=0
shrinkage=0.05


Tree=13
num_leaves=7
num_cat=0
split_feature=24 0 23 21 29 15
split_gain=130.696 53.498 47.4436 26.4296 15.1694 23.6827
threshold=0.52803644537925731 -0.97836667299270619 -0.65106672048568714 0.18723118305206302 34.552824020385749 0.67629444599151622
decision_type=2 2 2 2 2 2
left_child=4 3 -3 -2 -1 -6
right_child=1 2 -4 -5 5 -7
leaf_value=-0.003988698880519977 0.044971005728799404 -0.022399340318594932 0.019110136278799664 0.022965028326582312 0.015916206295567958 0.003357485319686584
leaf_weight=595.48233711719513 269.38049782812595 89.098922088742256 291.61790871620178 284.16663300991058 411.68185479938984 4168.6694152504206
leaf_count=2172 905 328 1006 978 1456 14992
internal_value=0.00662249 0.0238242 0.00936247 0.0337359 0.00351349 0.00448949
internal_weight=6110.1 934.264 380.717 553.547 5175.83 4580.35
internal_count=21837 3217 1334 1883 18620 16448
is_linear=0
shrinkage=0.05


Tree=14
num_leaves=7
num_cat=0
split_feature=24 8 46 29 18 29
split_gain=118.63 53.8511 35.3369 27.7173 14.4305 23.8578
threshold=0.52803644537925731 60.356679916381843 -1.8587811589241026 59.789257049560554 1.2561600208282473 49.256139755249031
decision_type=2 2 2 2 2 2
left_child=4 2 -2 -3 -1 -6
right_child=1 3 -4 -5 5 -7
leaf_value=0.0048868201068217633 0.048550849230142828 -0.0059294040145396543 0.022943657968480996 0.031339632156472397 -0.0082299802207431525 0.0051844871273026075
leaf_weight=3849.6235517114401 188.8306547999382 196.57436978816986 480.03848575055599 65.755434975028038 627.57741419970989 700.24174627661705
leaf_count=13818 635 702 1657 223 2293 2509
internal_value=0.00629391 0.0227138 0.0302346 0.00349597 0.00333685 -0.00115712
internal_weight=6108.64 931.199 668.869 262.33 5177.44 1327.82
internal_count=21837 3217 2292 925 18620 4802
is_linear=0
shrinkage=0.05


Tree=15
num_leaves=7
num_cat=0
split_feature=24 69 37 29 48 38
split_gain=104.584 48.7542 48.1166 19.278 24.3392 16.3382
threshold=0.16288578510284427 1.0000000180025095e-35 2.298330664634705 58.633605957031257 0.68698981404304515 -3.6759679317474361
decision_type=2 2 2 2 2 2
left_child=3 2 -2 4 -1 -5
right_child=1 -3 -4 5 -6 -7
leaf_value=0.0037703614265250196 0.0016415328851672917 -0.018954458630777608 0.028613689515982473 -0.0098316542915812093 -0.0052699040627003854 0.010168380286548319
leaf_weight=2724.4866993576288 208.25628219544888 73.321851164102554 803.93597154319286 111.14167606830597 1023.4039240032434 1163.3805454075336
leaf_count=9792 739 270 2768 407 3727 4133
internal_value=0.00615196 0.0202178 0.0230713 0.00310842 0.00130107 0.00841798
internal_weight=6107.93 1085.51 1012.19 5022.41 3747.89 1274.52
internal_count=21836 3777 3507 18059 13519 4540
is_linear=0
shrinkage=0.05


Tree=16
num_leaves=7
num_cat=0
split_feature=21 0 23 21 29 2
split_gain=86.5688 40.0393 53.6149 27.1972 26.5537 22.0186
threshold=0.45893636345863348 -0.99341475963592518 -0.6343555450439452 0.08761294931173326 58.633605957031257 -4.411174774169921
decision_type=2 2 2 2 2 2
left_child=1 3 -3 -1 -2 -6
right_child=4 2 -4 -5 5 -7
leaf_value=0.046188107711478125 0.0014418275022927481 -0.020303619371318415 0.023082604344954048 0.021391988126494635 -0.0088955337936421561 0.011676716182306921
leaf_weight=168.89032873511314 3931.5365756452084 113.19895878434181 188.31668370962143 327.99590454995632 144.67575517296791 1231.7581084519625
leaf_count=575 14165 415 648 1146 528 4359
internal_value=0.00584618 0.0211859 0.00678071 0.029896 0.00353529 0.0095095
internal_weight=6106.37 798.402 301.516 496.886 5307.97 1376.43
internal_count=21836 2784 1063 1721 19052 4887
is_linear=0
shrinkage=0.05


Tree=17
num_leaves=7
num_cat=0
split_feature=24 69 37 48 15 23
split_gain=88.9983 45.3091 41.5451 17.1721 13.6831 13.4814
threshold=0.1413247883319855 1.0000000180025095e-35 2.298330664634705 0.82711094617843639 0.99250936508178722 -0.52803644537925709
decision_type=2 2 2 2 2 2
left_child=3 2 -2 5 -5 -1
right_child=1 -3 -4 4 -6 -7
leaf_value=0.00045363471699902283 0.0012685077250108442 -0.018975402098350268 0.026306715305997028 0.006520051826271688 -0.0065827339375355599 0.0064539410570283008
leaf_weight=1497.0489778369665 208.15247146785259 74.562913492321968 812.82668554782867 271.21392643451691 743.11400280892849 2498.050970569253
leaf_count=5399 739 275 2819 972 2708 8924
internal_value=0.00555611 0.0184586 0.0212083 0.00273127 -0.0030763 0.00420617
internal_weight=6104.97 1095.54 1020.98 5009.43 1014.33 3995.1
internal_count=21836 3833 3558 18003 3680 14323
is_linear=0
shrinkage=0.05


Tree=18
num_leaves=7
num_cat=0
split_feature=24 8 69 26 29 48
split_gain=80.7526 44.9651 31.8479 23.8794 15.4445 20.7337
threshold=0.16288578510284427 75.284858703613295 1.0000000180025095e-35 49.961023330688484 58.633605957031257 0.68698981404304515
decision_type=2 2 2 2 2 2
left_child=4 2 -2 -3 5 -1
right_child=1 3 -4 -5 -6 -7
leaf_value=0.003275889759075239 0.024193941823068967 -0.024550530104453672 -0.012691236942466788 0.016663811294876697 0.0073648683760271505 -0.0050682123089313752
leaf_weight=2726.8736856877804 869.87915113568306 87.268122330307961 62.136025160551071 57.504970103502274 1276.4660101532936 1022.9646616280079
leaf_count=9792 3030 320 228 199 4540 3727
internal_value=0.00528031 0.0176998 0.0217239 -0.00817787 0.00261669 0.000998855
internal_weight=6103.09 1076.79 932.015 144.773 5026.3 3749.84
internal_count=21836 3777 3258 519 18059 13519
is_linear=0
shrinkage=0.05


Tree=19
num_leaves=7
num_cat=0
split_feature=24 8 18 26 29 15
split_gain=73.4496 46.7236 36.9921 24.4324 14.9888 24.0124
threshold=0.52803644537925731 75.284858703613295 1.9334850907325747 49.961023330688484 58.633605957031257 1.0171580314636233
decision_type=2 2 2 2 2 2
left_child=4 2 -2 -3 -1 -6
right_child=1 3 -4 -5 5 -7
leaf_value=0.0011120876954544543 0.030794119941365758 -0.025240656881315479 0.0080639335780544174 0.016788764444116391 0.016458664552098306 0.0023598146442911781
leaf_weight=3844.4550800770521 506.01965619623661 84.953800722956657 278.0682816952467 56.960510730743408 462.39489051699638 868.30023875832558
leaf_count=13854 1768 312 976 197 1622 3107
internal_value=0.00501821 0.0179796 0.0227536 -0.00837176 0.00269597 0.00726762
internal_weight=6101.15 926.002 784.088 141.914 5175.15 1330.7
internal_count=21836 3253 2744 509 18583 4729
is_linear=0
shrinkage=0.05


Tree=20
num_leaves=7
num_cat=0
split_feature=24 18 26 23 27 12
split_gain=69.5781 42.2917 40.59 30.2639 18.023 22.8458
threshold=0.50938662886619579 2.1545424461364751 36.397861480712898 -0.65106672048568714 0.7150000035762788 0.00025781913427636033
decision_type=2 2 2 2 2 2
left_child=4 2 -2 -3 5 -1
right_child=1 3 -4 -5 -6 -7
leaf_value=-0.012721308741596297 -0.0026478818144537093 -0.01971162873259822 0.031159952764779422 0.013209905964795904 -0.0014515180299843548 0.0056883236116334196
leaf_weight=177.3504015058279 107.9588628411293 102.3210630863905 494.94882206618786 214.27403745055199 1893.8668048977852 3078.3888839334249
leaf_count=646 389 374 1732 746 6888 10957
internal_value=0.00469014 0.0173518 0.0251118 0.00254136 0.00242637 0.00468189
internal_weight=6069.11 919.503 602.908 316.595 5149.61 3255.74
internal_count=21732 3241 2121 1120 18491 11603
is_linear=0
shrinkage=0.05


Tree=21
num_leaves=7
num_cat=0
split_feature=56 18 27 50 34 48
split_gain=51.8175 51.7124 29.5095 38.4117 20.8596 14.3014
threshold=1.0000000180025095e-35 1.3949177861213686 0.7150000035762788 1.0000000180025095e-35 2.5000000000000004 2.3562959432601933
decision_type=2 2 2 2 2 2
left_child=1 -1 3 -2 -3 -4
right_child=2 4 5 -5 -6 -7
leaf_value=0.043007260260842485 0.019210951478158995 -0.018364273584367524 -0.0023986023982643977 0.0038171703439531797 0.014413243616854761 0.023134506091262733
leaf_weight=162.48841671645641 466.08793783187866 58.298510044813156 1987.7978463321924 3067.7228919565678 268.58203819394112 55.40137842297554
leaf_count=572 1637 213 7234 10943 937 196
internal_value=0.00445815 0.0200416 0.0030874 0.00585238 0.00852926 -0.00169529
internal_weight=6066.38 489.369 5577.01 3533.81 326.881 2043.2
internal_count=21732 1722 20010 12580 1150 7430
is_linear=0
shrinkage=0.05


Tree=22
num_leaves=7
num_cat=0
split_feature=24 18 26 23 68 0
split_gain=57.4909 37.3667 36.2027 27.2619 15.1976 16.7278
threshold=0.50938662886619579 2.1545424461364751 36.397861480712898 -0.65106672048568714 -0.31499999761581415 -0.2881185114383697
decision_type=2 2 2 2 2 2
left_child=4 2 -2 -3 -1 -6
right_child=1 3 -4 -5 5 -7
leaf_value=-0.0065595238633645928 -0.0030632068094527919 -0.019226081924230025 0.028922994562231963 0.012033149581943389 0.0037005585880950185 -0.010230890018392964
leaf_weight=452.02883091568947 107.73731079697609 102.29759655892849 488.85983473062515 213.79658509790897 4473.4216609597206 225.42334121465683
leaf_count=1656 389 374 1732 746 16014 821
internal_value=0.00423831 0.0157972 0.0231513 0.00188799 0.00218749 0.00303017
internal_weight=6063.57 912.691 596.597 316.094 5150.87 4698.85
internal_count=21732 3241 2121 1120 18491 16835
is_linear=0
shrinkage=0.05


Tree=23
num_leaves=7
num_cat=0
split_feature=21 9 30 27 7 23
split_gain=53.2442 50.1145 22.6409 19.6038 25.6971 19.3337
threshold=0.31200477480888372 -0.05643287114799022 0.81499999761581432 0.85500001907348644 46.10371398925782 -0.6343555450439452
decision_type=2 2 2 2 2 2
left_child=1 2 -1 4 -2 -3
right_child=3 5 -4 -5 -6 -7
leaf_value=0.035040097716956507 0.0055317402462776331 -0.013623244562376478 0.0036488853468552174 -0.003163488060321685 -0.0062032536896592817 0.015370011183805052
leaf_weight=307.96935972571373 3713.881741181016 124.94575574994087 70.863805741071701 1205.6912448108196 532.65971279144287 104.80239371955395
leaf_count=1087 13239 458 260 4396 1925 367
internal_value=0.00402865 0.0180434 0.0291932 0.00246129 0.00405866 -0.000388328
internal_weight=6060.81 608.581 378.833 5452.23 4246.54 229.748
internal_count=21732 2172 1347 19560 15164 825
is_linear=0
shrinkage=0.05


Tree=24
num_leaves=7
num_cat=0
split_feature=24 46 37 0 68 5
split_gain=48.7064 34.7405 24.6021 13.3396 13.1805 22.9145
threshold=0.50938662886619579 -1.7047501206398008 5.8088634014129648 -1.3868111968040464 -0.28499999642372126 31.900468826293949
decision_type=2 2 2 2 2 2
left_child=4 3 -3 -2 5 -1
right_child=1 2 -4 -5 -6 -7
leaf_value=-0.013927855236051404 0.037740314318600116 0.01161658616507742 -0.021710208748844079 0.010999075273862229 0.0027924346254243337 0.0076650125249056516
leaf_weight=318.00097127258778 177.62022778391838 604.16717222332954 60.034217894077301 64.540680125355721 4635.3429994732141 199.01081101596355
leaf_count=1176 641 2145 225 230 16598 717
internal_value=0.00382918 0.0145113 0.00857622 0.0306878 0.00194762 -0.00561747
internal_weight=6058.72 906.362 664.201 242.161 5152.35 517.012
internal_count=21732 3241 2370 871 18491 1893
is_linear=0
shrinkage=0.05


Tree=25
num_leaves=7
num_cat=0
split_feature=21 37 9 22 16 57
split_gain=52.0704 41.6849 25.0481 17.0819 13.8039 20.1978
threshold=0.33412083983421331 2.298330664634705 -0.057243248447775834 -0.97292488813400257 0.006077276775613428 1.8355593681335451
decision_type=2 2 2 2 2 2
left_child=1 3 -3 -1 5 -2
right_child=4 2 -4 -5 -6 -7
leaf_value=-0.024028164953356621 0.0024663754718228579 0.032028513731029669 0.0068179817750916999 0.010456766123040308 -0.021943661497944078 0.030328312092852146
leaf_weight=67.519410073757172 5336.6639827042818 343.03416855633259 138.9682851433754 74.587158679962158 55.940324544906616 64.858875140547752
leaf_count=249 19133 1232 498 262 210 225
internal_value=0.004115 0.0177844 0.0247891 -0.00598155 0.00254881 0.00280648
internal_weight=6081.57 624.109 482.002 142.107 5457.46 5401.52
internal_count=21809 2241 1730 511 19568 19358
is_linear=0
shrinkage=0.05


Tree=26
num_leaves=7
num_cat=0
split_feature=21 8 37 0 26 27
split_gain=47.3698 46.1851 26.8944 13.6569 18.0961 16.4514
threshold=0.33412083983421331 67.909126281738295 2.7333993911743169 -0.2881185114383697 51.448339462280281 0.7150000035762788
decision_type=2 2 2 2 2 2
left_child=1 2 -1 5 -5 -2
right_child=3 -3 -4 4 -6 -7
leaf_value=0.0060174161493429046 0.0051797144990879534 -0.010965706296732885 0.031228132591758842 -0.020621978269389524 0.0050650572357146513 -0.00063553496049493347
leaf_weight=152.24634820222855 3237.4875476062298 118.88507303595543 349.88411667943001 143.57400432229042 129.80332286655903 1947.3111570626497
leaf_count=542 11505 430 1269 530 462 7071
internal_value=0.00391144 0.0169851 0.0236114 0.00242112 -0.00845141 0.00299592
internal_weight=6079.19 621.016 502.13 5458.18 273.377 5184.8
internal_count=21809 2241 1811 19568 992 18576
is_linear=0
shrinkage=0.05


Tree=27
num_leaves=7
num_cat=0
split_feature=24 8 23 18 29 6
split_gain=39.9485 42.4805 29.4543 24.5464 13.4468 12.9616
threshold=0.4904943853616715 60.356679916381843 -0.6343555450439452 1.9334850907325747 24.286602020263675 -3.2594498395919795
decision_type=2 2 2 2 2 2
left_child=4 3 -3 -2 -1 -6
right_child=1 2 -4 -5 5 -7
leaf_value=-0.016001010492098715 0.026876579102796134 -0.027244833615506926 0.0085231451807725022 0.0054731168692450441 0.007874886134873223 0.0012349892689423837
leaf_weight=100.29412277042866 442.53277651965618 86.799914017319679 166.19425489008427 192.7851087898016 890.13055363297462 4197.6606775224209
leaf_count=372 1619 322 583 685 3165 15063
internal_value=0.00371808 0.0135095 -0.00380746 0.0204006 0.00203929 0.00239799
internal_weight=6076.4 888.312 252.994 635.318 5188.09 5087.79
internal_count=21809 3209 905 2304 18600 18228
is_linear=0
shrinkage=0.05


Tree=28
num_leaves=7
num_cat=0
split_feature=21 0 23 7 12 3
split_gain=40.4242 40.9203 35.9839 12.9785 20.4034 17.5067
threshold=0.33412083983421331 -1.2878137826919553 -0.6343555450439452 44.593645095825202 0.00027441108250059193 -0.62218067049980152
decision_type=2 2 2 2 2 2
left_child=1 -1 -3 5 -5 -2
right_child=3 2 -4 4 -6 -7
leaf_value=0.029418580607052963 0.00081713272151300172 -0.013223499663136469 0.019814569536722889 -0.028231458035107279 -0.00102041497370276 0.0072121191412891491
leaf_weight=287.25421340763569 2790.222446039319 161.17029608786106 166.63674618303776 73.906456083059311 858.72779732942581 1735.3825995028019
leaf_count=1063 10040 592 586 275 3083 6170
internal_value=0.0035344 0.0156757 0.00358019 0.00216363 -0.00320468 0.0032704
internal_weight=6073.3 615.061 327.807 5458.24 932.634 4525.61
internal_count=21809 2241 1178 19568 3358 16210
is_linear=0
shrinkage=0.05


Tree=29
num_leaves=7
num_cat=0
split_feature=24 18 5 24 29 6
split_gain=33.8929 37.018 34.6895 19.6127 12.1464 11.6044
threshold=0.4904943853616715 1.9334850907325747 36.079244613647468 0.83743050694465648 24.286602020263675 -3.2594498395919795
decision_type=2 2 2 2 2 2
left_child=4 2 -2 -3 -1 -6
right_child=1 3 -4 -5 5 -7
leaf_value=-0.015340683914948541 0.026473054729584777 -0.0051364319317680623 -0.0088389959642205373 0.02611486750104643 0.0073393999646327122 0.0010587782326111443
leaf_weight=100.13602830469608 439.7212932407856 300.34299728274345 82.075171783566475 59.240576893091202 890.77349092066288 4198.602455958724
leaf_count=372 1614 1082 310 203 3165 15063
internal_value=0.00335947 0.012419 0.0209124 7.02941e-05 0.00181871 0.00215928
internal_weight=6070.89 881.38 521.796 359.584 5189.51 5089.38
internal_count=21809 3209 1924 1285 18600 18228
is_linear=0
shrinkage=0.05


Tree=30
num_leaves=7
num_cat=0
split_feature=50 27 57 15 60 65
split_gain=26.0771 34.4859 30.8549 14.469 13.7391 24.4657
threshold=1.0000000180025095e-35 0.89499998092651378 0.80798113346099865 1.4293263554573061 92.500000000000014 -28.692034721374508
decision_type=2 2 2 2 2 2
left_child=1 2 -1 -3 -2 -6
right_child=4 3 -4 -5 5 -7
leaf_value=-0.012604135501738084 0.0028570654203253351 0.0020501316334028664 0.015796135534966171 -0.020526286358097608 0.022759858137501247 -0.004264200021115252
leaf_weight=105.48389887809753 3053.8938265442848 198.21160188317299 958.18044355511665 109.41431513428688 87.526888474822044 1555.6175074130297
leaf_count=386 10934 719 3458 413 304 5612
internal_value=0.0026455 0.00870896 0.0129705 -0.00602019 0.000873804 -0.00281172
internal_weight=6068.33 1371.29 1063.66 307.626 4697.04 1643.14
internal_count=21826 4976 3844 1132 16850 5916
is_linear=0
shrinkage=0.05


Tree=31
num_leaves=7
num_cat=0
split_feature=21 0 23 5 30 0
split_gain=33.8769 31.2985 26.6713 20.709 18.2519 20.0938
threshold=0.44071619212627416 -0.97033241391181935 -0.65106672048568714 25.474143028259281 0.6850000023841859 -0.26710042357444758
decision_type=2 2 2 2 2 2
left_child=1 3 -3 -1 5 -2
right_child=4 2 -4 -5 -6 -7
leaf_value=0.033572234146938211 0.003702620932654028 -0.024982379809550159 0.009080570052010805 0.011734994245301023 -0.0037429901813454056 -0.012745387187810509
leaf_weight=184.9445680975914 3725.2059417366982 78.750140026211739 204.67627409100533 265.17360891401768 1412.913642257452 194.45694690942764
leaf_count=685 13308 293 727 986 5116 711
internal_value=0.00251433 0.0125812 -0.000438393 0.020762 0.00112744 0.00288358
internal_weight=6066.12 733.545 283.426 450.118 5332.58 3919.66
internal_count=21826 2691 1020 1671 19135 14019
is_linear=0
shrinkage=0.05


Tree=32
num_leaves=7
num_cat=0
split_feature=21 0 23 5 30 30
split_gain=30.7557 28.521 24.1287 19.1174 16.4726 19.1637
threshold=0.44071619212627416 -0.97033241391181935 -0.6343555450439452 25.474143028259281 0.6850000023841859 0.16499999910593036
decision_type=2 2 2 2 2 2
left_child=1 3 -3 -1 5 -2
right_child=4 2 -4 -5 -6 -7
leaf_value=0.032235389592336225 -0.0019511377041008225 -0.018851818269379952 0.011056557205215246 0.011180850883211428 -0.003556929826557375 0.0053433890878496274
leaf_weight=183.07363843917847 1399.8232592195272 108.4123167693615 174.7717676460743 264.4683019220829 1412.5429632663727 2520.4146181344986
leaf_count=685 5032 400 620 986 5116 8987
internal_value=0.00239005 0.0120027 -0.000419413 0.0198462 0.00107088 0.00273885
internal_weight=6063.51 730.726 283.184 447.542 5332.78 3920.24
internal_count=21826 2691 1020 1671 19135 14019
is_linear=0
shrinkage=0.05


Tree=33
num_leaves=7
num_cat=0
split_feature=24 37 65 38 29 30
split_gain=29.0157 28.2548 27.2115 14.8015 22.6426 16.4072
threshold=0.74455857276916515 6.3176400661468515 -13.23838949203491 1.1563103199005129 48.935066223144538 0.58499997854232799
decision_type=2 2 2 2 2 2
left_child=3 2 -2 5 -5 -1
right_child=1 -3 -4 4 -6 -7
leaf_value=0.004716335345336737 0.029822311339225374 -0.019398372530137792 0.0073026083958836127 -0.011418785083886426 0.0026612147688758209 -0.0017638001485995279
leaf_weight=2780.505347520113 216.51122337579727 62.065864995121956 352.3956847935915 537.69645345211029 606.9468215405941 1504.831700116396
leaf_count=9940 784 242 1273 1967 2168 5452
internal_value=0.00227207 0.012412 0.0159103 0.00109173 -0.00395706 0.0024409
internal_weight=6060.95 630.973 568.907 5429.98 1144.64 4285.34
internal_count=21826 2299 2057 19527 4135 15392
is_linear=0
shrinkage=0.05


Tree=34
num_leaves=7
num_cat=0
split_feature=21 37 65 16 57 16
split_gain=26.5887 26.3986 17.6657 14.2055 20.1368 13.0542
threshold=0.44071619212627416 2.1425409317016606 -18.699563026428219 0.006077276775613428 1.6293836236000063 0.0013590066228061917
decision_type=2 2 2 2 2 2
left_child=1 5 -3 4 -2 -1
right_child=3 2 -4 -5 -6 -7
leaf_value=-0.026174990524374272 0.00063079398574167952 0.028362548816048057 0.0097667755767229594 -0.023728126996314516 0.017806129765142203 0.0046789691735169446
leaf_weight=58.592570647597313 5100.1246825754642 187.96039862930775 399.93643407523632 56.750840291380882 175.56744082272053 80.130370318889618
leaf_count=217 18303 716 1473 214 618 285
internal_value=0.00215946 0.0111254 0.0157502 0.000935872 0.00120563 -0.00844692
internal_weight=6059.06 726.62 587.897 5332.44 5275.69 138.723
internal_count=21826 2691 2189 19135 18921 502
is_linear=0
shrinkage=0.05


Tree=35
num_leaves=7
num_cat=0
split_feature=24 8 29 0 0 29
split_gain=25.775 30.5403 24.2451 14.9699 12.6411 12.7431
threshold=0.7298206388950349 60.356679916381843 59.789257049560554 -1.1419076919555662 -3.6099387407302852 24.286602020263675
decision_type=2 2 2 2 2 2
left_child=4 3 -3 -2 -1 -6
right_child=1 2 -4 -5 5 -7
leaf_value=0.016732520492192683 0.025474754352517167 -0.013967406951747889 0.022368747933026525 0.0076612978791458924 -0.01698558863338312 0.00058380584877177775
leaf_weight=117.67228963971138 275.37928949296474 169.78560991585255 61.809434682130814 207.80156792700291 104.33247795701027 5108.9442949742079
leaf_count=436 1042 617 216 752 390 18341
internal_value=0.00179265 0.0107016 -0.00421532 0.0178454 0.000596361 0.000229002
internal_weight=6045.72 714.776 231.595 483.181 5330.95 5213.28
internal_count=21794 2627 833 1794 19167 18731
is_linear=0
shrinkage=0.05


Tree=36
num_leaves=7
num_cat=0
split_feature=24 8 29 0 27 7
split_gain=23.4008 27.7752 21.9389 13.789 12.0625 11.5659
threshold=0.7298206388950349 60.356679916381843 59.789257049560554 -1.1419076919555662 0.014999999664723875 44.349843978881843
decision_type=2 2 2 2 2 2
left_child=4 3 -3 -2 -1 -6
right_child=1 2 -4 -5 5 -7
leaf_value=0.018461078029337972 0.024426681180305748 -0.013259281184490067 0.021345682317000046 0.0072910256414270638 0.0013313896949512091 -0.0048530331148616494
leaf_weight=91.541260838508606 272.94144754111767 169.95929378271103 61.586969301104546 207.49576051533222 4324.0868936926126 915.13214905560017
leaf_count=326 1042 617 216 752 15536 3305
internal_value=0.0017045 0.0102117 -0.0040028 0.0170565 0.000566561 0.000250439
internal_weight=6042.74 711.983 231.546 480.437 5330.76 5239.22
internal_count=21794 2627 833 1794 19167 18841
is_linear=0
shrinkage=0.05


Tree=37
num_leaves=7
num_cat=0
split_feature=24 0 1 23 11 3
split_gain=21.2437 23.5123 27.8106 19.195 12.2756 11.8465
threshold=0.7298206388950349 -0.97836667299270619 -3.8755077123641963 -0.6343555450439452 -0.97974219918251026 -1.5471435189247129
decision_type=2 2 2 2 2 2
left_child=4 2 -2 -3 -1 -6
right_child=1 3 -4 -5 5 -7
leaf_value=0.015296209657743549 -0.014919928393336369 -0.0190544917888863 0.023945797298994355 0.0075337161118675033 -0.013044688318689166 0.00058028433677817634
leaf_weight=136.28013882040977 53.054400831460953 92.912700861692429 319.36523376405239 243.89438638091087 163.75977593660355 5030.709487169981
leaf_count=493 213 344 1201 869 601 18073
internal_value=0.00162074 0.00974396 0.0183839 0.000164313 0.000538369 0.000148318
internal_weight=6039.98 709.227 372.42 336.807 5330.75 5194.47
internal_count=21794 2627 1414 1213 19167 18674
is_linear=0
shrinkage=0.05


Tree=38
num_leaves=7
num_cat=0
split_feature=27 52 48 30 18 30
split_gain=18.6138 29.0385 24.1801 20.1217 19.9415 19.6651
threshold=0.74500000476837169 1.0000000180025095e-35 2.3562959432601933 0.014999999664723875 2.1545424461364751 0.31499999761581426
decision_type=2 2 2 2 2 2
left_child=1 4 5 -3 -1 -2
right_child=2 3 -4 -5 -6 -7
leaf_value=0.017096677132655124 0.0046501004611699702 -0.01473668078171758 0.021362963944263753 0.0023723459804668159 -0.00047484664226353653 -0.0066880849631260082
leaf_weight=565.69111613929272 524.28365108370781 181.17774793505669 101.07228991389275 3032.9138284474611 225.72852446138859 1406.564676463604
leaf_count=2100 1889 660 370 10800 816 5159
internal_value=0.00154062 0.00351769 -0.00235657 0.00140363 0.0120907 -0.00360861
internal_weight=6037.43 4005.51 2031.92 3214.09 791.42 1930.85
internal_count=21794 14376 7418 11460 2916 7048
is_linear=0
shrinkage=0.05


Tree=39
num_leaves=7
num_cat=0
split_feature=27 50 48 27 16 29
split_gain=16.8052 26.3201 21.8911 18.8509 18.7362 14.4865
threshold=0.74500000476837169 1.0000000180025095e-35 2.3562959432601933 0.35500000417232519 0.0012479698052629831 34.552824020385749
decision_type=2 2 2 2 2 2
left_child=1 4 5 -3 -1 -2
right_child=2 3 -4 -5 -6 -7
leaf_value=0.0031565123628532485 -0.012762012086235586 -0.0028137564837150716 0.020361644727085869 0.0048666073139301685 0.018614744787981984 -0.0014189628520239733
leaf_weight=363.04077218472958 341.1522453725338 1478.8838913291693 100.79688000679016 1735.4242672175169 426.319550588727 1589.1843303889036
leaf_count=1346 1267 5303 370 6157 1570 5781
internal_value=0.00146456 0.0033436 -0.00223913 0.00133314 0.0115182 -0.00342921
internal_weight=6034.8 4003.67 2031.13 3214.31 789.36 1930.34
internal_count=21794 14376 7418 11460 2916 7048
is_linear=0
shrinkage=0.05


Tree=40
num_leaves=7
num_cat=0
split_feature=38 18 56 24 38 68
split_gain=15.5088 17.8042 40.4603 22.0476 15.8962 11.8668
threshold=-3.9109151363372798 1.2047182917594912 1.0000000180025095e-35 0.83743050694465648 -7.5656602382659903 0.39499999582767492
decision_type=2 2 2 2 2 2
left_child=4 2 -2 -3 -1 -6
right_child=1 3 -4 -5 5 -7
leaf_value=0.011880094112964021 0.037974150239037607 -0.0023778337923169818 0.0039327403450000733 0.023033176006687126 -0.014255230150690024 0.0067346350533267338
leaf_weight=98.273631200194359 88.550317212939262 1823.9748124927282 3485.1913088262081 88.55163985490799 354.61133933067322 82.431059956550598
leaf_count=353 353 6612 12491 311 1323 299
internal_value=0.00191047 0.00270336 0.00478661 -0.00118986 -0.00620542 -0.01029
internal_weight=6021.58 5486.27 3573.74 1912.53 535.316 437.042
internal_count=21742 19767 12844 6923 1975 1622
is_linear=0
shrinkage=0.05


Tree=41
num_leaves=7
num_cat=0
split_feature=27 24 9 30 12 37
split_gain=14.5048 25.3109 31.1614 15.6003 22.3428 18.9864
threshold=0.75499999523162853 0.1413247883319855 -0.052661182358860963 0.41499999165534979 0.00034819381835404789 8.9666256904602069
decision_type=2 2 2 2 2 2
left_child=1 -1 -3 4 -2 -5
right_child=3 2 -4 5 -6 -7
leaf_value=0.0018013277777183482 0.032583649365287411 0.020723495520166741 -0.0021494018263885323 -0.0069992582311081937 0.0014567992191462356 0.013958467939555855
leaf_weight=3399.1735524237156 62.305755913257599 416.97493888437748 231.04399530589581 1145.5875184684992 646.73553231358528 118.38304664194584
leaf_count=12106 220 1581 851 4222 2338 424
internal_value=0.00181616 0.00352947 0.0125777 -0.00169832 0.00423405 -0.00502688
internal_weight=6020.2 4047.19 648.019 1973.01 709.041 1263.97
internal_count=21742 14538 2432 7204 2558 4646
is_linear=0
shrinkage=0.05


Tree=42
num_leaves=7
num_cat=0
split_feature=38 5 14 0 24 3
split_gain=14.2512 24.555 19.8947 15.5272 18.1514 17.5434
threshold=-3.9109151363372798 54.376680374145515 0.0057209071237593898 -0.29924769699573511 0.74455857276916515 -0.34111262857913965
decision_type=2 2 2 2 2 2
left_child=1 2 -1 4 -2 -5
right_child=3 -3 -4 5 -6 -7
leaf_value=-0.0037063205888833725 0.0022286205695320411 0.022508062145889209 -0.026733254257186596 -0.02770746668399332 0.012401286020628909 -0.0014924857914066015
leaf_weight=341.20884907245636 4641.8130102008581 65.068768605589867 128.58147034049034 82.11357593536377 483.36925078928471 275.46855512261391
leaf_count=1262 16652 228 485 307 1815 993
internal_value=0.0017268 -0.00605642 -0.0100522 0.00248705 0.00319026 -0.00757286
internal_weight=6017.62 534.859 469.79 5482.76 5125.18 357.582
internal_count=21742 1975 1747 19767 18467 1300
is_linear=0
shrinkage=0.05


Tree=43
num_leaves=7
num_cat=0
split_feature=27 24 37 16 30 12
split_gain=12.9626 22.0674 28.5138 15.2711 14.0796 20.1775
threshold=0.75499999523162853 0.1413247883319855 2.1651538610458378 0.0030009121401235466 0.41499999165534979 0.00034819381835404789
decision_type=2 2 2 2 2 2
left_child=1 3 -3 -1 5 -2
right_child=4 2 -4 -5 -6 -7
leaf_value=0.0022970617318085629 0.030918295566013665 -0.010631435975850364 0.016663237487146376 -0.015726881844390233 -0.0048452870450036382 0.0013166866603379845
leaf_weight=3278.6528549641371 62.203864514827728 116.07360102236271 528.29247614741325 120.89611904323101 1263.3659846335649 646.77941915392876
leaf_count=11665 220 422 2010 441 4646 2338
internal_value=0.00164069 0.00326128 0.0117376 0.00165165 -0.00168198 0.00395372
internal_weight=6016.26 4043.92 644.366 3399.55 1972.35 708.983
internal_count=21742 14538 2432 12106 7204 2558
is_linear=0
shrinkage=0.05


Tree=44
num_leaves=7
num_cat=0
split_feature=0 65 27 24 48 11
split_gain=11.7972 14.2066 13.8698 19.9103 19.1893 13.4623
threshold=-0.2881185114383697 -5.089709758758544 0.75499999523162853 0.1413247883319855 2.3562959432601933 0.01700010430067778
decision_type=2 2 2 2 2 2
left_child=2 -2 3 -1 -4 -3
right_child=1 5 4 -5 -6 -7
leaf_value=0.0023171460930009316 0.0056328935617409558 -0.024081344406979219 -0.0025367059505840388 0.012441246436516701 0.020208238519449761 0.0033282970887696475
leaf_weight=3198.3477916717529 126.41860549151897 143.05540291965008 1812.5237212628126 571.73747053742409 96.733197823166847 64.69425205886364
leaf_count=11369 451 533 6620 2181 356 232
internal_value=0.00155971 -0.00755639 0.00209733 0.00385537 -0.00137435 -0.0155708
internal_weight=6013.51 334.168 5679.34 3770.09 1909.26 207.75
internal_count=21742 1216 20526 13550 6976 765
is_linear=0
shrinkage=0.05


Tree=45
num_leaves=7
num_cat=0
split_feature=65 21 10 6 29 29
split_gain=17.8969 15.8164 12.3931 11.0338 19.4275 18.7499
threshold=-17.141387939453121 0.31200477480888372 -0.38223381340503687 0.45191986858844763 54.703817367553718 27.804010391235355
decision_type=2 2 2 2 2 2
left_child=1 -1 -3 5 -5 -2
right_child=3 2 -4 4 -6 -7
leaf_value=0.019959123461407366 -0.019147643440999201 -0.003538864091238882 0.0069610766246912441 -0.00028271580763327304 -0.011068666890053879 0.0031636206825563238
leaf_weight=173.81220245361328 97.710270240902901 391.20552091300488 992.17571833729744 1760.6834964156151 546.26515366137028 2048.5072970837355
leaf_count=706 365 1416 3530 6375 1997 7355
internal_value=0.00117327 0.00578536 0.00399139 -0.000440432 -0.00284042 0.00213942
internal_weight=6010.36 1557.19 1383.38 4453.17 2306.95 2146.22
internal_count=21744 5652 4946 16092 8372 7720
is_linear=0
shrinkage=0.05


Tree=46
num_leaves=7
num_cat=0
split_feature=27 26 7 26 27 57
split_gain=16.6232 26.6906 19.5015 21.8947 14.2834 11.0612
threshold=0.86500000953674328 50.051067352294929 44.349843978881843 35.207756042480476 0.98500001430511486 0.80798113346099865
decision_type=2 2 2 2 2 2
left_child=2 4 5 -4 -2 -1
right_child=1 -3 3 -5 -6 -7
leaf_value=-0.011656560432631862 -0.013305222140587847 0.0075776281962225524 0.022145923073857182 -0.0057070111927405845 -0.00019805686078616281 0.0046139965972906418
leaf_weight=106.62754601240158 575.27967613935471 356.00891682505608 75.237502619624138 948.94386427104473 325.16100485622883 3621.6805212199688
leaf_count=389 2134 1289 263 3433 1188 13048
internal_value=0.00111493 -0.00399765 0.00246713 -0.0036413 -0.00857752 0.00414567
internal_weight=6008.94 1256.45 4752.49 1024.18 900.441 3728.31
internal_count=21744 4611 17133 3696 3322 13437
is_linear=0
shrinkage=0.05


Tree=47
num_leaves=7
num_cat=0
split_feature=65 27 48 26 21 30
split_gain=15.4939 17.3325 14.9562 14.5557 14.4286 12.6044
threshold=-17.141387939453121 0.86500000953674328 2.3562959432601933 34.264612197875984 0.31200477480888372 0.41499999165534979
decision_type=2 2 2 2 2 2
left_child=4 3 -3 -2 -1 -6
right_child=1 2 -4 -5 5 -7
leaf_value=0.018964227150810094 0.0077872134240094641 -0.0079835181643757528 0.018268243340135056 -0.00038727876837833309 0.0087094311203042875 -0.00084756186413526956
leaf_weight=172.11679384112358 673.68991936743259 898.82990081608295 56.804187700152397 2823.1438535749912 650.29217439889908 733.25844758749008
leaf_count=706 2395 3314 203 10180 2304 2642
internal_value=0.0010593 -0.000441814 -0.00640561 0.00118937 0.00535315 0.00364743
internal_weight=6008.14 4452.47 955.634 3496.83 1555.67 1383.55
internal_count=21744 16092 3517 12575 5652 4946
is_linear=0
shrinkage=0.05


Tree=48
num_leaves=5
num_cat=0
split_feature=16 65 21 57
split_gain=15.614 15.1114 18.5041 16.1223
threshold=0.006077276775613428 -17.141387939453121 0.18723118305206302 1.6293836236000063
decision_type=2 2 2 2
left_child=1 2 -1 -3
right_child=-2 3 -4 -5
leaf_value=0.023736835933904188 -0.02293728737606333 -0.00082101750046658826 0.0038834399617395481 0.014959660396553241
leaf_weight=127.04234032332897 66.324308574199677 4227.9862284362316 1417.6622033417225 167.29223461449146
leaf_count=528 253 15281 5084 598
internal_value=0.00100709 0.00127826 0.00553056 -0.00021711
internal_weight=6006.31 5939.98 1544.7 4395.28
internal_count=21744 21491 5612 15879
is_linear=0
shrinkage=0.05


Tree=49
num_leaves=5
num_cat=0
split_feature=16 65 21 57
split_gain=14.1311 13.6571 16.9816 14.5641
threshold=0.006077276775613428 -17.141387939453121 0.18723118305206302 1.6293836236000063
decision_type=2 2 2 2
left_child=1 2 -1 -3
right_child=-2 3 -4 -5
leaf_value=0.022797985688650622 -0.021836788950632534 -0.00077999999323234638 0.0036892490652395867 0.014221224999278543
leaf_weight=125.73554162681103 66.236127451062202 4227.8612444549799 1417.7205521911383 167.23332072794437
leaf_count=528 253 15281 5084 598
internal_value=0.000957257 0.00121513 0.00525967 -0.000206098
internal_weight=6004.79 5938.55 1543.46 4395.09
internal_count=21744 21491 5612 15879
is_linear=0
shrinkage=0.05


end of trees

feature_importances:
Column_24=33
Column_27=27
Column_29=22
Column_0=19
Column_18=17
Column_21=16
Column_37=16
Column_23=15
Column_8=10
Column_30=10
Column_48=10
Column_16=8
Column_26=8
Column_65=8
Column_15=7
Column_57=6
Column_3=5
Column_5=5
Column_38=5
Column_50=5
Column_7=4
Column_10=4
Column_11=4
Column_12=4
Column_68=4
Column_6=3
Column_9=3
Column_17=3
Column_69=3
Column_46=2
Column_52=2
Column_56=2
Column_1=1
Column_2=1
Column_14=1
Column_22=1
Column_34=1
Column_60=1

parameters:
[boosting: gbdt]
[objective: binary]
[metric: binary_logloss]
[tree_learner: serial]
[device_type: cpu]
[data_sample_strategy: bagging]
[data: ]
[valid: ]
[num_iterations: 50]
[learning_rate: 0.05]
[num_leaves: 7]
[num_threads: -1]
[seed: 42]
[deterministic: 0]
[force_col_wise: 0]
[force_row_wise: 0]
[histogram_pool_size: -1]
[max_depth: 3]
[min_data_in_leaf: 200]
[min_sum_hessian_in_leaf: 0.001]
[bagging_fraction: 0.8]
[pos_bagging_fraction: 1]
[neg_bagging_fraction: 1]
[bagging_freq: 5]
[bagging_seed: 400]
[bagging_by_query: 0]
[feature_fraction: 0.8]
[feature_fraction_bynode: 1]
[feature_fraction_seed: 30056]
[extra_trees: 0]
[extra_seed: 12879]
[early_stopping_round: 0]
[early_stopping_min_delta: 0]
[first_metric_only: 0]
[max_delta_step: 0]
[lambda_l1: 0]
[lambda_l2: 1]
[linear_lambda: 0]
[min_gain_to_split: 0]
[drop_rate: 0.1]
[max_drop: 50]
[skip_drop: 0.5]
[xgboost_dart_mode: 0]
[uniform_drop: 0]
[drop_seed: 17869]
[top_rate: 0.2]
[other_rate: 0.1]
[min_data_per_group: 100]
[max_cat_threshold: 32]
[cat_l2: 10]
[cat_smooth: 10]
[max_cat_to_onehot: 4]
[top_k: 20]
[monotone_constraints: ]
[monotone_constraints_method: basic]
[monotone_penalty: 0]
[feature_contri: ]
[forcedsplits_filename: ]
[refit_decay_rate: 0.9]
[cegb_tradeoff: 1]
[cegb_penalty_split: 0]
[cegb_penalty_feature_lazy: ]
[cegb_penalty_feature_coupled: ]
[path_smooth: 0]
[interaction_constraints: ]
[verbosity: -1]
[saved_feature_importance_type: 0]
[use_quantized_grad: 0]
[num_grad_quant_bins: 4]
[quant_train_renew_leaf: 0]
[stochastic_rounding: 1]
[linear_tree: 0]
[max_bin: 255]
[max_bin_by_feature: ]
[min_data_in_bin: 3]
[bin_construct_sample_cnt: 200000]
[data_random_seed: 175]
[is_enable_sparse: 1]
[enable_bundle: 1]
[use_missing: 1]
[zero_as_missing: 0]
[feature_pre_filter: 1]
[pre_partition: 0]
[two_round: 0]
[header: 0]
[label_column: ]
[weight_column: ]
[group_column: ]
[ignore_column: ]
[categorical_feature: ]
[forcedbins_filename: ]
[precise_float_parser: 0]
[parser_config_file: ]
[objective_seed: 16083]
[num_class: 1]
[is_unbalance: 1]
[scale_pos_weight: 1]
[sigmoid: 1]
[boost_from_average: 1]
[reg_sqrt: 0]
[alpha: 0.9]
[fair_c: 1]
[poisson_max_delta_step: 0.7]
[tweedie_variance_power: 1.5]
[lambdarank_truncation_level: 30]
[lambdarank_norm: 1]
[label_gain: ]
[lambdarank_position_bias_regularization: 0]
[eval_at: ]
[multi_error_top_k: 1]
[auc_mu_weights: ]
[num_machines: 1]
[local_listen_port: 12400]
[time_out: 120]
[machine_list_filename: ]
[machines: ]
[gpu_platform_id: -1]
[gpu_device_id: -1]
[gpu_use_dp: 0]
[num_gpu: 1]

end of parameters

pandas_categorical:null
