tree
version=v4
num_class=1
num_tree_per_iteration=1
label_index=0
max_feature_idx=72
objective=binary sigmoid:1
feature_names=Column_0 Column_1 Column_2 Column_3 Column_4 Column_5 Column_6 Column_7 Column_8 Column_9 Column_10 Column_11 Column_12 Column_13 Column_14 Column_15 Column_16 Column_17 Column_18 Column_19 Column_20 Column_21 Column_22 Column_23 Column_24 Column_25 Column_26 Column_27 Column_28 Column_29 Column_30 Column_31 Column_32 Column_33 Column_34 Column_35 Column_36 Column_37 Column_38 Column_39 Column_40 Column_41 Column_42 Column_43 Column_44 Column_45 Column_46 Column_47 Column_48 Column_49 Column_50 Column_51 Column_52 Column_53 Column_54 Column_55 Column_56 Column_57 Column_58 Column_59 Column_60 Column_61 Column_62 Column_63 Column_64 Column_65 Column_66 Column_67 Column_68 Column_69 Column_70 Column_71 Column_72
feature_infos=[-5.1120820045471191:7.0882625579833984] [-7.1628541946411133:8.7935390472412109] [-17.102222442626953:22.300239562988281] [-2.1637413501739502:3.5993821620941162] [-1:1] [6.3838481903076172:85.68304443359375] [-19.116180419921875:19.45892333984375] [16.348442077636719:92.704666137695312] [0:100] [-0.75371170043945312:1.1566668748855591] [-0.75912219285964966:1.0296734571456909] [-1.1961005926132202:1.5490988492965698] [5.8888090279651806e-05:0.002735828747972846] [0.33000001311302185:0.95999997854232788] [0.00011537482350831851:0.024564845487475395] [0.040838368237018585:4.3909487724304199] [0.00012142459308961406:0.016386054456233978] [0:9.8358373641967773] [0:15.277633666992188] [0:1] none [0.00053148792358115315:14.402664184570312] [-3.2865102291107178:6.6597123146057129] [-1:-0.25881904363632202] [-0.96592581272125244:0.85491186380386353] [-1:1] [7.4739012718200684:90.463783264160156] [0.0099999997764825821:1] [-1:1] [6.3500761985778809:93.313644409179688] [0.0099999997764825821:1] [0:1] [0:1] [0:99] [0:99] [0:1] [0:1] [-16.296993255615234:15.627365112304688] [-9.6344261169433594:25.94287109375] [0:1] [0:1] none [0:1] [0:1] [0:1] [-0.7593541145324707:7.2536592483520508] [-5.8597927093505859:1.9164361953735352] [0:10.858978271484375] [0:5.8465080261230469] none [0:1] none [0:1] none [0:1] none [0:1] [0.46528267860412598:3.5696091651916504] [0:1] [0:1] [0:99] [0:1] [0:1] [0:1] [-1:1] [-48.995559692382812:58.107471466064453] none [0:1] [-0.67000001668930054:0.94999998807907104] [0:1] none [0:1] [0:1]
tree_sizes=884 884 891 889 892 888 898 890 895 897 897 902 884 888 694 904 902 900 896 902 689 899 904 683 893 690 898 691 691 687 900 906 892 890 801 893 782 901 801 692 907 693 904 903 902 915 906 583 919 904

Tree=0
num_leaves=7
num_cat=0
split_feature=21 5 60 12 0 26
split_gain=65.5734 45.9146 39.9025 36.6739 32.7002 28.7564
threshold=0.26444213092327123 35.961523056030281 15.500000000000002 0.00047628310858272021 0.50056773424148571 32.58197212219239
decision_type=2 2 2 2 2 2
left_child=1 2 -1 4 -2 -5
right_child=3 -3 -4 5 -6 -7
leaf_value=-0.4306009561810098 -0.42414336784648388 -0.36177749331494302 -0.39149606653183699 -0.44029339189569583 -0.41278906013963895 -0.42186244108983278
leaf_weight=108.42108374834061 864.9274719953537 71.524987161159515 165.4422647356987 224.57213017344475 2441.5797473192215 3713.2450529038906
leaf_count=383 3016 217 538 809 8316 12888
internal_value=-0.418621 -0.397337 -0.406881 -0.419642 -0.415753 -0.422913
internal_weight=7589.71 345.388 273.863 7244.32 3306.51 3937.82
internal_count=26167 1138 921 25029 11332 13697
is_linear=0
shrinkage=1


Tree=1
num_leaves=7
num_cat=0
split_feature=21 5 60 26 30 47
split_gain=58.1987 40.2219 35.3117 33.319 34.5452 27.9318
threshold=0.26444213092327123 35.961523056030281 15.500000000000002 63.002859115600593 0.28499999642372137 0.33287733793258673
decision_type=2 2 2 2 2 2
left_child=1 2 -1 4 -2 -5
right_child=3 -3 -4 5 -6 -7
leaf_value=0.010413269718179885 0.023657817140470348 0.074664533724114759 0.047100933724629396 0.03305440363265779 0.015318415613675536 0.02119097332746726
leaf_weight=108.67698223888874 2057.9368516802788 72.665081471204758 167.15226870775223 856.90770052373409 3159.8830478042364 1203.3159527182579
leaf_count=383 7033 217 538 2871 10992 4133
internal_value=0.0217069 0.041667 0.0327358 0.0207456 0.0186114 0.026139
internal_weight=7626.54 348.494 275.829 7278.04 5217.82 2060.22
internal_count=26167 1138 921 25029 18025 7004
is_linear=0
shrinkage=0.05


Tree=2
num_leaves=7
num_cat=0
split_feature=24 0 2 69 29 6
split_gain=52.5951 100.837 46.8351 45.8454 39.9471 31.1992
threshold=0.50938662886619579 0.57347360253334057 -2.6546515226364131 1.0000000180025095e-35 50.963132858276374 -3.9088869094848628
decision_type=2 2 2 2 2 2
left_child=2 5 4 -3 -1 -2
right_child=1 3 -4 -5 -6 -7
leaf_value=-0.0038122260048300454 0.034696821102792264 0.051751357344469263 0.019990064263471323 0.016555243255436825 0.034272068542660794 0.0064998687042607459
leaf_weight=368.11762015521526 133.72589999437332 469.44256763160229 6124.6142878830433 116.68878242373466 83.655262038111687 363.30492430925369
leaf_count=1326 443 1492 20949 401 278 1278
internal_value=0.0205315 0.030749 0.0188442 0.0447845 0.0033 0.0141407
internal_weight=7659.55 1083.16 6576.39 586.131 451.773 497.031
internal_count=26167 3614 22553 1893 1604 1721
is_linear=0
shrinkage=0.05


Tree=3
num_leaves=7
num_cat=0
split_feature=21 5 60 26 16 30
split_gain=49.066 35.2552 30.5149 28.9066 32.925 30.4645
threshold=0.26444213092327123 35.961523056030281 15.500000000000002 63.002859115600593 0.0013602009275928142 0.28499999642372137
decision_type=2 2 2 2 2 2
left_child=1 2 -1 5 -5 -2
right_child=3 -3 -4 4 -6 -7
leaf_value=0.0086264484039163813 0.021282778391790224 0.068258289548004475 0.042553933910189808 0.031237316945047652 0.018365579362360943 0.013483758838171003
leaf_weight=109.44102483987808 2075.5765206068754 73.854888707399368 169.45769800245762 834.77752017974854 1244.5070798099041 3181.6652739644051
leaf_count=383 7033 217 538 2763 4241 10992
internal_value=0.0194281 0.0376415 0.029319 0.0185473 0.0235458 0.0165663
internal_weight=7689.28 352.754 278.899 7336.53 2079.28 5257.24
internal_count=26167 1138 921 25029 7004 18025
is_linear=0
shrinkage=0.05


Tree=4
num_leaves=7
num_cat=0
split_feature=24 60 17 2 5 44
split_gain=45.3639 50.0647 46.1794 41.0591 28.9282 20.894
threshold=0.50938662886619579 5.5000000000000009 1.1309839487075808 -2.6546515226364131 23.595759391784672 1.0000000180025095e-35
decision_type=2 2 2 2 2 2
left_child=3 5 -3 4 -1 -2
right_child=1 2 -4 -5 -6 -7
leaf_value=-0.0096904529678575949 0.015850853425707426 0.044973175051918175 0.022216899500505871 0.017897323211652098 0.015543042470784025 -0.019457850812306408
leaf_weight=238.07169263064861 128.33396722376347 415.98906365036964 487.71306104958057 6169.2501947432756 215.41394749283791 61.010083317756653
leaf_count=863 437 1318 1635 20949 741 224
internal_value=0.0183927 0.0278366 0.0327301 0.0168301 0.00230374 0.0044313
internal_weight=7715.78 1093.05 903.702 6622.74 453.486 189.344
internal_count=26167 3614 2953 22553 1604 661
is_linear=0
shrinkage=0.05


Tree=5
num_leaves=7
num_cat=0
split_feature=24 0 60 47 1 29
split_gain=57.0778 93.3753 47.21 31.4715 29.6609 32.3018
threshold=0.47136868536472326 0.57347360253334057 8.5000000000000018 0.77447223663330089 2.5870316028594975 33.868076324462898
decision_type=2 2 2 2 2 2
left_child=4 3 -3 -2 5 -1
right_child=1 2 -4 -5 -6 -7
leaf_value=-4.1978359652312432e-05 0.0071873726080040976 0.016279221490951148 0.047417804326474147 0.045595300092874352 0.01996944744870667 0.014653131040574321
leaf_weight=418.25973615050316 455.90489445626736 161.38654948771 512.48884035646915 59.503052577376366 2619.3433832675219 3529.0286408662796
leaf_count=1478 1576 545 1595 189 8804 12020
internal_value=0.0176707 0.0277536 0.0399956 0.0117012 0.0158406 0.0130964
internal_weight=7755.92 1189.28 673.875 515.408 6566.63 3947.29
internal_count=26207 3905 2140 1765 22302 13498
is_linear=0
shrinkage=0.05


Tree=6
num_leaves=7
num_cat=0
split_feature=24 0 60 28 65 12
split_gain=51.1772 83.765 41.2911 27.4079 56.3223 34.7831
threshold=0.47136868536472326 0.53298634290695202 8.5000000000000018 -1.0000000180025095e-35 4.5266435146331796 0.00047122407704591757
decision_type=2 2 2 2 2 2
left_child=3 -2 -3 4 -1 -5
right_child=1 2 -4 5 -6 -7
leaf_value=0.030859819323444601 0.010226146587922265 0.015437734056943146 0.043936691280152006 0.017335190198178196 0.01349226875564101 0.0086021599957109979
leaf_weight=738.33920778334141 484.92568297684193 167.96560829877853 540.83953247964382 2227.5714912712574 1275.1020449995995 2342.7805943638086
leaf_count=2414 1661 566 1678 7492 4344 8052
internal_value=0.0167399 0.0262689 0.0372146 0.0150085 0.0198732 0.0128615
internal_weight=7777.52 1193.73 708.805 6583.79 2013.44 4570.35
internal_count=26207 3905 2244 22302 6758 15544
is_linear=0
shrinkage=0.05


Tree=7
num_leaves=7
num_cat=0
split_feature=24 0 60 1 30 16
split_gain=46.0929 72.3005 30.9779 25.8771 26.9995 25.5415
threshold=0.5464349389076234 0.5484277904033662 8.5000000000000018 2.5870316028594975 0.20499999821186068 0.0020347881363704805
decision_type=2 2 2 2 2 2
left_child=3 5 -3 4 -1 -2
right_child=1 2 -4 -5 -6 -7
leaf_value=0.017813154788616541 0.017978825174726303 0.015988373801625332 0.043875043302329234 0.01816143408686674 0.0090579916259431164 -0.008720345025147019
leaf_weight=1291.6843603104353 331.69180108606815 130.52875471115112 441.59625715017319 2700.1314221322536 2779.2238258719444 121.88582754135132
leaf_count=4325 1113 437 1354 9022 9522 434
internal_value=0.0158633 0.0257442 0.0375518 0.0143629 0.0118397 0.0108008
internal_weight=7796.74 1025.7 572.125 6771.04 4070.91 453.578
internal_count=26207 3338 1791 22869 13847 1547
is_linear=0
shrinkage=0.05


Tree=8
num_leaves=7
num_cat=0
split_feature=21 12 28 1 5 13
split_gain=30.7709 28.7 33.9551 32.8874 23.4268 26.4137
threshold=0.26444213092327123 0.00047122407704591757 -1.0000000180025095e-35 -0.10001187026500701 36.164997100830085 0.65500000119209301
decision_type=2 2 2 2 2 2
left_child=4 3 -3 -2 5 -1
right_child=1 2 -4 -5 -6 -7
leaf_value=0.033995896680904601 0.0050039923184782391 0.017502231887248063 0.0080780855243462041 0.019719973855576566 0.053809029622283788 0.0022646634677211887
leaf_weight=181.00461515784264 437.76975782215595 1512.4974039793015 2603.8694664686918 2899.558457031846 76.347713217139244 102.76468236744404
leaf_count=568 1508 5057 8897 9599 224 354
internal_value=0.0150369 0.0143435 0.0115443 0.0177917 0.0293102 0.022553
internal_weight=7813.81 7453.7 4116.37 3337.33 360.117 283.769
internal_count=26207 25061 13954 11107 1146 922
is_linear=0
shrinkage=0.05


Tree=9
num_leaves=7
num_cat=0
split_feature=24 0 69 47 2 29
split_gain=40.5213 67.4596 33.0217 26.7469 24.9157 23.4751
threshold=0.47136868536472326 0.58940145373344432 1.0000000180025095e-35 0.80946621298789989 -2.9895001649856563 50.963132858276374
decision_type=2 2 2 2 2 2
left_child=4 3 -3 -2 5 -1
right_child=1 2 -4 -5 -6 -7
leaf_value=-0.0051807466108988731 0.0054098744625697033 0.039220030579717513 0.012408469548427899 0.040697204861556903 0.013485486496392736 0.027270734738235654
leaf_weight=321.62630175054073 473.99723194539547 519.69143697619438 148.87763640284538 59.635564416646957 6239.1373969167471 66.365272030234337
leaf_count=1143 1624 1598 496 187 20942 217
internal_value=0.0142568 0.022705 0.0332771 0.00942212 0.0127211 0.000425858
internal_weight=7829.33 1202.2 668.569 533.633 6627.13 387.992
internal_count=26207 3905 2094 1811 22302 1360
is_linear=0
shrinkage=0.05


Tree=10
num_leaves=7
num_cat=0
split_feature=24 8 13 28 38 45
split_gain=39.4384 49.3854 36.6578 21.7817 32.964 25.9192
threshold=0.60003554821014415 74.479854583740249 0.66500002145767223 -1.0000000180025095e-35 4.4752612113952646 3.2446990013122563
decision_type=2 2 2 2 2 2
left_child=3 2 -2 5 -5 -1
right_child=1 -3 -4 4 -6 -7
leaf_value=0.016975471311488542 0.020454125130594834 0.034849547665350929 -0.0099970802235192224 0.0064444344952257985 0.014819741784349328 -0.014209797663474825
leaf_weight=2086.4144247919321 340.31417183578014 442.00215445458889 138.40363444387913 2824.4827074408531 2014.148477897048 68.105978712439537
leaf_count=6929 1107 1386 484 9611 6714 241
internal_value=0.0130832 0.0228118 0.0116478 0.0117992 0.00993312 0.0159835
internal_weight=7913.87 920.72 478.718 6993.15 4838.63 2154.52
internal_count=26472 2977 1591 23495 16325 7170
is_linear=0
shrinkage=0.05


Tree=11
num_leaves=7
num_cat=0
split_feature=24 8 13 47 28 12
split_gain=35.5126 44.3396 33.0299 22.6931 19.5595 28.2421
threshold=0.60003554821014415 74.479854583740249 0.66500002145767223 0.864098221063614 -1.0000000180025095e-35 0.00050965155242010962
decision_type=2 2 2 2 2 2
left_child=4 2 -2 -3 -1 -6
right_child=1 3 -4 -5 5 -7
leaf_value=0.015152458366209513 0.019397101063347716 0.026761196307652974 -0.0095122511117713485 0.053948505757693423 0.012880464151386285 0.0052046243931998968
leaf_weight=2158.9374816566706 340.95360144972801 342.95490282773972 138.24025373160839 100.25418537855148 2662.1715160757303 2182.7027008831501
leaf_count=7170 1107 1091 484 295 8878 7447
internal_value=0.0124094 0.0216326 0.0110547 0.0330186 0.0111918 0.00942415
internal_weight=7926.21 922.403 479.194 443.209 7003.81 4844.87
internal_count=26472 2977 1591 1386 23495 16325
is_linear=0
shrinkage=0.05


Tree=12
num_leaves=7
num_cat=0
split_feature=24 8 60 7 0 28
split_gain=32.0402 39.981 35.0956 21.6772 18.6584 20.1948
threshold=0.60003554821014415 86.005084991455092 8.5000000000000018 55.728204727172859 3.0052821636199956 -1.0000000180025095e-35
decision_type=2 2 2 2 2 2
left_child=4 2 -2 -3 5 -1
right_child=1 3 -4 -5 -6 -7
leaf_value=0.014154729298683603 -0.010979702920006461 0.022886601724823836 0.018969250546099003 0.049189878041995046 0.021875395095672913 0.0081859942481507381
leaf_weight=2050.0573054552078 122.11964222788811 178.46729354560375 479.44967193901539 143.56162557005882 349.41059736907482 4613.937946870923
leaf_count=6800 430 573 1550 424 1138 15557
internal_value=0.0117732 0.0205282 0.0128814 0.0347287 0.0106175 0.010024
internal_weight=7937 923.598 601.569 322.029 7013.41 6664
internal_count=26472 2977 1980 997 23495 22357
is_linear=0
shrinkage=0.05


Tree=13
num_leaves=7
num_cat=0
split_feature=24 8 2 47 7 6
split_gain=28.9403 36.9562 33.6966 20.3674 17.6276 23.0504
threshold=0.60003554821014415 74.479854583740249 3.9984394311904912 0.864098221063614 48.219331741333015 0.60749599337577831
decision_type=2 2 2 2 2 2
left_child=4 2 -2 -3 5 -1
right_child=1 3 -4 -5 -6 -7
leaf_value=-0.021333623512993796 -0.00035239332311047625 0.023958817624557361 0.027023710306467857 0.04966907283727505 0.010451977870687981 0.018042018312278432
leaf_weight=97.456849545240402 301.93114529550076 343.99588258564472 178.04488198459148 100.41700276732445 6865.9472835212946 58.776599764823914
leaf_count=350 1029 1091 562 295 22951 194
internal_value=0.0111715 0.0194888 0.00983772 0.0298666 0.010074 -0.00649958
internal_weight=7946.57 924.389 479.976 444.413 7022.18 156.233
internal_count=26472 2977 1591 1386 23495 544
is_linear=0
shrinkage=0.05


Tree=14
num_leaves=5
num_cat=0
split_feature=16 24 69 16
split_gain=28.3265 34.9855 44.8328 35.2534
threshold=0.0059151342138648042 0.26932403445243841 1.0000000180025095e-35 0.0033532890956848864
decision_type=2 2 2 2
left_child=1 3 -3 -1
right_child=-2 2 -4 -5
leaf_value=0.0084646783783691986 -0.017849208050762698 0.021579883016687978 -0.0020779735864482288 0.025912439072433388
leaf_weight=6073.9680294245481 85.678309246897697 1254.111826017499 238.07454915344715 303.30917753279209
leaf_count=20356 304 4018 814 980
internal_value=0.0106018 0.0109138 0.0178065 0.00929844
internal_weight=7955.14 7869.46 1492.19 6377.28
internal_count=26472 26168 4832 21336
is_linear=0
shrinkage=0.05


Tree=15
num_leaves=7
num_cat=0
split_feature=24 60 0 12 30 12
split_gain=27.6568 50.7693 42.9294 26.3905 54.1967 29.0977
threshold=0.26932403445243841 5.5000000000000009 0.71935123205184948 0.00097679166356101654 0.82499998807907116 0.00049953549751080583
decision_type=2 2 2 2 2 2
left_child=3 -2 -3 5 -5 -1
right_child=1 2 -4 4 -6 -7
leaf_value=0.011345465428599493 -0.0040616488195565651 0.010452260905102827 0.028884588588392171 0.035307557554532763 -0.0075346478416727551 0.0044198478833757122
leaf_weight=3120.764948964119 256.17483842372894 592.33396692574024 680.12657192349434 239.48793387413025 106.07133089005947 2953.693131223321
leaf_count=10347 881 1955 2120 755 368 9990
internal_value=0.0101882 0.0162334 0.0203192 0.00874651 0.0221731 0.00797918
internal_weight=7948.65 1528.64 1272.46 6420.02 345.559 6074.46
internal_count=26416 4956 4075 21460 1123 20337
is_linear=0
shrinkage=0.05


Tree=16
num_leaves=7
num_cat=0
split_feature=8 24 28 65 47 26
split_gain=27.0467 40.4362 27.4438 27.911 26.5065 22.8158
threshold=85.753097534179702 0.47136868536472326 -1.0000000180025095e-35 -1.7551416158676145 0.87350410223007213 33.078189849853523
decision_type=2 2 2 2 2 2
left_child=2 -2 3 -1 -3 -4
right_child=1 4 5 -5 -6 -7
leaf_value=0.023180306377529644 0.01092802309434667 0.021210155706590177 -0.023857704117491739 0.0079710707078012866 0.052963228146874319 0.0051081323858837412
leaf_weight=448.60136245191097 3072.6427036374807 354.12676683068275 68.579631850123405 922.38189899921417 80.755655229091644 3008.1450961828232
leaf_count=1437 10207 1124 248 3067 234 10099
internal_value=0.00967097 0.0129545 0.00707921 0.012961 0.0272145 0.00445495
internal_weight=7955.23 3507.53 4447.71 1370.98 434.882 3076.72
internal_count=26416 11565 14851 4504 1358 10347
is_linear=0
shrinkage=0.05


Tree=17
num_leaves=7
num_cat=0
split_feature=8 24 28 65 47 26
split_gain=24.3684 36.594 24.7286 25.1158 24.1262 21.9008
threshold=85.753097534179702 0.47136868536472326 -1.0000000180025095e-35 -1.7551416158676145 0.87350410223007213 61.194730758666999
decision_type=2 2 2 2 2 2
left_child=2 5 3 -1 -3 -2
right_child=1 4 -4 -5 -6 -7
leaf_value=0.021985178479643229 0.0080216801694875852 0.020141808979465131 0.004230045830592939 0.0075675389264247585 0.050459613949274701 0.017967314968114764
leaf_weight=449.37176568806171 2351.3737087547779 354.31240139901638 3077.9948437064886 923.02495931088924 80.578108564019203 724.70704528689384
leaf_count=1437 7853 1124 10347 3067 234 2354
internal_value=0.00918074 0.0122957 0.00672113 0.012301 0.0258621 0.0103699
internal_weight=7961.36 3510.97 4450.39 1372.4 434.891 3076.08
internal_count=26416 11565 14851 4504 1358 10207
is_linear=0
shrinkage=0.05


Tree=18
num_leaves=7
num_cat=0
split_feature=34 8 2 30 44 2
split_gain=23.1683 21.4829 19.5057 17.8869 9.73726 4.43195
threshold=1.5000000000000002 85.753097534179702 -2.9895001649856563 0.044999999925494201 1.0000000180025095e-35 0.78442364931106578
decision_type=2 2 2 2 2 2
left_child=4 2 -2 -3 5 -1
right_child=1 3 -4 -5 -6 -7
leaf_value=0.023350505468054963 -0.0081835845241655953 0.021109137536120468 0.0067036132150660585 0.0098833961943697157 0.011758998358690985 0.042029090252508748
leaf_weight=70.004607006907463 231.7042537778616 402.56147642433643 4091.4265682399273 3008.7985314875841 94.870274245738983 67.281547874212265
leaf_count=224 807 1293 13626 9948 313 205
internal_value=0.00871659 0.00824712 0.005904 0.0112139 0.0242547 0.0327423
internal_weight=7966.65 7734.49 4323.13 3411.36 232.156 137.286
internal_count=26416 25674 14433 11241 742 429
is_linear=0
shrinkage=0.05


Tree=19
num_leaves=7
num_cat=0
split_feature=24 60 0 12 30 12
split_gain=22.0766 46.2535 37.7077 23.5683 48.7183 26.6169
threshold=0.26932403445243841 5.5000000000000009 0.69325098395347606 0.00097679166356101654 0.82499998807907116 0.00047628310858272021
decision_type=2 2 2 2 2 2
left_child=3 -2 -3 5 -5 -1
right_child=1 2 -4 4 -6 -7
leaf_value=0.009764721136220093 -0.005667540046531399 0.0081240154203198484 0.02541586930493225 0.032051733317945814 -0.008494423130283436 0.0031443787167925522
leaf_weight=2873.4036222547293 256.78021016716957 578.65504470467567 695.2122955173254 240.8481659591198 106.28944551944733 3220.8993407338858
leaf_count=9486 881 1907 2168 755 368 10851
internal_value=0.00827558 0.0136735 0.0175736 0.00699097 0.0196482 0.00626689
internal_weight=7972.09 1530.65 1273.87 6441.44 347.138 6094.3
internal_count=26416 4956 4075 21460 1123 20337
is_linear=0
shrinkage=0.05


Tree=20
num_leaves=5
num_cat=0
split_feature=16 27 26 27
split_gain=29.4075 21.8383 32.6656 30.2263
threshold=0.0066770059056580075 0.83499997854232799 63.002859115600593 0.94499999284744274
decision_type=2 2 2 2
left_child=1 2 -1 -3
right_child=-2 3 -4 -5
leaf_value=0.0080588045262670587 -0.026244123720181162 -0.0015965069627398697 0.017090800303127533 0.009403993487559853
leaf_weight=4002.8762044012547 60.419212758541107 1091.7000280916691 1336.121239900589 1457.2171440422535
leaf_count=13263 217 3694 4317 4815
internal_value=0.00823661 0.00850402 0.0103219 0.00469371
internal_weight=7948.33 7887.91 5339 2548.92
internal_count=26306 26089 17580 8509
is_linear=0
shrinkage=0.05


Tree=21
num_leaves=7
num_cat=0
split_feature=27 27 3 29 38 29
split_gain=24.0886 25.2686 38.0327 23.4312 17.8096 33.9449
threshold=0.83499997854232799 0.94499999284744274 0.50402879714965831 49.075666427612312 1.9043501019477846 35.309906005859382
decision_type=2 2 2 2 2 2
left_child=4 2 -2 -3 5 -1
right_child=1 3 -4 -5 -6 -7
leaf_value=-0.01776497225494348 -0.013017692165321799 0.0011856355981545452 0.005850627404046415 0.013747271668313847 0.0085517225039066554 0.019938027901809041
leaf_weight=64.433497175574303 451.09989409148693 675.16749751567841 651.63654953241348 824.20490396022797 4579.6994197070599 706.75158357620239
leaf_count=227 1566 2273 2169 2689 15103 2279
internal_value=0.00782005 0.00387192 -0.0018727 0.00809533 0.00973893 0.016769
internal_weight=7952.99 2602.11 1102.74 1499.37 5350.88 771.185
internal_count=26306 8697 3735 4962 17609 2506
is_linear=0
shrinkage=0.05


Tree=22
num_leaves=7
num_cat=0
split_feature=27 27 3 15 23 17
split_gain=21.7058 22.7934 34.3602 22.8945 17.4124 21.4163
threshold=0.83499997854232799 0.94499999284744274 0.50402879714965831 0.55572158098220836 -0.9686339497566222 1.1401311755180361
decision_type=2 2 2 2 2 2
left_child=4 2 -2 -3 -1 -6
right_child=1 3 -4 -5 5 -7
leaf_value=-0.00014293946458780512 -0.012382562603910331 0.021449510511036426 0.0055559505418195532 0.004911317750097466 0.012453638262550469 0.0054435370926359987
leaf_weight=452.12463840842247 450.59045930206776 250.63185788691044 651.93332573771477 1249.542381465435 3263.266798183322 1639.0553081482649
leaf_count=1519 1566 800 2169 4162 10648 5442
internal_value=0.00742509 0.00367747 -0.00177992 0.00768678 0.00924571 0.0101115
internal_weight=7957.14 2602.7 1102.52 1500.17 5354.45 4902.32
internal_count=26306 8697 3735 4962 17609 16090
is_linear=0
shrinkage=0.05


Tree=23
num_leaves=5
num_cat=0
split_feature=16 34 1 46
split_gain=26.434 22.4935 22.3524 14.5848
threshold=0.0066770059056580075 1.5000000000000002 2.5301851034164433 -0.065827816724777208
decision_type=2 2 2 2
left_child=1 3 -3 -1
right_child=-2 2 -4 -5
leaf_value=0.0049004661434366107 -0.02565885531228454 0.0046598064491668268 0.010180505768685342 0.031803999226937156
leaf_weight=76.179124936461449 60.339870855212212 4639.9095352590084 3034.0875331759453 150.1534189581871
leaf_count=253 217 15450 9921 465
internal_value=0.00705079 0.00730383 0.00684358 0.0228102
internal_weight=7960.67 7900.33 7674 226.333
internal_count=26306 26089 25371 718
is_linear=0
shrinkage=0.05


Tree=24
num_leaves=7
num_cat=0
split_feature=34 21 6 30 46 9
split_gain=20.9746 19.8202 20.8371 16.2589 13.1584 5.29382
threshold=1.5000000000000002 1.2058782577514651 -7.9481184482574454 0.014999999664723875 -0.065827816724777208 0.010305108968168499
decision_type=2 2 2 2 2 2
left_child=4 2 -2 -3 -1 -6
right_child=1 3 -4 -5 5 -7
leaf_value=0.0046571201759136203 0.020788245156346471 -0.012368793562951714 0.0046089567490369176 0.013227600111086257 0.021552909763407971 0.040993760283264305
leaf_weight=76.20329712331295 204.65292187035084 64.607095018029213 6249.7977765649557 1218.3012709766626 85.033294275403023 65.209120258688927
leaf_count=253 658 221 20752 3957 269 196
internal_value=0.00669567 0.00625478 0.0051251 0.0119299 0.0216666 0.030206
internal_weight=7963.8 7737.36 6454.45 1282.91 226.446 150.242
internal_count=26306 25588 21410 4178 718 465
is_linear=0
shrinkage=0.05


Tree=25
num_leaves=5
num_cat=0
split_feature=16 16 5 24
split_gain=25.2495 30.4637 27.7684 25.5743
threshold=0.0059151342138648042 0.0033532890956848864 32.884012222290046 0.24825246632099154
decision_type=2 2 2 2
left_child=1 3 -3 -1
right_child=-2 2 -4 -5
leaf_value=0.0041112408175601666 -0.020584820019285799 0.0084516519617183622 0.033594642968291601 0.011663734014432322
leaf_weight=6063.804621592164 87.511382594704628 267.12544001638889 186.59961447119713 1374.8191024512053
leaf_count=20166 312 879 577 4437
internal_value=0.00598025 0.00627737 0.0188431 0.00550849
internal_weight=7979.86 7892.35 453.725 7438.62
internal_count=26371 26059 1456 24603
is_linear=0
shrinkage=0.05


Tree=26
num_leaves=7
num_cat=0
split_feature=5 15 7 0 1 24
split_gain=16.288 29.0692 29.2028 18.3032 27.4577 26.8668
threshold=24.014901161193851 1.2799971103668215 48.219331741333015 0.44898122549057012 -1.0560022592544553 0.24825246632099154
decision_type=2 2 2 2 2 2
left_child=1 2 -1 4 -2 -5
right_child=3 -3 -4 5 -6 -7
leaf_value=-0.025992030712473177 0.015674817578983018 0.012324040363010803 0.001978785873931725 0.0069860173850413362 -0.0088639647913704971 0.017899343160631589
leaf_weight=95.435848474502563 166.75038996338844 710.41547818481922 2884.3921123445034 3079.6745336800814 354.78259375691414 690.33756329119205
leaf_count=340 542 2308 9631 10147 1211 2192
internal_value=0.00568003 0.00324295 0.00107454 0.0077744 -0.00100317 0.0089886
internal_weight=7981.79 3690.24 2979.83 4291.55 521.533 3770.01
internal_count=26371 12279 9971 14092 1753 12339
is_linear=0
shrinkage=0.05


Tree=27
num_leaves=5
num_cat=0
split_feature=16 16 5 24
split_gain=23.1222 26.9707 24.7594 21.8032
threshold=0.0059151342138648042 0.0033532890956848864 33.222856521606452 0.24825246632099154
decision_type=2 2 2 2
left_child=1 3 -3 -1
right_child=-2 2 -4 -5
leaf_value=0.0036662536577790083 -0.020042824531107478 0.0079221850998389982 0.031757841716528325 0.010639812884457658
leaf_weight=6067.3035899996758 87.392951041460037 272.67662145197392 181.49716186523438 1374.5549389570951
leaf_count=20166 312 896 560 4437
internal_value=0.00539498 0.00567902 0.0174962 0.00495557
internal_weight=7983.43 7896.03 454.174 7441.86
internal_count=26371 26059 1456 24603
is_linear=0
shrinkage=0.05


Tree=28
num_leaves=5
num_cat=0
split_feature=16 16 5 24
split_gain=20.9169 24.3433 22.3496 19.6882
threshold=0.0059151342138648042 0.0033532890956848864 33.222856521606452 0.24825246632099154
decision_type=2 2 2 2
left_child=1 3 -3 -1
right_child=-2 2 -4 -5
leaf_value=0.0034821202316363585 -0.019099408998596617 0.0075244404556785178 0.030165860957585385 0.010108838352374762
leaf_weight=6068.7483401745558 87.179171875119209 272.78583897650242 181.57216489315033 1374.4711751937866
leaf_count=20166 312 896 560 4437
internal_value=0.00512455 0.00539433 0.0166189 0.00470701
internal_weight=7984.76 7897.58 454.358 7443.22
internal_count=26371 26059 1456 24603
is_linear=0
shrinkage=0.05


Tree=29
num_leaves=5
num_cat=0
split_feature=16 16 5 24
split_gain=18.9231 21.981 20.2258 17.78
threshold=0.0059151342138648042 0.0033532890956848864 32.884012222290046 0.24825246632099154
decision_type=2 2 2 2
left_child=1 3 -3 -1
right_child=-2 2 -4 -5
leaf_value=0.0033072962239521879 -0.018201669887462541 0.0069284443976985813 0.028367701135594843 0.0096048390494896801
leaf_weight=6070.0833026319742 86.960059925913811 267.53394289314747 186.90730646252632 1374.3208509087563
leaf_count=20166 312 879 577 4437
internal_value=0.00486785 0.0051241 0.0157891 0.00447103
internal_weight=7985.81 7898.85 454.441 7444.4
internal_count=26371 26059 1456 24603
is_linear=0
shrinkage=0.05


Tree=30
num_leaves=7
num_cat=0
split_feature=27 22 30 27 27 2
split_gain=24.461 23.199 21.9473 20.5315 21.8472 20.807
threshold=0.28499999642372137 -0.52190825343132008 0.085000000894069686 0.33500000834465032 0.38499999046325689 4.4323506355285653
decision_type=2 2 2 2 2 2
left_child=1 -1 -3 5 -5 -2
right_child=3 2 -4 4 -6 -7
leaf_value=0.018694443633923551 -0.019797737950566219 -0.0041516186351731555 0.011283955816353783 0.017678554444419365 0.0032316881293520863 0.0081556192737482509
leaf_weight=533.74066925048828 184.37079335749149 357.0138583779335 645.61803990602493 272.89183373749256 5909.6670533716679 103.17037056386471
leaf_count=1704 641 1194 2094 874 19594 336
internal_value=0.00461192 0.0102817 0.00578905 0.00326422 0.00387211 -0.00977451
internal_weight=8006.47 1536.37 1002.63 6470.1 6182.56 287.541
internal_count=26437 4992 3288 21445 20468 977
is_linear=0
shrinkage=0.05


Tree=31
num_leaves=7
num_cat=0
split_feature=27 23 15 12 12 23
split_gain=22.4919 29.6506 19.058 14.6452 33.7125 20.5573
threshold=0.054999999701976783 -0.77296444773674 1.2576127648353579 0.00047628310858272021 0.00058211799478158366 -0.9686339497566222
decision_type=2 2 2 2 2 2
left_child=1 -1 -3 5 -5 -2
right_child=3 2 -4 4 -6 -7
leaf_value=-0.0040424898666602269 -0.002562800847355837 0.011410680194039777 0.038190040285918644 -0.0050299732986677885 0.0046883455682169084 0.008057680046176895
leaf_weight=125.11174465715885 545.9475576877594 128.80597978830338 138.90880005061626 1256.7195827066898 3071.5207113772631 2740.872239023447
leaf_count=419 1833 416 420 4244 10169 8936
internal_value=0.00438071 0.0160337 0.0253961 0.00377756 0.00186609 0.00629335
internal_weight=8007.89 392.827 267.715 7615.06 4328.24 3286.82
internal_count=26437 1255 836 25182 14413 10769
is_linear=0
shrinkage=0.05


Tree=32
num_leaves=7
num_cat=0
split_feature=27 29 29 26 26 27
split_gain=20.668 21.393 40.6248 28.7806 20.7667 23.8986
threshold=0.28499999642372137 67.475681304931655 69.857227325439467 68.466758728027358 32.58197212219239 0.33500000834465032
decision_type=2 2 2 2 2 2
left_child=1 3 -3 -1 -2 -6
right_child=4 2 -4 -5 5 -7
leaf_value=0.0090213006271196525 -0.00850575633648047 -0.034504553239044972 0.018186966327105047 0.034305023617627432 -0.010909609774087319 0.0042977514289783683
leaf_weight=1269.623371809721 373.57570478320122 74.130138635635376 70.399961248040199 122.73135069012642 269.38997934758663 5828.8352120816708
leaf_count=4129 1285 264 224 375 918 19242
internal_value=0.00416156 0.00937229 -0.00889014 0.011273 0.00292289 0.00362429
internal_weight=8008.69 1536.88 144.53 1392.35 6471.8 6098.23
internal_count=26437 4992 488 4504 21445 20160
is_linear=0
shrinkage=0.05


Tree=33
num_leaves=7
num_cat=0
split_feature=27 23 15 5 2 18
split_gain=19.6973 26.3603 17.2991 14.2352 13.3297 28.2762
threshold=0.054999999701976783 -0.77296444773674 1.2576127648353579 21.395409584045414 8.7267990112304705 8.5993623733520526
decision_type=2 2 2 2 2 2
left_child=1 3 -3 -1 5 -2
right_child=4 2 -4 -5 -6 -7
leaf_value=-0.021623719556486558 0.00318847622183722 0.010377802954073175 0.035890154822145352 0.011889841820476461 0.011003502693682599 -0.023794526176719007
leaf_weight=59.398301273584366 6985.8618654310703 128.82862503826618 138.75283765792847 65.716671258211136 533.52951614558697 97.470847010612488
leaf_count=207 23115 416 420 212 1725 342
internal_value=0.00395308 0.0148599 0.0236915 -0.00406601 0.00338889 0.00281387
internal_weight=8009.56 392.696 267.581 125.115 7616.86 7083.33
internal_count=26437 1255 836 419 25182 23457
is_linear=0
shrinkage=0.05


Tree=34
num_leaves=6
num_cat=0
split_feature=27 21 9 16 60
split_gain=18.2764 21.7517 21.8394 20.1391 26.3014
threshold=0.65500000119209301 0.22383860498666766 -0.048638582229614251 0.0054763057269155988 40.500000000000007
decision_type=2 2 2 2 2
left_child=1 -1 -3 4 -2
right_child=3 2 -4 -5 -6
leaf_value=0.028240001520852459 0.0060545825694353558 -0.018363025821538915 0.006172905380215428 -0.020120086558137629 -0.002045886056792907
leaf_weight=107.95343844592571 1999.1708010882139 92.026428461074829 3699.0605175793171 104.64758782088757 2007.3690405786037
leaf_count=332 6576 319 12117 374 6719
internal_value=0.00375528 0.0062073 0.00557262 0.00142884 0.00199656
internal_weight=8010.23 3899.04 3791.09 4111.19 4006.54
internal_count=26437 12768 12436 13669 13295
is_linear=0
shrinkage=0.05


Tree=35
num_leaves=7
num_cat=0
split_feature=34 7 57 27 46 6
split_gain=17.1095 20.9608 19.004 13.9366 8.77369 3.75459
threshold=1.5000000000000002 48.219331741333015 1.0991783738136294 0.064999999478459372 -0.065827816724777208 0.44610664248466497
decision_type=2 2 2 2 2 2
left_child=4 2 -2 -3 -1 -6
right_child=1 3 -4 -5 5 -7
leaf_value=0.0029284704498497992 -0.0013095326801590328 0.012876913269270497 -0.031035641885641691 0.00282864613119739 0.016383705828625219 0.032689569627636972
leaf_weight=76.251997098326683 151.83075420558453 361.58940209448338 82.324229910969734 7189.6340261250734 83.183162018656731 66.355643153190613
leaf_count=252 509 1158 295 23777 264 202
internal_value=0.0032488 0.00285404 -0.0118482 0.00331145 0.0167877 0.0237883
internal_weight=8011.17 7785.38 234.155 7551.22 225.791 149.539
internal_count=26457 25739 804 24935 718 466
is_linear=0
shrinkage=0.05


Tree=36
num_leaves=6
num_cat=0
split_feature=10 34 7 16 45
split_gain=21.5555 16.4131 18.4 13.4843 5.2829
threshold=0.53563478589057933 1.5000000000000002 48.219331741333015 0.0016450778348371389 0.17513237893581393
decision_type=2 2 2 2 2
left_child=1 4 -3 -2 -1
right_child=3 2 -4 -5 -6
leaf_value=0.010422210387971538 0.036978032274319075 -0.011472002757499716 0.0027532501226359418 0.0080674880795519304 0.026694368808646715
leaf_weight=149.98860327899456 72.321376502513885 233.56326901912689 7388.699977517128 91.275228589773178 75.645506486296654
leaf_count=483 220 803 24418 298 235
internal_value=0.00308645 0.0027105 0.00231591 0.020995 0.0159713
internal_weight=8011.49 7847.9 7622.26 163.597 225.634
internal_count=26457 25939 25221 518 718
is_linear=0
shrinkage=0.05


Tree=37
num_leaves=7
num_cat=0
split_feature=34 7 24 14 46 21
split_gain=14.0023 17.6761 25.6551 18.7586 7.96159 4.23567
threshold=1.5000000000000002 56.056573867797859 0.4904943853616715 0.00060242885956540715 -0.065827816724777208 0.91258555650711071
decision_type=2 2 2 2 2 2
left_child=4 3 -3 -2 -1 -6
right_child=1 2 -4 -5 5 -7
leaf_value=0.0020052328532534597 0.016861906953306076 0.0029370564396362093 0.014368097632567613 -0.0025321843986700694 0.029727975195171109 0.012584899807346362
leaf_weight=76.289675325155258 132.02061630785465 5123.4454658180475 541.99041956663132 1988.9116818457842 79.62065726518631 69.631098300218582
leaf_count=252 423 16917 1721 6678 244 222
internal_value=0.00293242 0.00257554 0.00403296 -0.00131759 0.0151873 0.0218671
internal_weight=8011.91 7786.37 5665.44 2120.93 225.541 149.252
internal_count=26457 25739 18638 7101 718 466
is_linear=0
shrinkage=0.05


Tree=38
num_leaves=6
num_cat=0
split_feature=10 28 18 18 18
split_gain=19.3684 12.3345 32.1847 27.8883 11.7797
threshold=0.53563478589057933 -1.0000000180025095e-35 4.6113653182983407 5.7382385730743417 7.0356247425079355
decision_type=2 2 2 2 2
left_child=1 3 -3 -1 -2
right_child=4 2 -4 -5 -6
leaf_value=0.0077320669412696179 0.030440520747517782 -0.0018145549714044481 0.0062251995759305193 -0.0066157025078346539 0.0029513788290455672
leaf_weight=2051.7253992855549 99.539758116006851 3442.8845725804567 1948.5021856576204 404.80464901030064 64.022582992911339
leaf_count=6689 308 11512 6379 1359 210
internal_value=0.00278646 0.00243015 0.00109171 0.00536601 0.0197639
internal_weight=8011.48 7847.92 5391.39 2456.53 163.562
internal_count=26457 25939 17891 8048 518
is_linear=0
shrinkage=0.05


Tree=39
num_leaves=5
num_cat=0
split_feature=14 5 68 27
split_gain=13.1653 14.4906 40.6087 14.7905
threshold=0.011109737679362299 24.346356391906742 0.7749999761581422 0.054999999701976783
decision_type=2 2 2 2
left_child=1 2 -1 -3
right_child=-2 3 -4 -5
leaf_value=0.0013943282504091294 -0.016174007244072221 0.019393163793603563 -0.034382981023889952 0.0042915653166465039
leaf_weight=3703.433835119009 90.870272129774094 168.15238383412361 80.048509955406189 3969.3272197544575
leaf_count=12289 318 529 285 13036
internal_value=0.00264724 0.00286518 0.000628489 0.00490985
internal_weight=8011.83 7920.96 3783.48 4137.48
internal_count=26457 26139 12574 13565
is_linear=0
shrinkage=0.05


Tree=40
num_leaves=7
num_cat=0
split_feature=30 30 21 26 12 30
split_gain=20.4323 32.1087 32.5569 23.9076 23.8692 32.9757
threshold=0.72500002384185802 0.78499999642372142 0.8052511215209962 60.345039367675788 0.00049741906695999216 0.12499999627470972
decision_type=2 2 2 2 2 2
left_child=4 2 -2 -3 -1 -6
right_child=1 3 -4 -5 5 -7
leaf_value=0.004482405483673119 0.033987439242818336 -0.00036516588686960031 0.0043655249602614693 0.012470514358908644 0.007978847873405942 -0.0048872415959586128
leaf_weight=3271.3614997565746 204.98389922082424 989.31810499727726 169.3607946485281 571.77566795051098 651.89802215993404 2098.6814338117838
leaf_count=10719 631 3306 557 1842 2130 7063
internal_value=0.00303347 0.00750127 0.0206332 0.00434108 0.00159652 -0.00183614
internal_weight=7957.38 1935.44 374.345 1561.09 6021.94 2750.58
internal_count=26248 6336 1188 5148 19912 9193
is_linear=0
shrinkage=0.05


Tree=41
num_leaves=5
num_cat=0
split_feature=16 21 5 28
split_gain=18.1883 16.8238 24.9272 15.1284
threshold=0.0059151342138648042 0.27707591652870184 26.089123725891117 -1.0000000180025095e-35
decision_type=2 2 2 2
left_child=1 2 -1 -3
right_child=-2 3 -4 -5
leaf_value=0.00082690551291401569 -0.01970072083150189 0.005982958789028746 0.026560704368652845 0.0011172011876783054
leaf_weight=191.99686455726624 87.192575365304947 2307.8306857347488 183.68937261402607 5186.8342613726854
leaf_count=631 315 7538 568 17196
internal_value=0.00288207 0.00313473 0.0134464 0.00261611
internal_weight=7957.54 7870.35 375.686 7494.66
internal_count=26248 25933 1199 24734
is_linear=0
shrinkage=0.05


Tree=42
num_leaves=7
num_cat=0
split_feature=30 27 27 60 27 7
split_gain=18.2951 31.1119 30.6081 24.6723 23.9318 21.8704
threshold=0.72500002384185802 0.66500002145767223 0.17500000447034839 67.500000000000014 0.69499999284744274 46.611707687377937
decision_type=2 2 2 2 2 2
left_child=1 5 -2 -4 -3 -1
right_child=2 4 3 -5 -6 -7
leaf_value=-0.016522942956569205 0.039483435307531185 -0.01986359694657212 0.011318209861896751 -0.00018059448139794862 -0.0013483303322969623 0.0053530582025818167
leaf_weight=117.47691713273525 68.788603708148003 186.75170624256134 961.80326578021049 904.89465026557446 2480.2754147201777 3237.2639398425817
leaf_count=407 208 646 3119 3009 8276 10583
internal_value=0.00273818 0.00137844 0.00696576 0.00574697 -0.00265177 0.0045823
internal_weight=7957.25 6021.77 1935.49 1866.7 2667.03 3354.74
internal_count=26248 19912 6336 6128 8922 10990
is_linear=0
shrinkage=0.05


Tree=43
num_leaves=7
num_cat=0
split_feature=30 30 21 27 21 29
split_gain=16.5166 28.6291 29.1207 28.0801 29.4366 21.7162
threshold=0.72500002384185802 0.78499999642372142 0.8052511215209962 0.66500002145767223 0.27707591652870184 51.378179550170906
decision_type=2 2 2 2 2 2
left_child=3 2 -2 4 -1 -5
right_child=1 -3 -4 5 -6 -7
leaf_value=0.027864027340249127 0.031643582601381053 0.003634063252204662 0.0036369120130317922 0.0019681249830248554 0.0034189486622732907 -0.0070531203635897924
leaf_weight=127.0707446038723 205.03742690384388 1561.2948683202267 169.42990778386593 1340.3811299949884 3227.7626141756773 1326.4091402739286
leaf_count=392 631 5148 557 4447 10598 4475
internal_value=0.00260131 0.00661779 0.0190152 0.00130926 0.00435288 -0.00251983
internal_weight=7957.39 1935.76 374.467 6021.62 3354.83 2666.79
internal_count=26248 6336 1188 19912 10990 8922
is_linear=0
shrinkage=0.05


Tree=44
num_leaves=7
num_cat=0
split_feature=10 30 27 27 23 12
split_gain=15.8366 16.5273 26.4411 25.2663 13.8821 8.7068
threshold=0.4834513664245606 0.72500002384185802 0.17500000447034839 0.66500002145767223 -0.49049438536167139 0.00059039785992354165
decision_type=2 2 2 2 2 2
left_child=1 3 -3 -1 5 -2
right_child=4 2 -4 -5 -6 -7
leaf_value=0.0036523792965693479 0.029175647785991202 0.03710948074979447 0.0049873556106766496 -0.0029891221675749078 -0.0047306775258626529 0.0087856327824990203
leaf_weight=3246.0751195698977 120.98522441089153 65.470911115407944 1796.2118619382381 2560.8782016932964 73.66064141690731 93.81045463681221
leaf_count=10647 374 198 5898 8580 246 305
internal_value=0.00247177 0.00203814 0.00613633 0.000723453 0.013953 0.0203524
internal_weight=7957.09 7668.64 1861.68 5806.95 288.456 214.796
internal_count=26248 25323 6096 19227 925 679
is_linear=0
shrinkage=0.05


Tree=45
num_leaves=7
num_cat=0
split_feature=12 12 23 30 26 38
split_gain=15.4816 22.7922 22.1222 19.7036 18.2523 18.1741
threshold=0.00049953549751080583 0.00056924181990325462 -0.96298784017562855 0.054999999701976783 63.866512298583991 3.5839847326278691
decision_type=2 2 2 2 2 2
left_child=2 5 -1 -3 -4 -2
right_child=1 3 4 -5 -6 -7
leaf_value=-0.0045699413199807 0.00063722238336821663 0.015061239046352946 0.0036584613441994632 0.00050743575007277904 0.012297109940665902 -0.014254947388582771
leaf_weight=612.87810333073139 368.36641661822796 251.57045303285122 2512.3031234294176 2936.1995773166418 807.82286475598812 460.34988984465599
leaf_count=2055 1227 808 8237 9760 2585 1576
internal_value=0.00192302 -0.000260533 0.00415242 0.00166035 0.00576341 -0.00764255
internal_weight=7949.49 4016.49 3933 3187.77 3320.13 828.716
internal_count=26248 13371 12877 10568 10822 2803
is_linear=0
shrinkage=0.05


Tree=46
num_leaves=7
num_cat=0
split_feature=7 18 46 16 12 30
split_gain=15.0596 15.9399 21.4146 17.6189 14.4226 10.3869
threshold=46.611707687377937 1.9384667277336123 -0.55842545628547657 0.0018086662748828532 0.00026243412867188459 0.27500000596046453
decision_type=2 2 2 2 2 2
left_child=4 3 -3 -2 -1 -6
right_child=1 2 -4 -5 5 -7
leaf_value=0.0092840862494562252 0.016032835775753717 -0.0097066803507145291 0.0022622213607621754 -0.0081050654085022943 -0.036080246017464145 -0.0090856704787781115
leaf_weight=60.182006314396858 371.55306090414524 394.20616081357002 6877.875831335783 94.181045606732368 57.449035361409187 93.779529556632042
leaf_count=197 1189 1338 22677 319 208 320
internal_value=0.001827 0.00218729 0.00161216 0.0111447 -0.0113082 -0.0195101
internal_weight=7949.23 7737.82 7272.08 465.734 211.411 151.229
internal_count=26248 25523 24015 1508 725 528
is_linear=0
shrinkage=0.05


Tree=47
num_leaves=4
num_cat=0
split_feature=56 14 7
split_gain=13.8805 13.7047 13.0217
threshold=1.0000000180025095e-35 0.011109737679362299 46.611707687377937
decision_type=2 2 2
left_child=-1 2 -2
right_child=1 -3 -4
leaf_value=0.01986404155236942 -0.010518748684252377 -0.018043606166809154 0.002060326859613458
leaf_weight=103.21020948886871 210.52077947556973 87.745420858263969 7547.7842857688665
leaf_count=325 722 309 24892
internal_value=0.00173539 0.00149441 0.00171768
internal_weight=7949.26 7846.05 7758.31
internal_count=26248 25923 25614
is_linear=0
shrinkage=0.05


Tree=48
num_leaves=7
num_cat=0
split_feature=12 12 23 65 27 38
split_gain=13.7049 20.8843 20.3219 18.3833 18.1543 16.4575
threshold=0.00049953549751080583 0.00056924181990325462 -0.96298784017562855 -12.595706462860106 0.73500001430511486 3.5839847326278691
decision_type=2 2 2 2 2 2
left_child=2 5 4 -3 -1 -2
right_child=1 3 -4 -5 -6 -7
leaf_value=-0.011551710755033645 0.00040564064329893373 -0.013695828559461526 0.0052908652291983067 0.0023847731909162912 0.0060254532357877201 -0.013767237838044642
leaf_weight=370.89702874422073 368.39710995554924 187.92620484530926 3319.4738251715899 3000.1011423319578 241.9990009367466 460.16260354220867
leaf_count=1260 1227 642 10822 9926 795 1576
internal_value=0.00164865 -0.000405629 0.00374649 0.00143286 -0.00461294 -0.00747275
internal_weight=7948.96 4016.59 3932.37 3188.03 612.896 828.56
internal_count=26248 13371 12877 10568 2055 2803
is_linear=0
shrinkage=0.05


Tree=49
num_leaves=7
num_cat=0
split_feature=46 57 2 34 29 26
split_gain=12.8672 27.9162 25.2978 15.5296 17.3462 7.43917
threshold=-0.55842545628547657 0.84700006246566784 -0.25857904553413386 2.5000000000000004 47.445051193237312 42.364601135253913
decision_type=2 2 2 2 2 2
left_child=1 -1 -3 5 -5 -2
right_child=3 2 -4 4 -6 -7
leaf_value=0.026181617453913404 -0.00075733569011641631 0.0032416605195632431 -0.018798100938590835 -0.0015147171892296845 0.0035955375274485122 0.017909048643686247
leaf_weight=61.160970002412796 70.143489748239517 229.4411948621273 299.24013593792915 2665.2931266129017 4402.2039751559496 221.23708160221577
leaf_count=192 232 763 1035 8875 14452 699
internal_value=0.00156608 -0.00553355 -0.00924505 0.00213582 0.00166842 0.0134283
internal_weight=7948.72 589.842 528.681 7358.88 7067.5 291.381
internal_count=26248 1990 1798 24258 23327 931
is_linear=0
shrinkage=0.05


end of trees

feature_importances:
Column_27=23
Column_24=21
Column_16=18
Column_12=17
Column_30=17
Column_5=13
Column_60=12
Column_21=11
Column_26=11
Column_0=10
Column_2=9
Column_7=9
Column_28=9
Column_29=9
Column_8=7
Column_23=7
Column_34=7
Column_47=7
Column_46=6
Column_1=5
Column_18=5
Column_6=4
Column_15=4
Column_38=4
Column_65=4
Column_10=3
Column_13=3
Column_14=3
Column_69=3
Column_3=2
Column_9=2
Column_17=2
Column_44=2
Column_45=2
Column_57=2
Column_22=1
Column_56=1
Column_68=1

parameters:
[boosting: gbdt]
[objective: binary]
[metric: binary_logloss]
[tree_learner: serial]
[device_type: cpu]
[data_sample_strategy: bagging]
[data: ]
[valid: ]
[num_iterations: 50]
[learning_rate: 0.05]
[num_leaves: 7]
[num_threads: -1]
[seed: 42]
[deterministic: 0]
[force_col_wise: 0]
[force_row_wise: 0]
[histogram_pool_size: -1]
[max_depth: 3]
[min_data_in_leaf: 200]
[min_sum_hessian_in_leaf: 0.001]
[bagging_fraction: 0.8]
[pos_bagging_fraction: 1]
[neg_bagging_fraction: 1]
[bagging_freq: 5]
[bagging_seed: 400]
[bagging_by_query: 0]
[feature_fraction: 0.8]
[feature_fraction_bynode: 1]
[feature_fraction_seed: 30056]
[extra_trees: 0]
[extra_seed: 12879]
[early_stopping_round: 0]
[early_stopping_min_delta: 0]
[first_metric_only: 0]
[max_delta_step: 0]
[lambda_l1: 0]
[lambda_l2: 1]
[linear_lambda: 0]
[min_gain_to_split: 0]
[drop_rate: 0.1]
[max_drop: 50]
[skip_drop: 0.5]
[xgboost_dart_mode: 0]
[uniform_drop: 0]
[drop_seed: 17869]
[top_rate: 0.2]
[other_rate: 0.1]
[min_data_per_group: 100]
[max_cat_threshold: 32]
[cat_l2: 10]
[cat_smooth: 10]
[max_cat_to_onehot: 4]
[top_k: 20]
[monotone_constraints: ]
[monotone_constraints_method: basic]
[monotone_penalty: 0]
[feature_contri: ]
[forcedsplits_filename: ]
[refit_decay_rate: 0.9]
[cegb_tradeoff: 1]
[cegb_penalty_split: 0]
[cegb_penalty_feature_lazy: ]
[cegb_penalty_feature_coupled: ]
[path_smooth: 0]
[interaction_constraints: ]
[verbosity: -1]
[saved_feature_importance_type: 0]
[use_quantized_grad: 0]
[num_grad_quant_bins: 4]
[quant_train_renew_leaf: 0]
[stochastic_rounding: 1]
[linear_tree: 0]
[max_bin: 255]
[max_bin_by_feature: ]
[min_data_in_bin: 3]
[bin_construct_sample_cnt: 200000]
[data_random_seed: 175]
[is_enable_sparse: 1]
[enable_bundle: 1]
[use_missing: 1]
[zero_as_missing: 0]
[feature_pre_filter: 1]
[pre_partition: 0]
[two_round: 0]
[header: 0]
[label_column: ]
[weight_column: ]
[group_column: ]
[ignore_column: ]
[categorical_feature: ]
[forcedbins_filename: ]
[precise_float_parser: 0]
[parser_config_file: ]
[objective_seed: 16083]
[num_class: 1]
[is_unbalance: 1]
[scale_pos_weight: 1]
[sigmoid: 1]
[boost_from_average: 1]
[reg_sqrt: 0]
[alpha: 0.9]
[fair_c: 1]
[poisson_max_delta_step: 0.7]
[tweedie_variance_power: 1.5]
[lambdarank_truncation_level: 30]
[lambdarank_norm: 1]
[label_gain: ]
[lambdarank_position_bias_regularization: 0]
[eval_at: ]
[multi_error_top_k: 1]
[auc_mu_weights: ]
[num_machines: 1]
[local_listen_port: 12400]
[time_out: 120]
[machine_list_filename: ]
[machines: ]
[gpu_platform_id: -1]
[gpu_device_id: -1]
[gpu_use_dp: 0]
[num_gpu: 1]

end of parameters

pandas_categorical:null
