tree
version=v4
num_class=1
num_tree_per_iteration=1
label_index=0
max_feature_idx=78
objective=binary sigmoid:1
feature_names=ema_20_dist_atr ema_50_dist_atr ema_200_dist_atr ema_20_slope_atr ema_alignment adx_14 adx_slope rsi_14 stoch_rsi_k roc_10 macd_hist_atr momentum_composite atr_pct atr_percentile_100 bb_width_pct vol_compression realized_vol_20 dist_to_swing_high_atr dist_to_swing_low_atr bos_bullish bos_bearish rvol_20 volume_z_score hour_sin hour_cos htf_1h_ema_alignment htf_1h_rsi_14 htf_1h_atr_percentile_100 htf_4h_ema_alignment htf_4h_rsi_14 htf_4h_atr_percentile_100 vix_level dxy_level tnx_level vix_chg_5d dxy_chg_5d tnx_chg_5d sweep_up_recent sweep_down_recent bars_since_sweep_up bars_since_sweep_down eqhigh_present eqlow_present dist_to_sh_atr_conf dist_to_sl_atr_conf bos_up_strict bos_down_strict choch_to_down choch_to_up fvg_bull_active fvg_bear_active dist_to_bull_fvg_atr dist_to_bear_fvg_atr fvg_bull_size_atr fvg_bear_size_atr in_asia in_london in_ny in_london_ny_killzone in_asia_london_overlap in_us_open_killzone in_london_open_killzone is_fx_market_open vol_expansion_ratio vol_expanding vol_contracting bars_since_vol_spike htf_ltf_agree_bull htf_ltf_agree_bear htf_ltf_counter_trend htf_ltf_alignment_score ltf_rsi_minus_htf_rsi both_rsi_oversold both_rsi_overbought vol_pct_diff_htf both_high_vol both_low_vol pullback_in_bull pullback_in_bear
feature_infos=[-5.5127582550048828:4.0490446090698242] [-10.085868835449219:7.5655035972595215] [-30.768619537353516:36.503288269042969] [-3.2574589252471924:2.9093625545501709] [-1:1] [5.5094609260559082:81.313346862792969] [-18.453226089477539:17.200822830200195] [18.989833831787109:81.803977966308594] [0:100] [-1.6856030225753784:1.940348744392395] [-0.92468267679214478:0.88806843757629395] [-1.3380721807479858:1.2063440084457397] [5.3541363740805537e-05:0.0053712856024503708] [0.0099999997764825821:1] [0.00013045140076428652:0.036956813186407089] [0.14477820694446564:4.3122444152832031] [0.00010977884085150436:0.026518648490309715] [0:19.836071014404297] [0:15.595243453979492] none none [0.00042371320887468755:17.219120025634766] [-2.9811215400695801:6.7108163833618164] [-1:1] [-1:1] [-1:1] [8.6612472534179688:95.583778381347656] [0.0099999997764825821:1] [-1:1] [11.015850067138672:91.616798400878906] [0.0099999997764825821:1] [12.069999694824219:82.69000244140625] [89.44000244140625:114.11000061035156] [0.49900001287460327:4.9879999160766602] [-0.39060971140861511:1.5167094469070435] [-0.043279487639665604:0.054273117333650589] [-0.54136031866073608:0.54390251636505127] [0:1] [0:1] [0:99] [0:99] [0:1] [0:1] [-17.933834075927734:33.702381134033203] [-14.297062873840332:29.619354248046875] [0:1] [0:1] [0:1] [0:1] none none [-1.9437326192855835:5.5426149368286133] [-6.5018739700317383:2.5457816123962402] [0.061792779713869095:8.66473388671875] [0.031184354797005653:13.334775924682617] [0:1] [0:1] [0:1] [0:1] [0:1] [0:1] [0:1] [0:1] [0.32379686832427979:4.4026780128479004] [0:1] [0:1] [0:99] [0:1] [0:1] [0:1] [-1:1] [-51.737995147705078:49.218334197998047] [0:1] [0:1] [-0.99000000953674316:0.99000000953674316] [0:1] [0:1] [0:1] [0:1]
tree_sizes=898 904 900 901 901 901 902 898 903 906 911 904 907 908 800 906 906 897 908 908 898 908 897 801 912 911 901 908 907 799 907 906 794 908 904 897 910 912 905 906 905 916 915 909 904 801 802 906 906 907 920 912 905 904 908 917 905 916 908 899 908 912 907 906 904 899 913 904 916 909 911 920 921 923 916 900 894 904 919 912 912 911 912 902 910 917 915 915 922 917 694 909 698 797 905 920 697 908 919 702

Tree=0
num_leaves=7
num_cat=0
split_feature=57 24 24 0 12 26
split_gain=101.292 66.6903 195.849 123.772 46.9009 41.0866
threshold=1.0000000180025095e-35 0.69930991530418407 0.56457334756851207 0.15383033454418185 0.00021317013306543234 30.933714866638187
decision_type=2 2 2 2 2 2
left_child=4 2 -2 -3 -1 -6
right_child=1 3 -4 -5 5 -7
leaf_value=-0.41431641778577061 -0.4266281831379572 -0.40526562343693728 -0.45324480975874892 -0.43989605376333085 -0.43300299347106724 -0.42127598991988924
leaf_weight=2348.0281681120396 7346.9911633431911 801.24967670440674 762.39509603381157 380.97939866781235 805.15453237295151 11027.57139056921
leaf_count=7937 25487 2656 2791 1358 2830 37830
internal_value=-0.423447 -0.427509 -0.429131 -0.41641 -0.420786 -0.422073
internal_weight=23472.4 9291.62 8109.39 1182.23 14180.8 11832.7
internal_count=80889 32292 28278 4014 48597 40660
is_linear=0
shrinkage=1


Tree=1
num_leaves=7
num_cat=0
split_feature=23 24 12 29 71 0
split_gain=171.006 156.104 61.3331 57.7161 43.6931 40.0401
threshold=-0.71473535895347584 0.56457334756851207 0.00021978298173053193 50.861791610717781 -20.071352005004879 -0.060443259775638573
decision_type=2 2 2 2 2 2
left_child=1 3 -2 -1 -4 -3
right_child=2 5 4 -5 -6 -7
leaf_value=0.012568797050998094 0.030957187783007323 0.0058695007549347481 0.034550883118512808 0.022664473296255296 0.022350376648728826 -0.01709577747117012
leaf_weight=2803.6268779933453 2952.0510607361794 353.87237730622292 779.25839863717556 2870.1520598232746 13421.789013758302 407.38447487354279
leaf_count=9810 9901 1266 2598 9834 45955 1525
internal_value=0.0217815 0.0148267 0.0243896 0.0176789 0.0230222 -0.00642661
internal_weight=23588.1 6435.04 17153.1 5673.78 14201 761.257
internal_count=80889 22435 58454 19644 48553 2791
is_linear=0
shrinkage=0.05


Tree=2
num_leaves=7
num_cat=0
split_feature=23 24 12 17 30 26
split_gain=152.428 140.416 54.5166 54.0467 49.3439 40.3915
threshold=-0.71473535895347584 0.50938662886619579 0.00021978298173053193 2.6648092269897465 0.85500001907348644 30.933714866638187
decision_type=2 2 2 2 2 2
left_child=1 3 -2 -1 -3 -4
right_child=2 4 5 -5 -6 -7
leaf_value=0.021159824296219116 0.029226141023348241 0.0034143925677170063 0.012225094420908073 0.010787266998375011 -0.021941698969618974 0.0225106288620322
leaf_weight=3391.774510204792 2970.129362180829 812.78301940858364 1032.8904763460159 1999.9338085651398 250.08356064558029 13234.493176072836
leaf_count=11592 9901 2915 3596 6985 943 44957
internal_value=0.0205992 0.0140413 0.0230538 0.0173151 -0.0025667 0.0217669
internal_weight=23692.1 6454.57 17237.5 5391.71 1062.87 14267.4
internal_count=80889 22435 58454 18577 3858 48553
is_linear=0
shrinkage=0.05


Tree=3
num_leaves=7
num_cat=0
split_feature=23 24 31 7 16 71
split_gain=136.083 128.248 56.0393 52.1598 41.5111 38.3906
threshold=-0.71473535895347584 0.56457334756851207 13.675000190734865 50.753530502319343 0.00049119937466457497 -20.071352005004879
decision_type=2 2 2 2 2 2
left_child=1 2 -1 -3 -2 -6
right_child=4 3 -4 -5 5 -7
leaf_value=-0.0057092943580688438 0.031225843342118816 0.0057063869126994992 0.017003071376483211 -0.020632299913340087 0.031366308608370121 0.020579036744645219
leaf_weight=285.4305280148983 1098.3544153124094 422.58496880531311 5427.2763211280107 337.09573401510715 874.94948767125607 15339.7240665555
leaf_count=1026 3613 1513 18618 1278 2884 51957
internal_value=0.0194903 0.0133012 0.0158675 -0.00599273 0.0218032 0.021163
internal_weight=23785.4 6472.39 5712.71 759.681 17313 16214.7
internal_count=80889 22435 19644 2791 58454 54841
is_linear=0
shrinkage=0.05


Tree=4
num_leaves=7
num_cat=0
split_feature=57 29 26 21 24 35
split_gain=62.6053 55.7294 62.4819 37.6914 34.0842 44.3919
threshold=1.0000000180025095e-35 50.861791610717781 37.84033393859864 0.18301559984683993 -0.89194178581237782 0.022604333236813549
decision_type=2 2 2 2 2 2
left_child=4 2 -2 -3 -1 -6
right_child=1 3 -4 -5 5 -7
leaf_value=0.015181107197217653 0.019319846271353663 0.036739816267484661 0.0071658389647422625 0.017955086526050063 0.022095165438721462 0.0017813431248577625
leaf_weight=2488.5845529586077 1620.2398626804352 284.16842959821224 3046.9958265125751 4469.697090357542 11684.011367633939 275.46631126105785
leaf_count=8476 5513 925 10634 15220 39156 965
internal_value=0.018449 0.0152739 0.0113884 0.0190855 0.0205182 0.0216275
internal_weight=23869.2 9421.1 4667.24 4753.87 14448.1 11959.5
internal_count=80889 32292 16147 16145 48597 40121
is_linear=0
shrinkage=0.05


Tree=5
num_leaves=7
num_cat=0
split_feature=23 24 36 18 0 21
split_gain=118.857 124.952 47.4581 47.1221 37.1893 68.2871
threshold=-0.71473535895347584 0.60003554821014415 -0.035171328112483018 2.1020898818969731 -0.33195275068283076 0.32076054811477667
decision_type=2 2 2 2 2 2
left_child=1 2 -1 -3 5 -2
right_child=4 3 -4 -5 -6 -7
leaf_value=0.022160507358135378 0.042128087170745877 0.0065824540075645173 0.011437872409155605 -0.023241646531367025 0.018081463203742782 0.021415919528749782
leaf_weight=1327.9015363305807 432.44965925812721 222.60239368677139 4650.055237159133 324.70463190972805 12075.131970077753 5049.1935724169016
leaf_count=4470 1373 792 16009 1233 40611 16858
internal_value=0.0174944 0.0117294 0.013823 -0.0111216 0.0196363 0.0230573
internal_weight=24082 6525.26 5977.96 547.307 17556.8 5481.64
internal_count=81346 22504 20479 2025 58842 18231
is_linear=0
shrinkage=0.05


Tree=6
num_leaves=7
num_cat=0
split_feature=23 24 31 18 12 71
split_gain=106.483 112.507 44.2552 42.8248 38.4534 36.1112
threshold=-0.71473535895347584 0.60003554821014415 13.675000190734865 2.1020898818969731 0.00021978298173053193 -19.667103767395016
decision_type=2 2 2 2 2 2
left_child=1 2 -1 -3 -2 -6
right_child=4 3 -4 -5 5 -7
leaf_value=-0.005535554073034521 0.023720359669291688 0.0062457625804985678 0.014089040533283775 -0.022205186048170913 0.027543372695515933 0.016903885922026636
leaf_weight=302.04362797737122 3036.8160230815411 222.91776117682457 5690.5539820194244 322.95969812572002 848.76944798231125 13726.192435503006
leaf_count=1079 9971 792 19400 1233 2766 46105
internal_value=0.0165715 0.0111195 0.0130991 -0.0105966 0.0185948 0.0175253
internal_weight=24150.3 6538.48 5992.6 545.877 17611.8 14575
internal_count=81346 22504 20479 2025 58842 48871
is_linear=0
shrinkage=0.05


Tree=7
num_leaves=7
num_cat=0
split_feature=23 24 17 7 44 51
split_gain=95.4899 101.325 43.8024 36.9382 36.3735 36.1725
threshold=-0.71473535895347584 0.60003554821014415 2.6535550355911259 50.335521697998054 10.166179180145265 0.38996516168117529
decision_type=2 2 2 2 2 2
left_child=1 2 -1 -3 5 -2
right_child=4 3 -4 -5 -6 -7
leaf_value=0.015725403764523468 0.021704387499713887 0.0021789759145284778 0.0069021329896442165 -0.023880875933623383 -0.01257426496594416 0.016466181890098318
leaf_weight=3751.9700738191605 4418.116679251194 288.42304371297359 2253.9615080058575 256.01498098671436 98.557303994894028 13144.047036364675
leaf_count=12692 14578 1037 7787 988 350 43914
internal_value=0.0157023 0.0105434 0.0124158 -0.0100967 0.017615 0.0177851
internal_weight=24211.1 6550.37 6005.93 544.438 17660.7 17562.2
internal_count=81346 22504 20479 2025 58842 58492
is_linear=0
shrinkage=0.05


Tree=8
num_leaves=7
num_cat=0
split_feature=23 24 2 36 12 54
split_gain=85.6893 91.2795 46.1204 39.4883 34.3317 33.5647
threshold=-0.71473535895347584 0.60003554821014415 -6.2679831981658927 0.079102430492639556 0.00021978298173053193 1.8542246222496035
decision_type=2 2 2 2 2 2
left_child=1 2 -1 -3 5 -2
right_child=4 3 -4 -5 -6 -7
leaf_value=0.024094894611943554 0.020331675370101724 -0.014763398055909106 0.010212982945285561 0.025527978003493147 0.015683749636950271 0.044881479045099607
leaf_weight=673.64394709467888 2907.5742399990559 474.21926054358482 5344.487933292985 68.809651404619217 14651.074641153216 146.07550138235092
leaf_count=2235 9519 1786 18244 239 48871 452
internal_value=0.0148825 0.00999901 0.0117706 -0.00962036 0.0166916 0.0215204
internal_weight=24265.9 6561.16 6018.13 543.029 17704.7 3053.65
internal_count=81346 22504 20479 2025 58842 9971
is_linear=0
shrinkage=0.05


Tree=9
num_leaves=7
num_cat=0
split_feature=23 24 36 7 66 0
split_gain=76.9586 83.3145 46.0601 37.482 36.3185 44.1519
threshold=-0.71473535895347584 0.56457334756851207 -0.035171328112483018 50.335521697998054 24.500000000000004 -0.33195275068283076
decision_type=2 2 2 2 2 2
left_child=1 2 -1 -3 -2 -6
right_child=4 3 -4 -5 5 -7
leaf_value=0.019834938734937167 0.011869874564100186 0.0045132278334939525 0.0091345664321172432 -0.01767529711077508 0.021416962869342592 0.015190467847122219
leaf_weight=1294.7438286095858 4389.3698107749224 398.80419102311134 4515.0431291460991 362.53428956866264 4133.4853343367577 9220.9493326991796
leaf_count=4304 14699 1422 15395 1383 13514 30629
internal_value=0.0141092 0.00948429 0.0115222 -0.00606183 0.0158214 0.0171192
internal_weight=24314.9 6571.13 5809.79 761.338 17743.8 13354.4
internal_count=81346 22504 19699 2805 58842 44143
is_linear=0
shrinkage=0.05


Tree=10
num_leaves=7
num_cat=0
split_feature=57 29 36 27 16 30
split_gain=49.6906 47.2749 51.1348 39.996 38.1407 29.2659
threshold=1.0000000180025095e-35 50.021358489990241 -0.029826489277184006 0.84499999880790722 0.0064071251545101413 0.23499999940395358
decision_type=2 2 2 2 2 2
left_child=4 2 -2 -3 5 -1
right_child=1 3 -4 -5 -6 -7
leaf_value=0.018378224097447621 0.015372253008332788 0.016796512863163141 0.0033317042306194866 0.0073517197511589784 -0.018890395546124109 0.013575138119963436
leaf_weight=4678.9265620410442 1203.5942583978176 3331.3945970982313 3293.6368610709906 1692.7826397866011 82.124801903963089 9934.3222093582153
leaf_count=15363 4038 11119 11360 5770 293 32980
internal_value=0.0130991 0.010283 0.00655682 0.0136164 0.0149229 0.0151142
internal_weight=24216.8 9521.41 4497.23 5024.18 14695.4 14613.2
internal_count=80923 32287 15398 16889 48636 48343
is_linear=0
shrinkage=0.05


Tree=11
num_leaves=7
num_cat=0
split_feature=23 24 30 17 30 63
split_gain=76.9405 67.5356 43.6325 41.485 39.389 38.8589
threshold=-0.69930991530418385 0.47136868536472326 0.85500001907348644 2.6648092269897465 0.23499999940395358 0.77863651514053356
decision_type=2 2 2 2 2 2
left_child=1 3 -3 -1 5 -2
right_child=4 2 -4 -5 -6 -7
leaf_value=0.013697385190097701 0.030886535161172585 0.0027498305985472577 -0.018720867348158088 0.0046030286821333926 0.012555444823829021 0.016324678235216664
leaf_weight=3405.0191208124161 504.86789494752884 1010.3487067818642 307.91379933059216 1986.8882587403059 12016.236081138253 5025.072196289897
leaf_count=11404 1599 3570 1144 6816 39870 16520
internal_value=0.0124233 0.00786774 -0.00227559 0.0103476 0.014165 0.0176595
internal_weight=24256.3 6710.17 1318.26 5391.91 17546.2 5529.94
internal_count=80923 22934 4714 18220 57989 18119
is_linear=0
shrinkage=0.05


Tree=12
num_leaves=7
num_cat=0
split_feature=74 33 66 12 0 28
split_gain=41.6614 65.5065 42.5525 41.6947 34.7893 30.6268
threshold=-0.84499999880790699 1.2980000376701357 24.500000000000004 0.00021092400129418823 -0.35591760277748102 1.0000000180025095e-35
decision_type=2 2 2 2 2 2
left_child=1 -1 3 -2 -4 -3
right_child=2 5 4 -5 -6 -7
leaf_value=0.02493235432160508 0.029705608760860081 -0.011545769419985122 0.016824114557253991 0.0073647496925043692 0.011982336027565457 0.0071461832750423617
leaf_weight=253.1625010073185 217.01337067782879 528.03512114286423 5271.849368289113 5043.4400323778391 12604.029865115881 373.23887531459332
leaf_count=826 686 1874 17333 16954 41980 1270
internal_value=0.011785 0.00251258 0.0122476 0.00829186 0.0134111 -0.00380565
internal_weight=24290.8 1154.44 23136.3 5260.45 17875.9 901.274
internal_count=80923 3970 76953 17640 59313 3144
is_linear=0
shrinkage=0.05


Tree=13
num_leaves=7
num_cat=0
split_feature=23 24 15 30 30 71
split_gain=68.4692 60.4593 42.2116 38.793 35.2443 34.6814
threshold=-0.69930991530418385 0.47136868536472326 0.94325032830238353 0.85500001907348644 0.23499999940395358 -18.939424514770504
decision_type=2 2 2 2 2 2
left_child=1 2 -1 -3 -2 -6
right_child=4 3 -4 -5 5 -7
leaf_value=0.012668861855077332 0.016121106491278844 0.0020217661783901489 0.0035538230211003656 -0.018234692840111286 0.021286835815925619 0.010578136300365982
leaf_weight=3367.1384240686893 5546.9682359397411 1013.0139628201723 2040.7543932795525 307.22286723554134 810.88571347296238 11237.259037718177
leaf_count=11258 18119 3570 6962 1144 2608 37262
internal_value=0.0111805 0.00688889 0.00923045 -0.0027022 0.0128211 0.0113006
internal_weight=24323.2 6728.13 5407.89 1320.24 17595.1 12048.1
internal_count=80923 22934 18220 4714 57989 39870
is_linear=0
shrinkage=0.05


Tree=14
num_leaves=6
num_cat=0
split_feature=16 57 29 63 21
split_gain=37.3153 36.1608 38.6665 27.3812 22.9751
threshold=0.0064071251545101413 1.0000000180025095e-35 50.313512802124031 0.67615053057670604 0.90915411710739147
decision_type=2 2 2 2 2
left_child=1 3 -3 -1 -2
right_child=4 2 -4 -5 -6
leaf_value=0.023482284820862911 -0.028704323559934061 0.0050294786692648185 0.011425372899214399 0.011911266605401552 0.0071429146544959273
leaf_weight=530.63187712430954 95.575799360871315 4532.059013441205 4942.7782729566097 14167.120143592358 82.605432018637657
leaf_count=1696 348 15434 16520 46647 278
internal_value=0.0106092 0.0107774 0.00836691 0.0123306 -0.0121383
internal_weight=24350.8 24172.6 9474.84 14697.8 178.181
internal_count=80923 80297 31954 48343 626
is_linear=0
shrinkage=0.05


Tree=15
num_leaves=7
num_cat=0
split_feature=23 24 29 12 26 54
split_gain=49.1225 85.6725 48.6831 37.1674 37.5666 36.8445
threshold=-0.72982063889503468 0.56457334756851207 50.861791610717781 0.00021756553178420293 27.150714874267582 1.8542246222496035
decision_type=2 2 2 2 2 2
left_child=1 2 -1 5 -5 -2
right_child=3 -3 -4 4 -6 -7
leaf_value=0.0040807854528573185 0.015647355985832886 -0.009749623240232751 0.013276447799690026 -0.0016198646017688432 0.011319372340657318 0.041377921113725208
leaf_weight=2830.8220178186893 2868.0845298320055 700.49038453400135 2929.7110487520695 583.52369740605354 14351.176841408014 145.69474692642689
leaf_count=9643 9281 2585 9721 1988 47297 442
internal_value=0.0104914 0.00675117 0.00875904 0.0118374 0.0108137 0.0169046
internal_weight=24409.5 6461.02 5760.53 17948.5 14934.7 3013.78
internal_count=80957 21949 19364 59008 49285 9723
is_linear=0
shrinkage=0.05


Tree=16
num_leaves=7
num_cat=0
split_feature=23 24 2 12 54 7
split_gain=44.2453 77.2888 48.3476 33.5266 32.8996 31.4065
threshold=-0.72982063889503468 0.56457334756851207 -6.1579227447509757 0.00021092400129418823 1.8542246222496035 57.460729598999031
decision_type=2 2 2 2 2 2
left_child=1 2 -1 4 -2 -3
right_child=3 5 -4 -5 -6 -7
leaf_value=0.020986580093202423 0.015023502317721671 -0.0059299719247751983 0.0066568873231512811 0.010305118507962591 0.040099488095153464 -0.042840819068206769
leaf_weight=664.81385265290737 2660.6591414362192 636.54027797281742 5101.7255108952522 15168.733107700944 137.02743032574654 62.433971107006073
leaf_count=2173 8596 2334 17191 49998 414 251
internal_value=0.00995752 0.0064089 0.00831228 0.0112341 0.0162656 -0.00928343
internal_weight=24431.9 6465.51 5766.54 17966.4 2797.69 698.974
internal_count=80957 21949 19364 59008 9010 2585
is_linear=0
shrinkage=0.05


Tree=17
num_leaves=7
num_cat=0
split_feature=74 33 26 2 34 53
split_gain=29.7994 66.9909 35.9256 38.1666 36.9465 27.758
threshold=-0.84499999880790699 1.2889999747276308 70.039562225341811 9.0266499519348162 0.14189063757658008 0.60202518105506908
decision_type=2 2 2 2 2 2
left_child=1 5 3 -2 -4 -1
right_child=2 -3 4 -5 -6 -7
leaf_value=0.036833571705169849 0.0095598842129528405 -0.0046823237799073839 0.019769901400929771 -0.009055808622916715 -0.0071158905535104421 0.0019771430032139341
leaf_weight=160.88089342415333 21498.296970427036 908.74824802577496 1377.1260599792004 278.16639125347137 140.34210035204887 88.439243748784065
leaf_count=504 71115 3157 4442 959 481 299
internal_value=0.00945169 0.00162178 0.00984087 0.00932169 0.0172803 0.0245265
internal_weight=24452 1158.07 23293.9 21776.5 1517.47 249.32
internal_count=80957 3960 76997 72074 4923 803
is_linear=0
shrinkage=0.05


Tree=18
num_leaves=7
num_cat=0
split_feature=23 24 15 53 52 66
split_gain=39.223 68.9823 45.9496 43.5144 39.6292 39.5134
threshold=-0.72982063889503468 0.56457334756851207 0.78414633870124828 1.0858061313629153 -0.48033766448497767 19.500000000000004
decision_type=2 2 2 2 2 2
left_child=1 2 -1 5 -5 -2
right_child=3 -3 -4 4 -6 -7
leaf_value=0.012611400777823703 0.0041997204791631186 -0.0091976929780400937 0.0035915938727737865 0.020144849088895328 0.0070752049960556146 0.010447182045046932
leaf_weight=2456.5366074293852 3202.6890899986029 698.56914502382278 3321.5232187509537 1845.274422571063 847.86255945265293 12099.595044851303
leaf_count=8131 10666 2585 11233 5917 2800 39625
internal_value=0.00897159 0.0056335 0.00742787 0.0101726 0.0160344 0.00913998
internal_weight=24472.1 6476.63 5778.06 17995.4 2693.14 15302.3
internal_count=80957 21949 19364 59008 8717 50291
is_linear=0
shrinkage=0.05


Tree=19
num_leaves=7
num_cat=0
split_feature=23 24 29 53 52 24
split_gain=35.3501 63.2611 44.9605 39.2697 41.3277 37.5408
threshold=-0.72982063889503468 0.61734244227409374 50.861791610717781 1.1134043335914614 -0.45428112149238581 -0.47136868536472315
decision_type=2 2 2 2 2 2
left_child=1 2 -1 5 -5 -2
right_child=3 -3 -4 4 -6 -7
leaf_value=0.0022262365609911202 0.0056205230376210821 -0.014392632702332698 0.010813436097915876 0.019537400330932247 0.0055823105884603118 0.010675339784701149
leaf_weight=3004.3279791772366 6018.6564417779446 380.98528088629246 3094.5164033025503 1793.7565675228834 754.63924139738083 9441.1867147833109
leaf_count=10236 19942 1442 10271 5739 2497 30830
internal_value=0.00851732 0.005349 0.00658439 0.009657 0.0154088 0.00870794
internal_weight=24488.1 6479.83 6098.84 18008.2 2548.4 15459.8
internal_count=80957 21949 20507 59008 8236 50772
is_linear=0
shrinkage=0.05


Tree=20
num_leaves=7
num_cat=0
split_feature=30 53 13 23 74 29
split_gain=31.6511 39.8732 33.3239 51.679 32.3973 26.2777
threshold=0.5249999761581422 2.1792680025100712 0.7749999761581422 -0.8253108263015746 0.13499999791383746 51.945564270019538
decision_type=2 2 2 2 2 2
left_child=1 -1 4 -4 -2 -3
right_child=2 5 3 -5 -6 -7
leaf_value=0.0090804946461821492 0.006139986893023479 0.010131513868548809 -0.018848179791707522 0.0034450145788963108 0.014725041035512721 0.04192812521292219
leaf_weight=12710.447468936443 7454.7194652706385 113.13790671527386 288.83520163595676 2521.4395060092211 1288.9063242673874 154.26928168535233
leaf_count=41829 24845 371 1022 8399 4175 469
internal_value=0.00778925 0.0094841 0.00588486 0.00114787 0.00740706 0.0285631
internal_weight=24531.8 12977.9 11553.9 2810.27 8743.63 267.407
internal_count=81110 42669 38441 9421 29020 840
is_linear=0
shrinkage=0.05


Tree=21
num_leaves=7
num_cat=0
split_feature=31 30 16 67 74 53
split_gain=33.215 51.4197 43.5888 42.0727 38.8993 35.4091
threshold=21.260000228881839 0.21499999612569812 0.0016029871185310187 1.0000000180025095e-35 -0.87499999999999989 2.1792680025100712
decision_type=2 2 2 2 2 2
left_child=3 5 -3 4 -1 -2
right_child=1 2 -4 -5 -6 -7
leaf_value=-0.011402830783920298 0.01388965787790241 0.010456040684801245 0.003535985491228045 0.011802804699655268 0.0047908609623580345 0.048193965015889295
leaf_weight=384.78784546256065 3075.9651635289192 5042.8431434929371 4148.9545303583145 2200.5394192039967 9616.2888309657574 76.30307374894619
leaf_count=1352 9987 16560 13847 7183 31953 228
internal_value=0.00739557 0.00922444 0.00733322 0.00554474 0.00416674 0.014735
internal_weight=24545.7 12344.1 9191.8 12201.6 10001.1 3152.27
internal_count=81110 40622 30407 40488 33305 10215
is_linear=0
shrinkage=0.05


Tree=22
num_leaves=7
num_cat=0
split_feature=66 30 23 31 30 7
split_gain=31.309 41.4107 38.5619 37.4969 42.9409 32.4537
threshold=19.500000000000004 0.97500002384185802 -0.90159028768539418 21.260000228881839 0.21499999612569812 45.241939544677741
decision_type=2 2 2 2 2 2
left_child=1 2 -1 -2 -5 -3
right_child=3 5 -4 4 -6 -7
leaf_value=-0.01751309854989935 0.0056703999721325849 0.012927214978439001 0.0054605999113110154 0.015761815142351487 0.0081725721333874828 -0.027076623118533739
leaf_weight=189.9036618322134 9723.7595051229 68.935675784945488 4247.7454318851233 2463.2065783143044 7679.0093697309494 185.50635126233101
leaf_count=669 32233 227 14051 7944 25322 664
internal_value=0.00702228 0.00334779 0.00447375 0.00788993 0.0100171 -0.0162303
internal_weight=24558.1 4692.09 4437.65 19866 10142.2 254.442
internal_count=81110 15611 14720 65499 33266 891
is_linear=0
shrinkage=0.05


Tree=23
num_leaves=6
num_cat=0
split_feature=16 31 14 26 31
split_gain=29.4991 30.6319 42.6982 37.0463 22.7629
threshold=0.0064071251545101413 21.260000228881839 0.0010997768258675935 67.150955200195327 29.550000190734867
decision_type=2 2 2 2 2
left_child=1 3 -3 -1 -2
right_child=4 2 -4 -5 -6
leaf_value=0.0041132498908808086 0.0017244956705827947 0.014797474908702563 0.0071789350409588726 0.013248675580431177 -0.033850063127624674
leaf_weight=10930.177785530686 106.51599398255348 2256.1845605224371 9965.2528896182775 1234.5265789031982 76.702671825885773
leaf_count=36327 359 7285 32855 4004 280
internal_value=0.00666798 0.00681833 0.00858648 0.00504137 -0.0132713
internal_weight=24569.4 24386.1 12221.4 12164.7 183.219
internal_count=81110 80471 40140 40331 639
is_linear=0
shrinkage=0.05


Tree=24
num_leaves=7
num_cat=0
split_feature=23 27 27 26 36 27
split_gain=29.1884 50.7655 36.1079 44.6498 33.5583 29.7396
threshold=0.86046862602233898 0.82499998807907116 0.78499999642372142 25.348333358764652 -0.041963618248701089 0.81499999761581432
decision_type=2 2 2 2 2 2
left_child=2 -2 3 -1 -3 -4
right_child=1 4 5 -5 -6 -7
leaf_value=-0.013658719126003457 0.0081944276600608764 0.00025703429431868331 -0.0079303997274171728 0.0073664456371717261 0.032835351532290689 0.0035967307039092345
leaf_weight=256.20258846879005 3244.5144695043564 100.75949087738991 618.2132378667593 14183.279946655035 366.08397670090199 5810.4503250271082
leaf_count=888 10567 335 2110 46642 1131 19437
internal_value=0.00633188 0.0104178 0.00560475 0.00699247 0.0258195 0.00248716
internal_weight=24579.5 3711.36 20868.1 14439.5 466.843 6428.66
internal_count=81110 12033 69077 47530 1466 21547
is_linear=0
shrinkage=0.05


Tree=25
num_leaves=7
num_cat=0
split_feature=66 52 12 2 21 74
split_gain=29.7145 32.8594 32.5072 36.0444 27.9962 23.8625
threshold=20.500000000000004 -0.74245724081993092 0.00020183692686259749 8.7405891418457049 0.0935645066201687 -0.89499998092651356
decision_type=2 2 2 2 2 2
left_child=2 4 -1 -4 -2 -3
right_child=1 5 3 -5 -6 -7
leaf_value=0.025164369833504365 0.033160163786286632 -0.0069227660887963803 0.0010963610421543767 0.03516941149120207 0.0086162167132489698 0.0053269513723429793
leaf_weight=151.06100571155548 116.78863936662674 413.49459937214851 4593.5063874125481 77.953035488724709 9309.8639310747385 9824.4180921465158
leaf_count=470 359 1428 15327 240 30508 32455
internal_value=0.00593108 0.00679362 0.00241328 0.00167235 0.00892378 0.00483158
internal_weight=24487.1 19664.6 4822.52 4671.46 9426.65 10237.9
internal_count=80787 64750 16037 15567 30867 33883
is_linear=0
shrinkage=0.05


Tree=26
num_leaves=7
num_cat=0
split_feature=23 24 2 54 13 53
split_gain=28.9466 48.3719 47.2348 38.5454 48.2396 41.4853
threshold=-0.71473535895347584 0.50938662886619579 -5.1745293140411368 1.6056339740753176 0.10500000044703485 1.1611778140068056
decision_type=2 2 2 2 2 2
left_child=1 2 -1 5 -5 -2
right_child=3 -3 -4 4 -6 -7
leaf_value=0.01535352082885255 0.0051078389208079646 -0.0069648056547766297 0.0026787622193917247 0.037459332867524932 0.010706302891977489 0.012466866646283834
leaf_weight=871.75379319489002 14570.521057903767 1062.7057331502438 4663.5305346250534 205.95771980285645 915.73798349499702 2204.7947743237019
leaf_count=2842 47815 3818 15617 623 2970 7102
internal_value=0.00563285 0.00280141 0.00467733 0.00667648 0.0156475 0.00607573
internal_weight=24495 6597.99 5535.28 17897 1121.7 16775.3
internal_count=80787 22277 18459 58510 3593 54917
is_linear=0
shrinkage=0.05


Tree=27
num_leaves=7
num_cat=0
split_feature=29 22 33 34 23 21
split_gain=28.0397 46.8206 51.6403 28.1879 26.0665 24.0099
threshold=50.021358489990241 -1.2009916901588438 0.72650000452995311 0.41942490637302404 -0.8253108263015746 0.069176558405160918
decision_type=2 2 2 2 2 2
left_child=1 4 -3 5 -1 -2
right_child=3 2 -4 -5 -6 -7
leaf_value=-0.022479011493065318 0.025383833545802082 0.014058604422537519 0.0032047640531847293 -0.01575671790598494 -0.002505687776114561 0.0069368997248487651
leaf_weight=221.80469094216824 178.05908612906933 1237.2606589347124 9542.2030073553324 134.2688711732626 613.32696092128754 12573.396147280931
leaf_count=789 555 3993 31683 463 2071 41233
internal_value=0.00535013 0.00356798 0.00445175 0.00695608 -0.00783099 0.00719646
internal_weight=24500.3 11614.6 10779.5 12885.7 835.132 12751.5
internal_count=80787 38536 35676 42251 2860 41788
is_linear=0
shrinkage=0.05


Tree=28
num_leaves=7
num_cat=0
split_feature=51 2 74 26 27 26
split_gain=25.8827 32.3978 30.3964 33.8791 30.2687 26.9669
threshold=0.69374224543571483 -8.8883295059204084 -0.84499999880790699 70.039562225341811 0.78499999642372142 46.939207077026374
decision_type=2 2 2 2 2 2
left_child=1 -1 5 -4 -3 -2
right_child=2 4 3 -5 -6 -7
leaf_value=0.018970811633029189 -0.020875477600549992 0.0078137668066496965 0.0032968112613701696 0.013518558533985035 0.0020326151822654607 0.0016694757757347663
leaf_weight=519.21548177301884 232.91187457740307 8135.9471768140793 11301.642115041614 872.437943816185 3138.2669175416231 306.04713998734951
leaf_count=1668 828 26583 37383 2810 10482 1033
internal_value=0.00508131 0.00676845 0.00351579 0.00403039 0.00620486 -0.00809397
internal_weight=24506.5 11793.4 12713 12174.1 11274.2 538.959
internal_count=80787 38733 42054 40193 37065 1861
is_linear=0
shrinkage=0.05


Tree=29
num_leaves=6
num_cat=0
split_feature=8 18 54 16 67
split_gain=26.9822 27.2829 26.0281 15.5107 14.9985
threshold=2.9820564985275273 7.0394892692565927 1.8542246222496035 0.003997496562078596 1.0000000180025095e-35
decision_type=2 2 2 2 2
left_child=3 2 -2 4 -1
right_child=1 -3 -4 -5 -6
leaf_value=0.0070492925534211687 0.0038018896487611482 -0.026474110370777116 0.012215752287203514 -0.0098927752966686718 0.013796595707797841
leaf_weight=2728.3593690991402 19455.758462324739 71.769005224108696 964.01034705340862 109.84308443963528 1182.3030156642199
leaf_count=8951 64290 254 3114 377 3801
internal_value=0.00482614 0.00409097 0.00419968 0.00857118 0.0090922
internal_weight=24512 20491.5 20419.8 4020.51 3910.66
internal_count=80787 67658 67404 13129 12752
is_linear=0
shrinkage=0.05


Tree=30
num_leaves=7
num_cat=0
split_feature=22 14 54 21 2 26
split_gain=27.8183 26.1579 30.1941 26.352 22.6337 35.8084
threshold=-0.48380437493324274 0.0078637115657329577 1.5580188632011416 0.53083506226539623 -11.759490489959715 30.144018173217777
decision_type=2 2 2 2 2 2
left_child=1 2 -1 -3 -2 -6
right_child=4 3 -4 -5 5 -7
leaf_value=0.0023895394335373284 0.02335109398393214 -0.04422532898353889 0.014305283558962704 -0.0024175307126198262 -0.0044776067227612921 0.0065588478301614617
leaf_weight=8916.0870337486267 189.03423987329006 56.634527519345284 564.42501686513424 109.28619556128979 775.07951466739178 13977.199540153146
leaf_count=29600 599 210 1817 370 2615 45762
internal_value=0.00484873 0.00275522 0.00310038 -0.0168674 0.00620007 0.00597873
internal_weight=24587.7 9646.43 9480.51 165.921 14941.3 14752.3
internal_count=80973 31997 31417 580 48976 48377
is_linear=0
shrinkage=0.05


Tree=31
num_leaves=7
num_cat=0
split_feature=22 14 54 13 71 2
split_gain=25.0963 23.6731 27.2372 25.0147 20.6338 21.2142
threshold=-0.48380437493324274 0.0078637115657329577 1.5580188632011416 0.91500002145767223 23.983411788940433 -11.759490489959715
decision_type=2 2 2 2 2 2
left_child=1 2 -1 -3 5 -2
right_child=4 3 -4 -5 -6 -7
leaf_value=0.0022697752272103052 0.025560171622304735 -0.030467728539975258 0.013584360926612197 0.0098660623860023638 -0.0059416722609164675 0.0059920264153942547
leaf_weight=8917.2378082424402 138.9477496445179 106.38775812089443 564.70556174218655 59.257828131318092 358.96446333825588 14447.109037205577
leaf_count=29600 435 385 1817 195 1216 47325
internal_value=0.00460532 0.00261694 0.00294499 -0.0160662 0.00588864 0.00618017
internal_weight=24592.6 9647.59 9481.94 165.646 14945 14586.1
internal_count=80973 31997 31417 580 48976 47760
is_linear=0
shrinkage=0.05


Tree=32
num_leaves=6
num_cat=0
split_feature=16 71 27 53 31
split_gain=23.6495 23.3265 25.9785 22.9211 17.8264
threshold=0.0064071251545101413 28.850798606872562 0.84499999880790722 2.1792680025100712 27.090000152587894
decision_type=2 2 2 2 2
left_child=1 3 -3 -1 -2
right_child=4 2 -4 -5 -6
leaf_value=0.0044258046091099944 0.00036734598371987502 -0.029609305773730041 0.0088280523196215752 0.015729659066492093 -0.031512494874061346
leaf_weight=23785.425680309534 98.547777518630028 103.34929904341698 75.321106389164925 456.25040931999683 77.971176460385323
leaf_count=78282 332 369 249 1457 284
internal_value=0.0043743 0.00450632 -0.0134465 0.00463919 -0.0138127
internal_weight=24596.9 24420.3 178.67 24241.7 176.519
internal_count=80973 80357 618 79739 616
is_linear=0
shrinkage=0.05


Tree=33
num_leaves=7
num_cat=0
split_feature=52 27 53 23 21 54
split_gain=23.4072 36.5626 30.8646 35.7767 32.0424 27.2865
threshold=-0.33515793085098261 0.89499998092651378 1.1611778140068056 -0.98279649019241322 0.069176558405160918 1.2600991129875185
decision_type=2 2 2 2 2 2
left_child=2 5 4 -4 -1 -2
right_child=1 -3 3 -5 -6 -7
leaf_value=0.026354417201626221 0.001304598380085406 -0.0078206994813037143 -0.019978983014959394 0.011602712724581488 0.0040105635214858206 0.011495632256437321
leaf_weight=161.04934252798557 3707.4658908993006 920.40238167345524 92.507749333977699 2252.3181895911694 16669.832252919674 797.34009642899036
leaf_count=499 12285 3139 323 7262 54895 2570
internal_value=0.0041548 0.00125492 0.00497513 0.0103488 0.00422592 0.00311054
internal_weight=24600.9 5425.21 19175.7 2344.83 16830.9 4504.81
internal_count=80973 17994 62979 7585 55394 14855
is_linear=0
shrinkage=0.05


Tree=34
num_leaves=7
num_cat=0
split_feature=22 14 54 21 5 29
split_gain=22.7244 20.7302 23.8881 23.5027 17.8581 28.8665
threshold=-0.48380437493324274 0.0078637115657329577 1.5580188632011416 0.53083506226539623 27.895731925964359 75.82688140869142
decision_type=2 2 2 2 2 2
left_child=1 2 -1 -3 5 -2
right_child=4 3 -4 -5 -6 -7
leaf_value=0.0017294726713168286 0.0043298646587129471 -0.041396878049399476 0.012322826686631184 -0.0018162897077948143 0.0075936379985635048 -0.014517405390718822
leaf_weight=8921.6805349439383 9713.1891796886921 56.227131173014641 564.98609791696072 109.11382976174355 5032.2568775266409 206.54475152492523
leaf_count=29600 31880 210 1817 370 16391 705
internal_value=0.00394659 0.00205501 0.0023616 -0.0154443 0.00516745 0.00393601
internal_weight=24604 9652.01 9486.67 165.341 14952 9919.73
internal_count=80973 31997 31417 580 48976 32585
is_linear=0
shrinkage=0.05


Tree=35
num_leaves=7
num_cat=0
split_feature=26 44 33 34 29 44
split_gain=28.0964 36.7629 36.1806 34.524 35.9071 16.1912
threshold=68.095901489257827 10.166179180145265 4.8199999332427987 0.14189063757658008 60.051143646240241 2.5180828571319585
decision_type=2 2 2 2 2 2
left_child=1 2 -1 4 -2 -5
right_child=3 -3 -4 5 -6 -7
leaf_value=0.003295598872338051 0.023481444842427684 -0.02554922936570287 -0.017587266337874656 -0.030629963614511948 0.0073061065065546903 -0.00074116396155797829
leaf_weight=21992.973818913102 436.94680908322334 111.56362727284431 208.40971960127354 67.541108921170235 1592.6543380320072 133.84159906208515
leaf_count=72463 1371 394 720 240 5174 446
internal_value=0.00348961 0.00295441 0.00309878 0.00883863 0.0107983 -0.0108673
internal_weight=24543.9 22312.9 22201.4 2230.98 2029.6 201.383
internal_count=80808 73577 73183 7231 6545 686
is_linear=0
shrinkage=0.05


Tree=36
num_leaves=7
num_cat=0
split_feature=52 21 53 54 13 23
split_gain=29.1196 32.1518 25.5319 24.7626 33.5539 20.5158
threshold=-0.59187287092208851 0.18301559984683993 1.0858061313629153 1.7128040790557864 0.70499998331069957 -0.92794367671012867
decision_type=2 2 2 2 2 2
left_child=1 -1 -3 5 -5 -2
right_child=3 2 -4 4 -6 -7
leaf_value=0.019938426564259107 0.0061300454047178909 0.0035258875222665131 0.0096488528489297593 0.018511309911350408 -0.0063307794641563045 -0.00039378555604126101
leaf_weight=339.10258392989635 1418.9949873685837 12214.819930776954 1977.9569636285305 436.64783172309399 196.56093972921371 7962.4680242985487
leaf_count=1072 4679 40181 6393 1379 659 26445
internal_value=0.00331466 0.00474423 0.00437983 0.00124 0.010802 0.000593526
internal_weight=24546.6 14531.9 14192.8 10014.7 633.209 9381.46
internal_count=80808 47646 46574 33162 2038 31124
is_linear=0
shrinkage=0.05


Tree=37
num_leaves=7
num_cat=0
split_feature=66 2 23 54 52 16
split_gain=27.6646 45.6536 35.2826 33.046 34.0598 33.171
threshold=22.500000000000004 3.9721522331237797 -0.68355163931846608 1.8542246222496035 -0.73157262802124012 0.0010929917916655543
decision_type=2 2 2 2 2 2
left_child=1 2 -1 4 -2 -5
right_child=3 -3 -4 5 -6 -7
leaf_value=-0.01225058727367255 0.0057855655417632327 0.010462853313713374 -0.00017520773186623464 0.029749276933084903 0.0015347021777383802 0.0062389459508145947
leaf_weight=731.10182559490204 9270.4377940744162 843.70061808824539 3482.3511984050274 241.73317082226276 9584.7056697458029 394.72047857940197
leaf_count=2530 30291 2725 11524 741 31716 1281
internal_value=0.00314874 -0.000146498 -0.00227289 0.00400366 0.0036249 0.0152011
internal_weight=24548.8 5057.15 4213.45 19491.6 18855.1 636.454
internal_count=80808 16779 14054 64029 62007 2022
is_linear=0
shrinkage=0.05


Tree=38
num_leaves=7
num_cat=0
split_feature=16 33 43 36 75 31
split_gain=27.0662 23.9637 22.92 21.8819 16.6388 12.1565
threshold=0.0064071251545101413 4.8199999332427987 3.5462933778762822 -0.050298282876610749 1.0000000180025095e-35 24.345000267028812
decision_type=2 2 2 2 2 2
left_child=1 3 -3 -1 -2 -6
right_child=4 2 -4 -5 5 -7
leaf_value=0.0066800531044481958 0.0058623189792186212 -0.0037740895204129428 -0.039818771847609756 0.0026205912081853182 -0.010243557996963483 -0.041995667884643754
leaf_weight=3973.8907095193863 57.019927650690079 179.78207579255104 57.549133077263832 20160.170169651508 59.14143006503582 62.332672163844109
leaf_count=12959 190 604 209 66409 204 233
internal_value=0.00299123 0.00313359 -0.0126448 0.00328927 -0.016355 -0.0267466
internal_weight=24549.9 24371.4 237.331 24134.1 178.494 121.474
internal_count=80808 80181 813 79368 627 437
is_linear=0
shrinkage=0.05


Tree=39
num_leaves=7
num_cat=0
split_feature=71 21 44 52 71 53
split_gain=24.9962 28.9307 32.5809 28.3732 27.0832 22.3777
threshold=-18.550127029418942 0.18301559984683993 2.7517936229705815 -0.60256633162498463 28.850798606872562 1.0858061313629153
decision_type=2 2 2 2 2 2
left_child=1 -1 -3 5 -5 -2
right_child=3 2 -4 4 -6 -7
leaf_value=0.041236602917421573 0.0031021285554138256 0.0021064208426815312 0.016871408796466997 0.00064049988961875604 -0.02455346079902249 0.0091124527745423314
leaf_weight=64.739605262875557 11334.049245715141 1045.4495388269424 580.70941546559334 9626.5478791445494 106.86662182211876 1793.3152758777142
leaf_count=192 37277 3425 1841 31898 379 5796
internal_value=0.00284127 0.00870584 0.0073862 0.00240713 0.000361393 0.00392382
internal_weight=24551.7 1690.9 1626.16 22860.8 9733.41 13127.4
internal_count=80808 5458 5266 75350 32277 43073
is_linear=0
shrinkage=0.05


Tree=40
num_leaves=7
num_cat=0
split_feature=51 26 35 53 7 74
split_gain=26.1203 31.2304 29.4324 26.7679 22.0752 31.7739
threshold=0.32909935712814337 66.837207794189467 0.010729641653597357 2.1792680025100712 44.698003768920906 -0.77499997615814198
decision_type=2 2 2 2 2 2
left_child=4 2 -2 -3 5 -1
right_child=1 3 -4 -5 -6 -7
leaf_value=0.032828349670772861 0.001713791610461896 0.0061854886745820251 -0.0049478617257932116 0.032060379764026301 0.0033893763842542616 0.0082320513423052299
leaf_weight=142.1745411157608 15279.602134600282 1946.6227215081453 1858.9057910591364 104.45426160097122 3560.6657618135214 1608.017664462328
leaf_count=441 50427 6333 6244 319 11695 5214
internal_value=0.00254804 0.00168901 0.000990998 0.00751819 0.00565104 0.0102477
internal_weight=24500.4 19189.6 17138.5 2051.08 5310.86 1750.19
internal_count=80673 63323 56671 6652 17350 5655
is_linear=0
shrinkage=0.05


Tree=41
num_leaves=7
num_cat=0
split_feature=51 3 5 26 28 36
split_gain=24.4914 36.3382 34.9713 30.6471 25.1234 29.0295
threshold=0.69374224543571483 0.31917066872119909 18.025434494018558 74.45282363891603 -1.0000000180025095e-35 0.064648631960153594
decision_type=2 2 2 2 2 2
left_child=4 2 -2 -3 5 -1
right_child=1 3 -4 -5 -6 -7
leaf_value=0.0026598400909568294 0.0044589791181643594 0.00397439879685708 -0.0025487931762278675 0.022345941037180718 0.0057743847612460979 -0.0091969270586956219
leaf_weight=3568.9993735253811 2402.393769800663 3214.487774297595 6866.0299178808928 243.34547606110573 7603.9260927736759 602.51124787330627
leaf_count=11754 7889 10554 22858 762 24817 2039
internal_value=0.00242066 0.000899943 -0.00073208 0.00527339 0.00406396 0.000945517
internal_weight=24501.7 12726.3 9268.42 3457.83 11775.4 4171.51
internal_count=80673 42063 30747 11316 38610 13793
is_linear=0
shrinkage=0.05


Tree=42
num_leaves=7
num_cat=0
split_feature=52 21 30 32 27 26
split_gain=23.3416 28.9899 25.1886 23.6293 19.9014 18.9292
threshold=-0.32401068508625025 0.069176558405160918 0.044999999925494201 93.204998016357436 0.89499998092651378 44.44426345825196
decision_type=2 2 2 2 2 2
left_child=1 -1 5 -3 -4 -2
right_child=2 3 4 -5 -6 -7
leaf_value=0.022293450147945974 0.025570569717619052 -0.00023496778880868204 -0.00023797397738448348 0.0038921730054125325 -0.0085655490528022283 0.0039064259691165733
leaf_weight=193.83123771846294 139.63599991798401 4555.445376008749 3847.798813611269 14527.35899835825 880.89039897918701 357.91790659725666
leaf_count=603 435 15053 12749 47657 3006 1170
internal_value=0.00229956 0.00310306 -0.000664128 0.00290698 -0.00179077 0.0100255
internal_weight=24502.9 19276.6 5226.24 19082.8 4728.69 497.554
internal_count=80673 63313 17360 62710 15755 1605
is_linear=0
shrinkage=0.05


Tree=43
num_leaves=7
num_cat=0
split_feature=5 34 66 30 18 34
split_gain=22.2424 33.5785 31.1402 40.5945 29.5539 28.3075
threshold=47.401750564575202 -0.12895036488771436 24.500000000000004 0.97500002384185802 1.8602225184440615 -0.0077759844716638318
decision_type=2 2 2 2 2 2
left_child=2 -2 3 -1 -4 -3
right_child=1 5 4 -5 -6 -7
leaf_value=-0.00050776654005304828 -0.014230545069558545 0.024465607861835013 0.006062048895200455 -0.020126325387435615 0.0016187416497906303 0.0038406226447935811
leaf_weight=4680.4678058326244 116.38165155053139 353.6395732909441 5163.0286305844784 278.42256586253643 13597.566419556737 314.18478687107563
leaf_count=15503 396 1107 16825 976 44834 1032
internal_value=0.0021846 0.0104642 0.00191043 -0.00161311 0.00284182 0.0147826
internal_weight=24503.7 784.206 23719.5 4958.89 18760.6 667.824
internal_count=80673 2535 78138 16479 61659 2139
is_linear=0
shrinkage=0.05


Tree=44
num_leaves=7
num_cat=0
split_feature=51 17 12 53 7 44
split_gain=21.244 25.0656 27.2466 20.8674 19.335 29.007
threshold=0.32909935712814337 3.5271977186203007 0.00048074244114104664 2.1792680025100712 44.698003768920906 3.5687181949615483
decision_type=2 2 2 2 2 2
left_child=4 3 -3 -2 5 -1
right_child=1 2 -4 -5 -6 -7
leaf_value=0.0079164764177998177 0.0018093115975957915 0.0012452833420020723 -0.0086389284669007721 0.015129368871889919 0.0027569644066606763 0.042236899079489111
leaf_weight=1687.7979819923639 16055.556274667382 1609.2234568893909 1228.938439399004 298.54261158406734 3561.4412279874086 62.97169417142868
leaf_count=5467 52921 5298 4155 949 11695 188
internal_value=0.00207529 0.00130061 -0.00303617 0.00205338 0.00487329 0.00917432
internal_weight=24504.5 19192.3 2838.16 16354.1 5312.21 1750.77
internal_count=80673 63323 9453 53870 17350 5655
is_linear=0
shrinkage=0.05


Tree=45
num_leaves=6
num_cat=0
split_feature=16 30 2 36 44
split_gain=32.4879 23.4748 29.0541 25.9255 17.8321
threshold=0.0064071251545101413 0.014999999664723875 -1.1073011755943296 -0.050298282876610749 2.8407646417617802
decision_type=2 2 2 2 2
left_child=1 2 -1 -3 -2
right_child=4 3 -4 -5 -6
leaf_value=0.022362043992587927 -0.036360872473596664 0.0059264554468594771 0.0043459289759460121 0.0014522412450006749 -0.004984085444118224
leaf_weight=320.08083389699459 78.616899698972702 3882.4445200562477 740.69317062199116 19477.988993734121 105.8753791898489
leaf_count=1000 289 12649 2412 64214 364
internal_value=0.00236842 0.00252666 0.0097981 0.00219607 -0.0184785
internal_weight=24605.7 24421.2 1060.77 23360.4 184.492
internal_count=80928 80275 3412 76863 653
is_linear=0
shrinkage=0.05


Tree=46
num_leaves=6
num_cat=0
split_feature=16 66 1 51 44
split_gain=29.4048 21.5669 35.7522 22.902 16.2325
threshold=0.0064071251545101413 22.500000000000004 1.9070048332214358 0.82549026608467113 2.8407646417617802
decision_type=2 2 2 2 2
left_child=1 2 -1 -3 -2
right_child=4 3 -4 -5 -6
leaf_value=-0.0022734462272568177 -0.034714898378529355 0.0046284451408085377 0.0099558298949129521 0.0011630202193533801 -0.0047396075382155189
leaf_weight=4242.7672849446535 78.283161252737045 11161.238927781582 694.60554344952106 8323.6618161350489 105.82276394963264
leaf_count=14109 289 36470 2243 27453 364
internal_value=0.00224991 0.00240029 -0.000551325 0.0031482 -0.017604
internal_weight=24606.4 24422.3 4937.37 19484.9 184.106
internal_count=80928 80275 16352 63923 653
is_linear=0
shrinkage=0.05


Tree=47
num_leaves=7
num_cat=0
split_feature=16 30 36 26 8 26
split_gain=26.6181 21.3781 23.3655 21.4938 15.7952 12.9503
threshold=0.0064071251545101413 0.014999999664723875 -0.050298282876610749 48.300575256347663 39.339456558227546 39.697860717773445
decision_type=2 2 2 2 2 2
left_child=1 3 -3 -1 -2 -6
right_child=4 2 -4 -5 5 -7
leaf_value=0.018771195520710701 -0.036061762686713066 0.0055059514077937461 0.0012586448129617981 0.0039136808857617228 -0.021956593237367011 0.011014269614605693
leaf_weight=377.89219996333122 66.439715012907982 3882.9340626299381 19479.435345768929 682.84141054749489 59.035717457532883 58.215165287256241
leaf_count=1189 246 12649 64214 2223 213 194
internal_value=0.0021373 0.00228022 0.00196477 0.00921945 -0.0167738 -0.00563182
internal_weight=24606.8 24423.1 23362.4 1060.73 183.691 117.251
internal_count=80928 80275 76863 3412 653 407
is_linear=0
shrinkage=0.05


Tree=48
num_leaves=7
num_cat=0
split_feature=66 1 23 52 31 1
split_gain=25.2416 33.6346 41.4594 32.9104 25.8642 28.6335
threshold=22.500000000000004 1.9070048332214358 -0.91959547996520985 -0.6798325479030608 16.960000038146976 3.6285021305084233
decision_type=2 2 2 2 2 2
left_child=1 2 -1 -3 -2 -6
right_child=4 3 -4 -5 5 -7
leaf_value=-0.025410636561326545 -0.0005848828322893505 0.022063542695652961 -0.0017102330073671776 0.00024616240520008683 0.0040616829819333389 -0.015067904901469621
leaf_weight=192.0667831748724 4282.4243135303259 285.20421779155731 4175.9509096294641 436.47634787857533 15037.774903774261 197.23452319204807
leaf_count=684 14171 892 13874 1443 49189 675
internal_value=0.00203036 -0.00110538 -0.00275794 0.00888687 0.0028481 0.00381306
internal_weight=24607.1 5089.7 4368.02 721.681 19517.4 15235
internal_count=80928 16893 14558 2335 64035 49864
is_linear=0
shrinkage=0.05


Tree=49
num_leaves=7
num_cat=0
split_feature=66 33 74 2 12 54
split_gain=22.7794 34.4461 41.8997 31.1943 32.7404 28.691
threshold=22.500000000000004 1.0890000462532046 -0.87499999999999989 9.3407068252563494 0.00020857829076703641 2.2883118391036992
decision_type=2 2 2 2 2 2
left_child=3 5 -3 4 -1 -2
right_child=1 2 -4 -5 -6 -7
leaf_value=0.018902207278234898 0.0061274510636006516 -0.010057566733237946 0.0021769124951345575 0.032447959606886553 -0.0023055243672175335 0.03891779289862779
leaf_weight=188.10885865986347 4256.1089512556791 734.41442883014679 14460.894230246544 67.563248857855797 4833.3138884902 66.814755842089653
leaf_count=588 13818 2529 47489 205 16100 199
internal_value=0.00192878 0.00270555 0.00158498 -0.00105036 -0.00150745 0.00664314
internal_weight=24607.2 19518.2 15195.3 5088.99 5021.42 4322.92
internal_count=80928 64035 50018 16893 16688 14017
is_linear=0
shrinkage=0.05


Tree=50
num_leaves=7
num_cat=0
split_feature=0 28 30 24 71 44
split_gain=25.7105 43.8355 48.0222 36.3415 34.0719 32.5307
threshold=-0.38094863295555109 1.0000000180025095e-35 0.84499999880790722 0.58244305849075328 -18.550127029418942 3.8124269247055058
decision_type=2 2 2 2 2 2
left_child=3 2 -2 5 -3 -1
right_child=1 4 -4 -5 -6 -7
leaf_value=0.00057161599061723162 0.00034847720282647087 0.017150591557614264 -0.0079113609811730483 0.0093886827735391466 0.0028268268734770413 0.01662731148660684
leaf_weight=4416.6050545722246 8472.1106628030539 442.98829029500484 2219.9954979866743 2286.5501762628555 6410.8540641218424 338.75849477946758
leaf_count=14551 27954 1397 7505 7366 21045 1076
internal_value=0.00165819 0.000633811 -0.00136709 0.00421012 0.00375499 0.00171863
internal_weight=24587.9 17545.9 10692.1 7041.91 6853.84 4755.36
internal_count=80894 57901 35459 22993 22442 15627
is_linear=0
shrinkage=0.05


Tree=51
num_leaves=7
num_cat=0
split_feature=0 24 15 23 21 32
split_gain=23.2058 32.8027 30.9514 28.0981 21.9754 42.2755
threshold=-0.38094863295555109 0.58244305849075328 1.2436434626579287 -0.2693240344524383 0.43886050581932073 105.13499832153322
decision_type=2 2 2 2 2 2
left_child=1 2 -1 -3 5 -2
right_child=4 3 -4 -5 -6 -7
leaf_value=0.0038593139339598314 -0.0014275742755041471 0.015776905054696037 -0.0056717980854385473 0.0044369126627055193 0.0012837262802723275 -0.022178651573669203
leaf_weight=3644.9367034435272 1987.2865816056728 902.90423455834389 1110.5087175965309 1383.5025220811367 15279.16574344039 279.05447471141815
leaf_count=11917 6619 2881 3710 4485 50299 983
internal_value=0.00157539 0.00399984 0.00163285 0.00892003 0.000602165 -0.00399131
internal_weight=24587.4 7041.85 4755.45 2286.41 17545.5 2266.34
internal_count=80894 22993 15627 7366 57901 7602
is_linear=0
shrinkage=0.05


Tree=52
num_leaves=7
num_cat=0
split_feature=22 36 0 26 27 29
split_gain=22.5894 19.367 18.7145 18.3471 15.2667 17.8098
threshold=-1.4155462384223936 0.22802233695983889 -0.33195275068283076 59.027746200561531 0.91500002145767223 51.503227233886726
decision_type=2 2 2 2 2 2
left_child=4 2 -2 -3 5 -1
right_child=1 3 -4 -5 -6 -7
leaf_value=-0.011086032957464752 0.0040624269527948743 -0.016074481109559276 0.0010051116401891267 0.014531234357896522 -0.020281028621712143 0.0048813771882397919
leaf_weight=354.56695818901062 7251.9491134434938 261.82257689535618 16155.82313592732 59.352483004331589 161.29431876540184 342.34858939051628
leaf_count=1213 23661 898 53248 190 565 1119
internal_value=0.00149661 0.00178493 0.00195243 -0.0103911 -0.00646793 -0.00324654
internal_weight=24587.2 23728.9 23407.8 321.175 858.21 696.916
internal_count=80894 77997 76909 1088 2897 2332
is_linear=0
shrinkage=0.05


Tree=53
num_leaves=7
num_cat=0
split_feature=22 51 1 32 27 31
split_gain=20.402 20.5821 28.552 25.2562 13.8183 17.1081
threshold=-1.4155462384223936 0.69374224543571483 -2.0875197649002071 93.204998016357436 0.91500002145767223 19.159999847412113
decision_type=2 2 2 2 2 2
left_child=4 2 -2 -3 -1 -6
right_child=1 3 -4 -5 5 -7
leaf_value=-0.0030855923340562313 0.009530541227679018 -0.0037836418036870292 0.0022338300282718345 0.0015394251649817 -0.040579581864061298 -0.0068182028325777348
leaf_weight=696.72524335980415 1551.6221816688776 2916.738276258111 9830.5501020550728 9430.3567041605711 58.721278131008148 102.33902476727962
leaf_count=2332 5008 9702 32233 31054 215 350
internal_value=0.00142173 0.00169566 0.00322927 0.000281759 -0.00614932 -0.0193018
internal_weight=24587.1 23729.3 11382.2 12347.1 857.786 161.06
internal_count=80894 77997 37241 40756 2897 565
is_linear=0
shrinkage=0.05


Tree=54
num_leaves=7
num_cat=0
split_feature=5 18 44 29 12 26
split_gain=19.2354 29.4118 25.7677 43.067 24.3743 22.9621
threshold=28.283127784729007 6.0988271236419687 9.2568802833557147 66.226860046386733 0.00025155434559565043 30.933714866638187
decision_type=2 2 2 2 2 2
left_child=1 4 5 -4 -1 -2
right_child=2 -3 3 -5 -6 -7
leaf_value=0.0038480948265924874 -0.0034192276689983137 -0.031449656294873153 -0.024708897276661177 0.023782275558676166 -0.00061228464068756392 0.0048187308043726581
leaf_weight=4083.3824780285358 961.75724145770073 71.336996018886566 182.98259226977825 60.080974698066711 12245.620066478848 6981.9430991560221
leaf_count=13319 3219 253 642 188 40507 22766
internal_value=0.00135055 0.000362391 0.00332981 -0.0126744 0.000503287 0.00382104
internal_weight=24587.1 16400.3 8186.76 243.064 16329 7943.7
internal_count=80894 54079 26815 830 53826 25985
is_linear=0
shrinkage=0.05


Tree=55
num_leaves=7
num_cat=0
split_feature=31 35 54 32 33 16
split_gain=16.9353 29.6589 31.9207 27.0775 32.6294 29.6738
threshold=21.260000228881839 0.011210570577532055 0.8213864564895631 101.75999832153322 4.8199999332427987 0.0016444368520751598
decision_type=2 2 2 2 2 2
left_child=3 -2 -3 5 -5 -1
right_child=1 2 -4 4 -6 -7
leaf_value=-0.00033577014742921922 0.0038250644106793694 -0.0071339567996488024 0.009711195998002126 0.003563180426456028 -0.019336857996403521 -0.0090511016831674902
leaf_weight=5635.4559013694525 10767.039454638958 1270.3909360617399 360.17397092282772 5265.5588834136724 159.30341154336929 1180.4334249794483
leaf_count=18600 35164 4278 1168 17265 555 3985
internal_value=0.0015709 0.00287337 -0.00340938 0.000251607 0.00288727 -0.00184627
internal_weight=24638.4 12397.6 1630.56 12240.8 5424.86 6815.89
internal_count=81015 40610 5446 40405 17820 22585
is_linear=0
shrinkage=0.05


Tree=56
num_leaves=7
num_cat=0
split_feature=36 16 12 31 30 74
split_gain=18.0494 32.575 40.445 19.1863 37.0885 27.1259
threshold=0.25448084622621542 0.00370711786672473 0.00044022916699759668 21.260000228881839 0.21499999612569812 -0.87499999999999989
decision_type=2 2 2 2 2 2
left_child=3 2 -2 5 -5 -1
right_child=1 -3 -4 4 -6 -7
leaf_value=-0.011314384978297495 -0.024780755968205285 -0.042728500488453128 0.019015741404437205 0.0077541287484898498 0.0014211652632377886 0.00071834518254069307
leaf_weight=486.81466306746006 99.381373658776283 62.309517368674278 110.0162758231163 3108.2068041414022 9017.7644308060408 11753.76325429976
leaf_count=1682 345 232 349 10023 29661 38723
internal_value=0.00149231 -0.0113 -0.00178932 0.00163541 0.00304498 0.000238912
internal_weight=24638.3 271.707 209.398 24366.5 12126 12240.6
internal_count=81015 926 694 80089 39684 40405
is_linear=0
shrinkage=0.05


Tree=57
num_leaves=7
num_cat=0
split_feature=22 24 4 36 16 8
split_gain=16.8334 17.7629 17.9072 16.7946 25.5432 16.9855
threshold=-1.2353458404541013 0.69930991530418407 -1.0000000180025095e-35 0.22802233695983889 0.0034677518997341399 1.0502785444259646
decision_type=2 2 2 2 2 2
left_child=1 2 -1 5 -5 -2
right_child=3 -3 -4 4 -6 -7
leaf_value=-0.013625935729531247 0.0051604221341914405 0.0075832477812386367 -0.0015852217356475866 -0.002716942119683438 -0.038391069371860341 0.0013486590016502332
leaf_weight=482.74078868329525 3445.5831143707037 295.83599752187729 854.67210218310356 264.86723704636097 60.957777827978134 19232.937732279301
leaf_count=1663 11199 955 2857 878 226 63237
internal_value=0.00141761 -0.00348593 -0.00593827 0.00176589 -0.00948817 0.00192799
internal_weight=24637.6 1633.25 1337.41 23004.3 325.825 22678.5
internal_count=81015 5475 4520 75540 1104 74436
is_linear=0
shrinkage=0.05


Tree=58
num_leaves=7
num_cat=0
split_feature=22 54 34 34 21 7
split_gain=15.1953 17.9142 25.8821 21.1957 16.4853 36.5695
threshold=-1.2353458404541013 0.77603027224540722 0.03699056804180146 0.046544222161173827 0.18301559984683993 54.347818374633796
decision_type=2 2 2 2 2 2
left_child=1 2 -1 -3 5 -2
right_child=4 3 -4 -5 -6 -7
leaf_value=-0.0014122470181253007 0.015725176424355638 -0.0020816640636088105 -0.017216137299669917 0.021281495032577712 0.0014572169741897839 -0.01561918147342856
leaf_weight=795.52388481795788 491.48502625524998 314.61201100051403 383.32169218361378 139.30397835373878 22398.953191936016 113.88284878432751
leaf_count=2654 1554 1050 1328 443 73595 391
internal_value=0.00134666 -0.00331293 -0.00656139 0.00511936 0.00167751 0.00981259
internal_weight=24637.1 1632.76 1178.85 453.916 23004.3 605.368
internal_count=81015 5475 3982 1493 75540 1945
is_linear=0
shrinkage=0.05


Tree=59
num_leaves=7
num_cat=0
split_feature=2 71 51 29 16 32
split_gain=15.9648 24.3974 21.2267 20.6898 16.3985 15.5932
threshold=-8.8883295059204084 24.81004619598389 0.80677747726440441 37.392023086547859 0.0064071251545101413 104.314998626709
decision_type=2 2 2 2 2 2
left_child=2 4 5 -3 -2 -1
right_child=1 3 -4 -5 -6 -7
leaf_value=0.01721874489655165 0.0013287835240459074 -0.020896508854916899 -0.0032534399547497895 0.0083028939863587711 -0.014229606961524772 -0.0028580553589227157
leaf_weight=480.96773171424866 23269.989291355014 222.57601597905159 290.34077090024948 82.629959762096405 169.60908244550228 120.66802960634232
leaf_count=1528 76463 777 973 270 602 402
internal_value=0.00127934 0.00103247 0.00784263 -0.0129899 0.0012156 0.0131939
internal_weight=24636.8 23744.8 891.977 305.206 23439.6 601.636
internal_count=81015 78112 2903 1047 77065 1930
is_linear=0
shrinkage=0.05


Tree=60
num_leaves=7
num_cat=0
split_feature=23 27 36 35 63 26
split_gain=19.272 53.9462 26.6823 23.4052 39.789 23.3621
threshold=0.87137606739997875 0.82499998807907116 -0.041963618248701089 0.022604333236813549 0.70984819531440746 50.709468841552741
decision_type=2 2 2 2 2 2
left_child=3 5 -3 -1 -5 -2
right_child=1 2 -4 4 -6 -7
leaf_value=0.00054616424720045046 0.0061633882891080453 -0.0028308419727421604 0.027087198626010906 0.02745781131496372 -0.015822456522331604 -0.0025322803170058929
leaf_weight=20556.365321189165 1591.474228978157 94.763450786471367 344.8972439467907 59.643472403287888 429.93784163892269 1499.1054169535637
leaf_count=67768 5140 313 1062 187 1486 4926
internal_value=0.00086214 0.00428027 0.0206469 0.000288609 -0.0105046 0.00194604
internal_weight=24576.2 3530.24 439.661 21045.9 489.581 3090.58
internal_count=80882 11441 1375 69441 1673 10066
is_linear=0
shrinkage=0.05


Tree=61
num_leaves=7
num_cat=0
split_feature=11 31 17 3 51 36
split_gain=18.449 24.1905 25.5421 21.2894 24.3041 23.3145
threshold=-0.41574871540069575 18.080000877380375 4.3603479862213144 0.35245238244533544 0.92038932442665111 -0.14218993484973905
decision_type=2 2 2 2 2 2
left_child=1 -1 -3 4 -2 -5
right_child=3 2 -4 5 -6 -7
leaf_value=0.019083598661145521 0.0010847268525210909 0.012100111086323855 -0.0074172866187739413 -0.017556232088680682 -0.0027242888462788006 0.0038405881254008397
leaf_weight=309.28407429158688 11758.397016733885 328.9780533015728 339.76825396716595 129.52711014449596 6503.2310504466295 5206.5851654410362
leaf_count=974 38656 1050 1135 443 21605 17019
internal_value=0.000819127 0.00754474 0.00218769 0.000540069 -0.000271794 0.00331802
internal_weight=24575.8 978.03 668.746 23597.7 18261.6 5336.11
internal_count=80882 3159 2185 77723 60261 17462
is_linear=0
shrinkage=0.05


Tree=62
num_leaves=7
num_cat=0
split_feature=2 30 18 26 43 36
split_gain=21.945 27.6678 25.3213 24.024 23.8276 22.9155
threshold=-8.8883295059204084 0.99500000476837169 3.3482350111007695 25.348333358764652 2.5753488540649419 -0.14218993484973905
decision_type=2 2 2 2 2 2
left_child=1 2 -1 4 -2 -5
right_child=3 -3 -4 5 -6 -7
leaf_value=0.0089888267014302681 -0.029551028099401119 0.034393508962059997 -0.016866958235183336 -0.0088539794824191286 -0.0024370487486667313 0.00093902650086790263
leaf_weight=694.68527235090733 128.54098968207836 91.294658869504929 108.67100554704666 612.49428543448448 216.90051199495792 22722.948965832591
leaf_count=2249 459 280 376 2055 728 74735
internal_value=0.000778195 0.00846079 0.00547466 0.000487606 -0.0125825 0.000681617
internal_weight=24575.5 894.651 803.356 23680.9 345.442 23335.4
internal_count=80882 2905 2625 77977 1187 76790
is_linear=0
shrinkage=0.05


Tree=63
num_leaves=7
num_cat=0
split_feature=2 30 18 23 35 2
split_gain=19.8118 24.972 22.875 21.9568 36.5848 30.4464
threshold=-8.8883295059204084 0.99500000476837169 3.3482350111007695 -0.54643493890762318 -0.025853467173874375 -6.6507749557495108
decision_type=2 2 2 2 2 2
left_child=1 2 -1 4 -2 -5
right_child=3 -3 -4 5 -6 -7
leaf_value=0.0085394933396852335 0.027165981468000974 0.032664271402451928 -0.01604311313736179 -0.0094342748146643042 -0.002072932343015334 0.0019880371555383871
leaf_weight=694.72785772383213 107.46363304555416 91.372052296996117 108.59225568175316 605.85263057053089 7858.5773995369673 15108.82686920464
leaf_count=2249 334 280 376 2035 26307 49301
internal_value=0.000739248 0.00803873 0.00520062 0.000463135 -0.00167513 0.0015471
internal_weight=24575.4 894.692 803.32 23680.7 7966.04 15714.7
internal_count=80882 2905 2625 77977 26641 51336
is_linear=0
shrinkage=0.05


Tree=64
num_leaves=7
num_cat=0
split_feature=2 34 26 15 34 30
split_gain=17.8877 23.6079 21.0381 26.8057 21.6568 19.7028
threshold=-8.8883295059204084 0.14189063757658008 25.348333358764652 0.89758142828941356 0.50844037532806408 0.79500001668930065
decision_type=2 2 2 2 2 2
left_child=1 5 3 -2 -4 -1
right_child=2 -3 4 -5 -6 -7
leaf_value=-0.0021708687179642764 0.001629079103163256 0.028785750284587283 0.00081690912937209615 -0.02621185404151052 -0.011249200074845894 0.013935142266322456
leaf_weight=456.97056263685226 179.09461058676243 114.0605233758688 22957.629434794188 165.94784517586231 377.00296939909458 323.61100514233112
leaf_count=1513 599 352 75508 588 1282 1040
internal_value=0.000702399 0.00763855 0.000440032 -0.011798 0.000621491 0.0045156
internal_weight=24574.3 894.642 23679.7 345.042 23334.6 780.582
internal_count=80882 2905 77977 1187 76790 2553
is_linear=0
shrinkage=0.05


Tree=65
num_leaves=7
num_cat=0
split_feature=0 17 21 58 5 44
split_gain=16.3057 33.7008 31.0261 20.5362 18.917 15.251
threshold=-0.99567127227783192 4.2165877819061288 0.14144809544086459 1.0000000180025095e-35 42.135704040527351 3.3473784923553471
decision_type=2 2 2 2 2 2
left_child=2 4 -1 -3 -2 -4
right_child=1 3 5 -5 -6 -7
leaf_value=0.038093322451927286 0.00077440902879147093 -0.004711054114690077 0.0030497765776962404 -0.022812328330229639 0.0070694842562728849 0.021342470583871509
leaf_weight=69.551222547888756 20408.956263944507 890.41961522400379 1685.7941874265671 189.386958360672 1266.5675139576197 121.25943848490715
leaf_count=207 67174 2966 5503 663 4107 379
internal_value=0.0010825 0.000712945 0.00556091 -0.007904 0.00114256 0.0042884
internal_weight=24631.9 22755.3 1876.6 1079.81 21675.5 1807.05
internal_count=80999 74910 6089 3629 71281 5882
is_linear=0
shrinkage=0.05


Tree=66
num_leaves=7
num_cat=0
split_feature=30 32 24 32 43 43
split_gain=15.1868 24.1911 50.1437 21.7452 45.4264 20.0311
threshold=0.5249999761581422 93.014999389648452 -0.97854062914848317 90.514999389648452 3.6258555650711064 3.6524777412414555
decision_type=2 2 2 2 2 2
left_child=1 2 -1 4 -2 -3
right_child=3 5 -4 -5 -6 -7
leaf_value=-0.027330515030461234 0.0009357200294368705 0.0044963515630255862 -0.00011791310164419693 -0.00081169577468979655 0.031594652382431747 -0.0010299273957299299
leaf_weight=179.26374328136444 479.55137678980827 8016.9860742241144 2779.4801760911942 10954.765152588487 160.53904999792576 2060.8967186063528
leaf_count=623 1577 26093 9142 36279 492 6793
internal_value=0.00102849 0.00219929 -0.00177534 -0.000287975 0.00866248 0.00336625
internal_weight=24631.5 13036.6 2958.74 11594.9 640.09 10077.9
internal_count=80999 42651 9765 38348 2069 32886
is_linear=0
shrinkage=0.05


Tree=67
num_leaves=7
num_cat=0
split_feature=2 32 18 71 52 35
split_gain=14.7506 24.4548 17.3362 16.7601 16.6806 16.6402
threshold=-10.996370792388914 100.92499923706056 2.6820660829544072 24.81004619598389 -0.98097562789916981 0.010569971520453693
decision_type=2 2 2 2 2 2
left_child=1 2 -1 5 -5 -2
right_child=3 -3 -4 4 -6 -7
leaf_value=0.032283827114312276 0.0014463089796280762 -0.0024060495628555729 0.0015543687392662344 0.011786057795956885 -0.015008557719915159 -0.0027778426835569879
leaf_weight=140.33849614858627 21246.411730974913 191.69438256323338 68.123915821313858 71.446671962738037 295.38901673257351 2617.8238204419613
leaf_count=428 69734 636 227 232 1023 8719
internal_value=0.000977089 0.0104866 0.022297 0.000819622 -0.00977206 0.000982837
internal_weight=24631.2 400.157 208.462 24231.1 366.836 23864.2
internal_count=80999 1291 655 79708 1255 78453
is_linear=0
shrinkage=0.05


Tree=68
num_leaves=7
num_cat=0
split_feature=0 17 21 28 14 34
split_gain=14.7779 30.1711 28.1544 18.488 17.1344 14.2536
threshold=-0.99567127227783192 4.2165877819061288 0.14144809544086459 1.0000000180025095e-35 0.0019672628259286289 0.011299814563244583
decision_type=2 2 2 2 2 2
left_child=2 3 -1 -2 -3 -4
right_child=1 4 5 -5 -6 -7
leaf_value=0.036248738499601744 -0.00017661340465566626 0.0025747489406726318 0.00031809932468754168 0.0028217986473491954 -0.011479955527393334 0.0093618604447476949
leaf_weight=69.260916635394096 13293.2023794204 299.81099535524845 1075.3886195868254 8381.9533932209015 779.7063253223896 731.48217087984085
leaf_count=207 43868 979 3527 27413 2650 2355
internal_value=0.000928303 0.00057652 0.00519232 0.000982973 -0.00757782 0.00398247
internal_weight=24630.8 22754.7 1876.13 21675.2 1079.52 1806.87
internal_count=80999 74910 6089 71281 3629 5882
is_linear=0
shrinkage=0.05


Tree=69
num_leaves=7
num_cat=0
split_feature=33 14 16 0 17 13
split_gain=14.4735 25.2891 24.9998 14.7048 25.7837 16.0007
threshold=4.8199999332427987 0.0020544176222756509 0.00090221242862753581 -0.99567127227783192 4.2165877819061288 0.21499999612569812
decision_type=2 2 2 2 2 2
left_child=3 2 -2 5 -5 -1
right_child=1 -3 -4 4 -6 -7
leaf_value=0.013748705277516921 -0.017936673538280035 -0.032300527598513415 0.023125422160037754 0.0010266055765453073 -0.0069249336196444827 0.0027320888514702334
leaf_weight=427.88089106976986 77.919106230139732 88.936107292771339 68.901780009269714 21470.142788216472 1069.3165540844202 1427.0660290122032
leaf_count=1363 268 319 218 70585 3593 4653
internal_value=0.000881999 -0.0114211 0.0013595 0.00100136 0.000649078 0.00527933
internal_weight=24630.2 235.757 146.821 24394.4 22539.5 1854.95
internal_count=80999 805 486 80194 74178 6016
is_linear=0
shrinkage=0.05


Tree=70
num_leaves=7
num_cat=0
split_feature=36 29 23 36 29 29
split_gain=23.4305 39.4181 47.194 39.5345 32.8825 30.5686
threshold=-0.035171328112483018 50.021358489990241 0.010907442308962408 -0.030349937267601487 22.175995826721195 74.381885528564467
decision_type=2 2 2 2 2 2
left_child=4 2 -2 -3 -1 -6
right_child=1 3 -4 -5 5 -7
leaf_value=0.035053882239185846 -0.0062475808478043328 -0.014498659341686411 0.001108971145978789 0.002475600309053872 0.003518988177371043 -0.02095919885781098
leaf_weight=79.935415834188461 4524.9763325899839 354.5212174654007 4205.6659354716539 9773.745054602623 5522.5976569354534 129.57325014472008
leaf_count=246 15267 1203 13774 31950 18022 446
internal_value=0.000608747 -0.000242183 -0.00270411 0.00188008 0.0034079 0.00295423
internal_weight=24591 18858.9 8730.64 10128.3 5732.11 5652.17
internal_count=80908 62194 29041 33153 18714 18468
is_linear=0
shrinkage=0.05


Tree=71
num_leaves=7
num_cat=0
split_feature=31 67 34 33 30 44
split_gain=16.6713 29.1787 30.4346 28.6579 27.5508 29.053
threshold=21.260000228881839 1.0000000180025095e-35 -0.11512749269604682 4.8199999332427987 0.21499999612569812 10.166179180145265
decision_type=2 2 2 2 2 2
left_child=1 3 -3 -1 -2 -6
right_child=4 2 -4 -5 5 -7
leaf_value=-0.0015562536957903755 0.0058809444660327731 -0.006671883950062696 0.0075113025999184015 -0.023936119774655724 0.00071908689818923324 -0.032976857377031488
leaf_weight=9869.5093392729759 3183.5552319288254 481.83268997073174 1747.0356628447771 144.15485945343971 9100.3245225101709 63.422939747571945
leaf_count=32685 10290 1604 5639 510 29953 227
internal_value=0.000578326 -0.000729107 0.00444359 -0.00188079 0.00187462 0.000482302
internal_weight=24589.8 12242.5 2228.87 10013.7 12347.3 9163.75
internal_count=80908 40438 7243 33195 40470 30180
is_linear=0
shrinkage=0.05


Tree=72
num_leaves=7
num_cat=0
split_feature=36 29 23 36 29 34
split_gain=21.0861 34.5029 42.4869 35.487 29.7278 31.7411
threshold=-0.035171328112483018 50.021358489990241 0.010907442308962408 -0.030349937267601487 22.175995826721195 0.0051091718487441548
decision_type=2 2 2 2 2 2
left_child=4 2 -2 -3 -1 -6
right_child=1 3 -4 -5 5 -7
leaf_value=0.033272759787714441 -0.0059244689370099319 -0.013790631769359813 0.001056162506840604 0.0022917812123794947 0.0064008941920971289 -0.0010959750527828765
leaf_weight=80.050200149416924 4523.559429243207 354.49769422411919 4205.5403303653002 9773.2023202776909 2916.5622297823429 2735.3706403970718
leaf_count=246 15267 1203 13774 31950 9442 9026
internal_value=0.000549324 -0.000257985 -0.00256158 0.00172755 0.00320475 0.00277308
internal_weight=24588.8 18856.8 8729.1 10127.7 5731.98 5651.93
internal_count=80908 62194 29041 33153 18714 18468
is_linear=0
shrinkage=0.05


Tree=73
num_leaves=7
num_cat=0
split_feature=36 29 23 36 29 23
split_gain=19.0349 31.1417 38.3581 32.0382 28.5512 28.3664
threshold=-0.035171328112483018 50.021358489990241 0.010907442308962408 -0.030349937267601487 74.381885528564467 -0.93585023283958424
decision_type=2 2 2 2 2 2
left_child=4 2 -2 -3 5 -1
right_child=1 3 -4 -5 -6 -7
leaf_value=0.013139401680914004 -0.0056298364549574676 -0.013104586272105727 0.0010033700853025378 0.0021772273452606585 -0.020071439051357762 0.0022580601073643632
leaf_weight=681.04781557619572 4522.3644764274359 354.45667462050915 4205.5273605436087 9773.0995895862579 129.55676816403866 4921.2750395387411
leaf_count=2182 15267 1203 13774 31950 446 16086
internal_value=0.000521925 -0.000245156 -0.00243388 0.00164113 0.0030449 0.00358296
internal_weight=24587.3 18855.4 8727.89 10127.6 5731.88 5602.32
internal_count=80908 62194 29041 33153 18714 18268
is_linear=0
shrinkage=0.05


Tree=74
num_leaves=7
num_cat=0
split_feature=36 28 74 32 29 34
split_gain=17.1788 29.3367 35.8321 31.526 26.7703 28.6367
threshold=-0.035171328112483018 1.0000000180025095e-35 0.72500002384185802 91.825000762939467 22.175995826721195 0.0051091718487441548
decision_type=2 2 2 2 2 2
left_child=4 3 -3 -2 -1 -6
right_child=1 2 -4 -5 5 -7
leaf_value=0.031413376753507347 -0.010237837664918059 0.0030489757907189493 -0.011335280057567766 -0.0010160785768172007 0.0059288558998509119 -0.0011920095670637188
leaf_weight=80.118713676929474 1017.8337672352791 7113.6739901900291 460.02874775230885 10262.498374015093 2916.3542461246252 2735.4316767156124
leaf_count=246 3433 23255 1543 33963 9442 9026
internal_value=0.000495805 -0.000232967 0.00217389 -0.001849 0.00289259 0.0024828
internal_weight=24585.9 18854 7573.7 11280.3 5731.9 5651.79
internal_count=80908 62194 24798 37396 18714 18468
is_linear=0
shrinkage=0.05


Tree=75
num_leaves=7
num_cat=0
split_feature=33 44 29 21 31 1
split_gain=20.2795 19.8678 34.3166 17.9653 15.5629 25.0087
threshold=4.8199999332427987 10.166179180145265 53.177446365356452 2.3766903877258305 21.260000228881839 -0.19639421999454496
decision_type=2 2 2 2 2 2
left_child=1 3 -3 -1 5 -2
right_child=4 2 -4 -5 -6 -7
leaf_value=0.00076924340906019595 -0.042132229151256681 -0.045510674770920509 0.00010091011591487371 0.011559124210366215 0.0062809036073672043 -0.0032767061439088994
leaf_weight=23766.985705807805 79.839655533432961 61.904272124171257 119.71209934353828 391.15346112847328 66.882305100560188 85.283966839313507
leaf_count=78155 293 228 397 1249 217 290
internal_value=0.000679751 0.000820257 -0.01561 0.000944418 -0.014001 -0.0222044
internal_weight=24571.8 24339.8 181.616 24158.1 232.006 165.124
internal_count=80829 80029 625 79404 800 583
is_linear=0
shrinkage=0.05


Tree=76
num_leaves=7
num_cat=0
split_feature=33 43 44 29 21 5
split_gain=18.348 21.9311 17.9805 31.1681 16.223 12.9947
threshold=4.8199999332427987 3.5462933778762822 10.166179180145265 53.177446365356452 2.3766903877258305 26.833153724670414
decision_type=2 2 2 2 2 2
left_child=2 5 4 -4 -1 -2
right_child=1 -3 3 -5 -6 -7
leaf_value=0.00073078025247979282 -0.014648729429086314 -0.039678193698475347 -0.043420911860274872 9.5906146318496219e-05 0.01098533243324696 0.013597844403637496
leaf_weight=23767.067874640226 110.55976870656013 57.972237333655357 61.69281955063343 119.71235048770905 391.05976282060146 63.177736669778824
leaf_count=78155 381 214 228 397 1249 205
internal_value=0.00064561 -0.0133275 0.000779175 -0.0148603 0.000897224 -0.00435814
internal_weight=24571.2 231.71 24339.5 181.405 24158.1 173.738
internal_count=80829 800 80029 625 79404 586
is_linear=0
shrinkage=0.05


Tree=77
num_leaves=7
num_cat=0
split_feature=33 44 24 22 21 24
split_gain=16.6019 16.2772 29.1724 15.0014 14.6506 14.5947
threshold=4.8199999332427987 10.166179180145265 0.39271505177021032 -0.69190683960914601 2.3766903877258305 0.33172981441020971
decision_type=2 2 2 2 2 2
left_child=1 4 -3 -2 -1 -5
right_child=3 2 -4 5 -6 -7
leaf_value=0.0006942406456138246 -0.033392800759193195 0.0039444843043563221 -0.036234696975637234 0.0079200409004254093 0.010440553174551748 -0.021591272758618881
leaf_weight=23767.139474466443 62.584013357758522 100.01569516956806 81.130252406001091 96.019176259636879 390.94673213362694 72.818226799368858
leaf_count=78155 229 330 295 315 1249 256
internal_value=0.000613176 0.000740151 -0.0141508 -0.0126868 0.000852389 -0.00486014
internal_weight=24570.7 24339.2 181.146 231.421 24158.1 168.837
internal_count=80829 80029 625 800 79404 571
is_linear=0
shrinkage=0.05


Tree=78
num_leaves=7
num_cat=0
split_feature=33 7 14 23 14 16
split_gain=15.0254 14.8794 34.0114 23.0194 14.7743 14.5491
threshold=4.8199999332427987 51.718770980834968 0.0021101848687976603 -0.50938662886619557 0.0026686405763030057 0.00089560469496063899
decision_type=2 2 2 2 2 2
left_child=1 2 -1 -3 5 -2
right_child=4 3 -4 -5 -6 -7
leaf_value=0.0036840870471987128 -0.02057073871694419 -0.0042369975437119125 -0.0011926889792258399 0.00093752003376693961 -0.03369753667258385 0.0083986503289706863
leaf_weight=8765.8612023591995 77.961721003055573 3270.0542276650667 6036.5337293744087 6266.5119365900755 57.980901047587395 95.202703014016151
leaf_count=28565 273 11009 19970 20485 213 314
internal_value=0.000582375 0.000703101 0.00169535 -0.000837062 -0.0120779 -0.00468711
internal_weight=24570.1 24339 14802.4 9536.57 231.145 173.164
internal_count=80829 80029 48535 31494 800 587
is_linear=0
shrinkage=0.05


Tree=79
num_leaves=7
num_cat=0
split_feature=66 53 34 30 7 6
split_gain=16.2663 31.1076 36.8524 24.8205 24.2213 28.4011
threshold=19.500000000000004 1.0858061313629153 -0.025519393384456631 0.9350000023841859 51.718770980834968 -4.4323103427886954
decision_type=2 2 2 2 2 2
left_child=1 3 -3 -1 -2 -6
right_child=4 2 -4 -5 5 -7
leaf_value=-0.0026800397974716763 0.0025784302460788596 0.017242935788776951 -0.0029374908356054382 -0.015798358719628921 -0.0061198496355446648 0.0007882723612732391
leaf_weight=3408.0542105138302 12098.874190673232 412.69274760782719 498.6919911801815 402.34340113401413 2007.246146351099 5740.8192884474993
leaf_count=11323 39551 1304 1655 1398 6707 18891
internal_value=0.000553181 -0.00208418 0.00620948 -0.004069 0.00118071 -0.00100193
internal_weight=24568.7 4721.78 911.385 3810.4 19846.9 7748.07
internal_count=80829 15680 2959 12721 65149 25598
is_linear=0
shrinkage=0.05


Tree=80
num_leaves=7
num_cat=0
split_feature=2 0 30 28 36 29
split_gain=16.0251 27.6008 17.7896 50.4952 26.6137 16.2219
threshold=-8.8883295059204084 0.38570901751518255 0.84499999880790722 1.0000000180025095e-35 0.14110892266035083 26.423294067382816
decision_type=2 2 2 2 2 2
left_child=1 5 4 -4 -2 -1
right_child=2 -3 3 -5 -6 -7
leaf_value=0.024430990847407734 0.00027044453863859808 -0.017281650820598619 -0.0069168431263355729 0.003341061947243987 0.01038483255633901 0.0064002948331091606
leaf_weight=155.59827926754951 17949.080392047763 103.96376377344131 2938.8824911266565 2025.9870258122683 673.83247067034245 619.79854200780392
leaf_count=488 58994 360 9907 6636 2164 2010
internal_value=0.000175138 0.00679858 -7.20636e-05 -0.00273113 0.000636951 0.0100453
internal_weight=24467.1 879.361 23587.8 4964.87 18622.9 775.397
internal_count=80559 2858 77701 16543 61158 2498
is_linear=0
shrinkage=0.05


Tree=81
num_leaves=7
num_cat=0
split_feature=21 34 14 1 18 21
split_gain=16.5427 26.931 17.9279 14.1472 13.6791 28.8679
threshold=1.7239634990692141 -0.051600856706500046 0.0010617435327731075 0.27094194293022161 1.989868223667145 0.069176558405160918
decision_type=2 2 2 2 2 2
left_child=4 2 -2 -3 5 -1
right_child=1 3 -4 -5 -6 -7
leaf_value=0.025649810140768555 -3.0467958501612287e-05 -0.0057141557439028979 0.021563210761981595 0.0075389103335770273 -0.00094904481276602529 0.0012595594203213577
leaf_weight=122.45566664636135 135.5264754742384 449.68791989982128 329.5557429343462 362.98629267513752 16046.645991787314 7019.5475891232491
leaf_count=377 443 1493 1027 1170 53030 23019
internal_value=0.000166422 0.00570276 0.0152842 0.000207404 -0.000138878 0.00168128
internal_weight=24466.4 1277.76 465.082 812.674 23188.6 7142
internal_count=80559 4133 1470 2663 76426 23396
is_linear=0
shrinkage=0.05


Tree=82
num_leaves=7
num_cat=0
split_feature=21 34 14 2 18 26
split_gain=14.9372 24.327 16.2014 15.7931 21.8018 21.0899
threshold=1.7239634990692141 -0.051600856706500046 0.0010617435327731075 -8.8883295059204084 2.6080199480056767 25.348333358764652
decision_type=2 2 2 2 2 2
left_child=3 2 -2 4 -1 -5
right_child=1 -3 -4 5 -6 -7
leaf_value=0.01206000056090873 -2.895547189457354e-05 0.00019716754424269948 0.020500371101305506 -0.01294829650027004 -0.0054542593044436512 -0.00019564691833085432
leaf_weight=572.68179298937321 135.52663449943066 812.66127620637417 329.36595357954502 328.0432481020689 256.71290281414986 22030.754813417792
leaf_count=1832 443 2663 1027 1134 864 72596
internal_value=0.000158218 0.00541948 0.0145284 -0.000131873 0.00663898 -0.000383322
internal_weight=24465.7 1277.55 464.893 23188.2 829.395 22358.8
internal_count=80559 4133 1470 76426 2696 73730
is_linear=0
shrinkage=0.05


Tree=83
num_leaves=7
num_cat=0
split_feature=21 34 71 18 2 26
split_gain=13.4882 21.9794 15.126 29.5659 25.3093 15.0447
threshold=1.7239634990692141 -0.051600856706500046 -18.550127029418942 3.5174329280853276 6.3000054359436044 51.484195709228523
decision_type=2 2 2 2 2 2
left_child=2 5 3 -1 -4 -2
right_child=1 -3 4 -5 -6 -7
leaf_value=0.0022036854165948402 0.02311295663170999 0.00018732190081260136 1.0544422582835572e-05 0.024154611018571304 -0.006554993435135846 0.0051002848742090993
leaf_weight=1408.9700842946768 223.91818153858185 812.65855334699154 20024.5535043329 171.18173564970493 1582.9515346288681 240.72374321520329
leaf_count=4584 694 2663 66021 529 5292 776
internal_value=0.000150343 0.00515043 -0.000125299 0.00459546 -0.000470724 0.0138119
internal_weight=24465 1277.3 23187.7 1580.15 21607.5 464.642
internal_count=80559 4133 76426 5113 71313 1470
is_linear=0
shrinkage=0.05


Tree=84
num_leaves=7
num_cat=0
split_feature=54 14 18 31 3 13
split_gain=13.6232 37.3326 36.0336 27.4744 15.3475 26.0455
threshold=1.7128040790557864 0.0025149952853098516 1.3599556088447573 30.755000114440922 0.35245238244533544 0.18500000238418582
decision_type=2 2 2 2 2 2
left_child=4 2 -2 -3 -1 -6
right_child=1 3 -4 -5 5 -7
leaf_value=-0.00081432683175827194 0.048179425858482297 -0.00044097031045807505 0.0093020208826536041 -0.035749477696796338 -0.00393832579774677 0.0042593829896818937
leaf_weight=18042.436178788543 65.303566381335258 447.16978892683983 600.02341383695602 61.840789824724197 1281.146802559495 3966.4145832806826
leaf_count=59554 190 1475 1923 222 4295 12900
internal_value=0.000142938 0.00539508 0.0131845 -0.00479236 -0.000122108 0.00225761
internal_weight=24464.3 1174.34 665.327 509.011 23290 5247.56
internal_count=80559 3810 2113 1697 76749 17195
is_linear=0
shrinkage=0.05


Tree=85
num_leaves=7
num_cat=0
split_feature=74 24 35 22 54 32
split_gain=16.0813 50.3217 49.4493 16.6133 20.0721 16.7351
threshold=-0.87499999999999989 -0.18436925113201139 -0.0003224833781132474 -1.4155462384223936 0.77603027224540722 93.204998016357436
decision_type=2 2 2 2 2 2
left_child=1 -1 -3 4 -2 -5
right_child=3 2 -4 5 -6 -7
leaf_value=0.028265381552182275 -0.011148148521407516 0.0013167971189319916 -0.023917783326289088 -0.0014236698429210962 0.0062077254147859355 0.0017336624730349818
leaf_weight=93.607591524720192 590.3458609431982 419.66115692257881 360.0966192483902 5535.1621028482914 231.17233580350876 17349.191953703761
leaf_count=292 2016 1400 1283 18254 758 56875
internal_value=0.000473469 -0.00618573 -0.0103524 0.000719056 -0.00626266 0.000969953
internal_weight=24579.2 873.365 779.758 23705.9 821.518 22884.4
internal_count=80878 2975 2683 77903 2774 75129
is_linear=0
shrinkage=0.05


Tree=86
num_leaves=7
num_cat=0
split_feature=31 74 30 26 41 31
split_gain=17.4754 32.4422 28.0473 27.2823 27.1221 23.878
threshold=21.260000228881839 -0.87499999999999989 0.014999999664723875 57.940481185913093 1.0000000180025095e-35 24.85000038146973
decision_type=2 2 2 2 2 2
left_child=1 4 5 -4 -1 -2
right_child=2 -3 3 -5 -6 -7
leaf_value=-0.020007042513287922 0.026399326907110006 -0.00036937943598241405 0.0027972707036814652 -0.0025055516872871126 0.0084175324701408882 0.0046565515446322422
leaf_weight=371.99394901096821 203.54488129913807 11744.472496792674 8412.0418611466885 3407.2158558815718 107.66768750548363 331.41471940279007
leaf_count=1311 625 38726 27539 11248 358 1071
internal_value=0.000449789 -0.000890487 0.00177592 0.00126851 -0.0136225 0.0129632
internal_weight=24578.4 12224.1 12354.2 11819.3 479.662 534.96
internal_count=80878 40395 40483 38787 1669 1696
is_linear=0
shrinkage=0.05


Tree=87
num_leaves=7
num_cat=0
split_feature=31 74 32 15 32 41
split_gain=15.7745 29.3246 30.9951 26.2551 50.0282 24.5421
threshold=21.260000228881839 -0.87499999999999989 101.75999832153322 0.98302185535430919 90.215000152587905 1.0000000180025095e-35
decision_type=2 2 2 2 2 2
left_child=1 5 -3 4 -2 -1
right_child=3 2 -4 -5 -6 -7
leaf_value=-0.019041960147432421 0.024800063141088166 -0.0026412649131383197 0.0025292940898748312 -0.0008541105486114843 0.002899539198280857 0.0079951871972945912
leaf_weight=371.37165097892284 270.67846190929413 6542.1717999726534 5202.2788134664297 5575.7392287403345 6507.6234956532717 107.7384133040905
leaf_count=1311 841 21669 17057 18354 21288 358
internal_value=0.000427346 -0.000846078 -0.000350913 0.00168729 0.00377762 -0.0129581
internal_weight=24577.6 12223.6 11744.5 12354 6778.3 479.11
internal_count=80878 40395 38726 40483 22129 1669
is_linear=0
shrinkage=0.05


Tree=88
num_leaves=7
num_cat=0
split_feature=22 54 34 17 24 29
split_gain=14.7602 16.2244 20.7018 16.1297 14.0829 23.5952
threshold=-0.39777207374572748 0.17649880051612857 -0.0088785779662430269 5.1827471256256112 -0.9686339497566222 44.822477340698249
decision_type=2 2 2 2 2 2
left_child=1 2 -1 -3 5 -2
right_child=4 3 -4 -5 -6 -7
leaf_value=-0.00033869612600875929 -0.013866752867169502 0.00010982935321004113 -0.01338120978026896 -0.010967627637521645 0.0019898977204712465 0.0014494614979991523
leaf_weight=656.70222125947475 385.25308562815189 9450.0094049423933 565.96445859968662 339.45123788714409 12459.534130051732 720.05630223453045
leaf_count=2170 1305 31221 1928 1151 40755 2348
internal_value=0.000406009 -0.000953896 -0.00638199 -0.000275364 0.00150999 -0.00389668
internal_weight=24577 11012.1 1222.67 9789.46 13564.8 1105.31
internal_count=80878 36470 4098 32372 44408 3653
is_linear=0
shrinkage=0.05


Tree=89
num_leaves=7
num_cat=0
split_feature=31 74 32 30 32 15
split_gain=14.2811 26.5125 27.9336 25.4204 23.601 22.0222
threshold=21.260000228881839 -0.87499999999999989 101.75999832153322 0.014999999664723875 92.424999237060561 0.98302185535430919
decision_type=2 2 2 2 2 2
left_child=1 4 -3 -2 -1 -5
right_child=3 2 -4 5 -6 -7
leaf_value=0.016313240203225405 0.012238847392902531 -0.0025298361525112299 0.0023787519925334353 0.0030453492320954541 -0.016622919634690245 -0.0012945050668670723
leaf_weight=61.716579258441925 534.58241038024426 6541.9900110960007 5202.3003363311291 6525.2932665646076 416.81148001551628 5293.8220187872648
leaf_count=201 1696 21669 17057 21336 1468 17451
internal_value=0.000385642 -0.000826049 -0.00035549 0.00158446 -0.0123499 0.00110157
internal_weight=24576.5 12222.8 11744.3 12353.7 478.528 11819.1
internal_count=80878 40395 38726 40483 1669 38787
is_linear=0
shrinkage=0.05


Tree=90
num_leaves=5
num_cat=0
split_feature=36 71 32 15
split_gain=15.6357 14.6708 33.2516 18.2169
threshold=-0.28119485080242151 -19.667103767395016 105.67500305175783 0.98302185535430919
decision_type=2 2 2 2
left_child=-1 2 -2 -3
right_child=1 3 -4 -5
leaf_value=-0.018754165634549839 0.0081954282099192151 0.0012384656966474288 -0.015796411761337871 -0.0015839514134924383
leaf_weight=107.43602681159973 1199.8645523935556 12790.043090879917 163.22525526583195 10336.474292322993
leaf_count=371 3848 42065 553 34147
internal_value=0.0001903 0.000274172 0.00531301 -2.3037e-05
internal_weight=24597 24489.6 1363.09 23126.5
internal_count=80984 80613 4401 76212
is_linear=0
shrinkage=0.05


Tree=91
num_leaves=7
num_cat=0
split_feature=54 16 31 18 5 16
split_gain=14.5428 39.6795 26.9564 26.0969 14.8956 17.8078
threshold=1.776306211948395 0.0011487228330224755 20.800000190734867 1.6520500779151919 59.074659347534187 0.0064071251545101413
decision_type=2 2 2 2 2 2
left_child=4 3 -3 -2 5 -1
right_child=1 2 -4 -5 -6 -7
leaf_value=-5.7493507081620956e-05 0.047656437468577069 -0.010704660987515949 0.0084000766287732967 0.012977413001499636 0.019399228807027973 -0.018420811604793155
leaf_weight=23284.964351266623 66.835183277726173 351.74369393289089 386.43896003067493 278.18823271989822 96.73063163459301 131.77528597414494
leaf_count=76691 195 1186 1247 883 306 476
internal_value=0.000180737 0.00584247 -0.000705488 0.0198135 -8.03217e-05 -0.000161613
internal_weight=24596.7 1083.21 738.183 345.023 23513.5 23416.7
internal_count=80984 3511 2433 1078 77473 77167
is_linear=0
shrinkage=0.05


Tree=92
num_leaves=5
num_cat=0
split_feature=36 22 44 2
split_gain=14.0834 13.4653 19.6021 16.6661
threshold=-0.28119485080242151 -0.4521579891443252 7.4268765449523935 -11.759490489959715
decision_type=2 2 2 2
left_child=-1 2 -2 -3
right_child=1 3 -4 -5
leaf_value=-0.017814070342647474 -0.00074085343597406813 0.016575971451167737 -0.013032494857431107 0.0010437414981622737
leaf_weight=107.35922022163868 9748.5836269110441 173.83362431824207 334.52746522426605 14231.304023727775
leaf_count=371 32276 549 1147 46641
internal_value=0.000171845 0.000251421 -0.00114991 0.00123231
internal_weight=24595.6 24488.2 10083.1 14405.1
internal_count=80984 80613 33423 47190
is_linear=0
shrinkage=0.05


Tree=93
num_leaves=6
num_cat=0
split_feature=52 54 32 52 18
split_gain=14.1701 18.6564 34.3755 14.9361 12.176
threshold=-2.8099111318588252 1.8542246222496035 96.24499893188478 -0.300827145576477 1.5464401841163637
decision_type=2 2 2 2 2
left_child=4 3 -3 -2 -1
right_child=1 2 -4 -5 -6
leaf_value=0.00092820728541465427 0.0005989539316190195 0.018487892049758183 -0.0008628760348870718 -0.0026299347094240972 -0.02449320111962722
leaf_weight=83.525478303432465 19050.348441287875 390.8569527566433 553.73633739352226 4409.7590965777636 106.80721092224121
leaf_count=274 62619 1228 1823 14668 372
internal_value=0.000163227 0.000269479 0.00715523 -8.06136e-06 -0.0133907
internal_weight=24595 24404.7 944.593 23460.1 190.333
internal_count=80984 80338 3051 77287 646
is_linear=0
shrinkage=0.05


Tree=94
num_leaves=7
num_cat=0
split_feature=71 29 5 18 26 52
split_gain=13.1065 22.3929 31.8765 21.9503 15.8389 14.8053
threshold=-19.667103767395016 75.090198516845717 27.299732208251957 3.6642328500747685 60.570671081542976 -0.2313367277383804
decision_type=2 2 2 2 2 2
left_child=3 4 -3 5 -2 -1
right_child=1 2 -4 -5 -6 -7
leaf_value=0.0044021477217419383 0.00066704281576299856 -0.023334876871991667 0.0072128122296178003 0.025761399408549185 -0.0028389070392739074 -0.017680984286953076
leaf_weight=1178.2908305376768 18973.448282301426 235.82148493826389 132.96069633960724 114.51326455175877 3879.2415785640478 80.140460014343262
leaf_count=3811 62457 819 430 352 12842 273
internal_value=0.000155058 -0.00012569 -0.0123315 0.00490016 7.181e-05 0.00298291
internal_weight=24594.4 23221.5 368.782 1372.94 22852.7 1258.43
internal_count=80984 76548 1249 4436 75299 4084
is_linear=0
shrinkage=0.05


Tree=95
num_leaves=7
num_cat=0
split_feature=3 51 5 2 58 1
split_gain=14.6266 25.7823 25.3911 22.7883 20.592 39.5741
threshold=0.35245238244533544 0.95382663607597362 16.135045051574711 -8.8883295059204084 1.0000000180025095e-35 2.0410441160202031
decision_type=2 2 2 2 2 2
left_child=1 3 -3 -1 -2 -6
right_child=4 2 -4 -5 5 -7
leaf_value=0.0097382441203822806 0.00068346140799583851 0.0036512278377756656 -0.0049238203229418206 -8.1426831937769369e-05 -9.7753774403253909e-05 0.021218930003188443
leaf_weight=619.55691231787205 4449.118480861187 1032.3796852082014 5249.5646575987339 12330.986067652702 509.18762947618961 379.36044020950794
leaf_count=1992 14620 3380 17511 40594 1684 1193
internal_value=-0.000243306 -0.000885994 -0.00351423 0.000389064 0.00207214 0.0090169
internal_weight=24570.2 19232.5 6281.94 12950.5 5337.67 888.548
internal_count=80974 63477 20891 42586 17497 2877
is_linear=0
shrinkage=0.05


Tree=96
num_leaves=5
num_cat=0
split_feature=2 32 63 32
split_gain=14.5789 15.5558 46.1886 34.1735
threshold=15.882739543914797 93.204998016357436 0.74156889319419872 93.555000305175795
decision_type=2 2 2 2
left_child=1 2 -1 -3
right_child=-2 3 -4 -5
leaf_value=0.0067619433232215106 -0.020165432459437749 0.010410182363585622 -0.0045383259960855597 8.6364627884333328e-05
leaf_weight=1114.7993668168783 90.378483474254608 838.48152516782284 4770.127531632781 17755.934001624584
leaf_count=3634 313 2693 15836 58498
internal_value=-0.000231085 -0.000156666 -0.0023969 0.000552433
internal_weight=24569.7 24479.3 5884.93 18594.4
internal_count=80974 80661 19470 61191
is_linear=0
shrinkage=0.05


Tree=97
num_leaves=7
num_cat=0
split_feature=36 26 53 36 24 5
split_gain=14.2354 25.4068 31.4045 14.1381 31.6798 14.9026
threshold=0.22802233695983889 60.033370971679695 0.40704883635044103 0.14278052747249606 0.63435554504394542 28.895252227783207
decision_type=2 2 2 2 2 2
left_child=3 2 -2 5 -5 -1
right_child=1 -3 -4 4 -6 -7
leaf_value=-0.0011162441993147366 9.9571119274293959e-05 0.017447195519687594 -0.034269924863439306 -0.00033759812747801224 0.024037931107477081 0.0015978821708315461
leaf_weight=16293.667363643646 130.75176674127579 64.395734146237373 134.16493241488934 419.53901515901089 194.34851790964603 7332.85978756845
leaf_count=53797 435 205 481 1383 603 24070
internal_value=-0.000219545 -0.0105294 -0.01737 -7.90541e-05 0.00740591 -0.000273841
internal_weight=24569.7 329.312 264.917 24240.4 613.888 23626.5
internal_count=80974 1121 916 79853 1986 77867
is_linear=0
shrinkage=0.05


Tree=98
num_leaves=7
num_cat=0
split_feature=23 31 35 53 32 24
split_gain=13.6063 26.5137 40.2666 31.1023 22.7146 45.2286
threshold=-0.56457334756851185 13.619999885559084 -0.025853467173874375 0.82465133070945751 93.045001983642592 -0.98279649019241322
decision_type=2 2 2 2 2 2
left_child=1 3 -3 -1 5 -2
right_child=4 2 -4 -5 -6 -7
leaf_value=-0.021710962937209165 -0.022256393139072607 0.031530292046724827 -0.001605918499203331 0.010914708219535142 0.0016298702805019793 -0.0012503886350225142
leaf_weight=316.82858797907829 276.27917042374611 91.780857548117638 7742.1702709943056 94.168613702058792 12666.921127080917 3381.2155824452639
leaf_count=1113 952 280 25898 307 41324 11100
internal_value=-0.000208559 -0.00186408 -0.00121373 -0.0142273 0.000627656 -0.00284279
internal_weight=24569.4 8244.95 7833.95 410.997 16324.4 3657.49
internal_count=80974 27598 26178 1420 53376 12052
is_linear=0
shrinkage=0.05


Tree=99
num_leaves=5
num_cat=0
split_feature=2 3 51 58
split_gain=13.1679 13.124 23.4793 18.2644
threshold=15.882739543914797 0.35245238244533544 0.95382663607597362 1.0000000180025095e-35
decision_type=2 2 2 2
left_child=1 2 -1 -3
right_child=-2 3 -4 -5
leaf_value=0.00048189353495845053 -0.019145531347318837 0.00075658555153420594 -0.0032491145866602456 0.0086099120546078694
leaf_weight=12912.997813254595 90.356826320290565 4415.9111028313637 6260.165057644248 888.53747043013573
leaf_count=42459 313 14507 20818 2877
internal_value=-0.000198158 -0.000127436 -0.000736411 0.00207346
internal_weight=24568 24477.6 19173.2 5304.45
internal_count=80974 80661 63277 17384
is_linear=0
shrinkage=0.05


end of trees

feature_importances:
hour_sin=32
hour_cos=29
tnx_chg_5d=27
htf_1h_rsi_14=26
htf_4h_rsi_14=26
htf_4h_atr_percentile_100=25
ema_200_dist_atr=24
rvol_20=22
vix_level=22
realized_vol_20=20
dxy_level=19
fvg_bear_size_atr=19
vix_chg_5d=18
dist_to_swing_low_atr=15
dist_to_sl_atr_conf=15
fvg_bull_size_atr=15
ltf_rsi_minus_htf_rsi=14
vol_pct_diff_htf=14
atr_pct=13
tnx_level=13
dist_to_bear_fvg_atr=13
ema_20_dist_atr=12
volume_z_score=12
bb_width_pct=11
htf_1h_atr_percentile_100=11
dist_to_bull_fvg_atr=11
bars_since_vol_spike=11
adx_14=10
rsi_14=10
dist_to_swing_high_atr=9
dxy_chg_5d=8
ema_50_dist_atr=7
vol_compression=7
atr_percentile_100=6
htf_4h_ema_alignment=6
ema_20_slope_atr=5
dist_to_sh_atr_conf=5
in_ny=4
vol_expansion_ratio=4
stoch_rsi_k=3
in_london_ny_killzone=3
htf_ltf_agree_bull=3
eqhigh_present=2
ema_alignment=1
adx_slope=1
momentum_composite=1
both_high_vol=1

parameters:
[boosting: gbdt]
[objective: binary]
[metric: binary_logloss]
[tree_learner: serial]
[device_type: cpu]
[data_sample_strategy: bagging]
[data: ]
[valid: ]
[num_iterations: 100]
[learning_rate: 0.05]
[num_leaves: 7]
[num_threads: -1]
[seed: 7]
[deterministic: 1]
[force_col_wise: 0]
[force_row_wise: 0]
[histogram_pool_size: -1]
[max_depth: 3]
[min_data_in_leaf: 200]
[min_sum_hessian_in_leaf: 0.001]
[bagging_fraction: 0.8]
[pos_bagging_fraction: 1]
[neg_bagging_fraction: 1]
[bagging_freq: 5]
[bagging_seed: 17422]
[bagging_by_query: 0]
[feature_fraction: 0.8]
[feature_fraction_bynode: 1]
[feature_fraction_seed: 7040]
[extra_trees: 0]
[extra_seed: 6516]
[early_stopping_round: 0]
[early_stopping_min_delta: 0]
[first_metric_only: 0]
[max_delta_step: 0]
[lambda_l1: 0]
[lambda_l2: 1]
[linear_lambda: 0]
[min_gain_to_split: 0]
[drop_rate: 0.1]
[max_drop: 50]
[skip_drop: 0.5]
[xgboost_dart_mode: 0]
[uniform_drop: 0]
[drop_seed: 15215]
[top_rate: 0.2]
[other_rate: 0.1]
[min_data_per_group: 100]
[max_cat_threshold: 32]
[cat_l2: 10]
[cat_smooth: 10]
[max_cat_to_onehot: 4]
[top_k: 20]
[monotone_constraints: ]
[monotone_constraints_method: basic]
[monotone_penalty: 0]
[feature_contri: ]
[forcedsplits_filename: ]
[refit_decay_rate: 0.9]
[cegb_tradeoff: 1]
[cegb_penalty_split: 0]
[cegb_penalty_feature_lazy: ]
[cegb_penalty_feature_coupled: ]
[path_smooth: 0]
[interaction_constraints: ]
[verbosity: -1]
[saved_feature_importance_type: 0]
[use_quantized_grad: 0]
[num_grad_quant_bins: 4]
[quant_train_renew_leaf: 0]
[stochastic_rounding: 1]
[linear_tree: 0]
[max_bin: 255]
[max_bin_by_feature: ]
[min_data_in_bin: 3]
[bin_construct_sample_cnt: 200000]
[data_random_seed: 61]
[is_enable_sparse: 1]
[enable_bundle: 1]
[use_missing: 1]
[zero_as_missing: 0]
[feature_pre_filter: 1]
[pre_partition: 0]
[two_round: 0]
[header: 0]
[label_column: ]
[weight_column: ]
[group_column: ]
[ignore_column: ]
[categorical_feature: ]
[forcedbins_filename: ]
[precise_float_parser: 0]
[parser_config_file: ]
[objective_seed: 15521]
[num_class: 1]
[is_unbalance: 1]
[scale_pos_weight: 1]
[sigmoid: 1]
[boost_from_average: 1]
[reg_sqrt: 0]
[alpha: 0.9]
[fair_c: 1]
[poisson_max_delta_step: 0.7]
[tweedie_variance_power: 1.5]
[lambdarank_truncation_level: 30]
[lambdarank_norm: 1]
[label_gain: ]
[lambdarank_position_bias_regularization: 0]
[eval_at: ]
[multi_error_top_k: 1]
[auc_mu_weights: ]
[num_machines: 1]
[local_listen_port: 12400]
[time_out: 120]
[machine_list_filename: ]
[machines: ]
[gpu_platform_id: -1]
[gpu_device_id: -1]
[gpu_use_dp: 0]
[num_gpu: 1]

end of parameters

pandas_categorical:null
